#ifndef NANONET_RAW_MODEL_H
#define NANONET_RAW_MODEL_H
#include <assert.h>
#include "util.h"
const float _conv_raw_W[] = {
	0.0584127,
	-0.119263,
	0.113241,
	0.527833,
	-0.545802,
	-0.315893,
	0.387816,
	-0.0634338,
	0.0817069,
	0.0392262,
	0.0163132,
	0.0261267,
	-0.536118,
	0.552185,
	0.472393,
	-0.204246,
	-0.2317,
	-0.256499,
	0.220824,
	0.0259236,
	0.0933999,
	-0.00448794,
	-0.126419,
	0.198606,
	0.146949,
	-0.671418,
	0.0909883,
	0.105262,
	0.449586,
	0.0131346,
	-0.0351178,
	0.0268139,
	-0.017239,
	0.0332686,
	-0.0334599,
	-0.559251,
	0.540789,
	-0.336732,
	0.00504731,
	-0.00621824,
	-0.0290018,
	0.0112887,
	0.0305255,
	-0.0285828,
	0.00675857,
	-0.135428,
	-0.360552,
	0.115198,
	0.56872,
	-0.0352666,
	-0.417462,
	-0.00427661,
	-0.106872,
	0.0242219,
	-0.0363693,
	0.22265,
	-0.0869997,
	-0.265764,
	-0.05,
	-0.0480032,
	0.334641,
	0.166135,
	-0.128149,
	-0.106775,
	-0.0144913,
	0.0342077,
	0.0528065,
	0.0261772,
	0.301389,
	-0.911707,
	-0.0883688,
	0.198865,
	0.0778864,
	0.152059,
	0.0163818,
	0.0124042,
	-0.0544745,
	-0.0470521,
	-0.330942,
	-0.0627475,
	0.685076,
	-0.329605,
	-0.202812,
	0.0681135,
	0.137071,
	0.0633855,
	-0.0911375,
	-0.02393,
	0.0304237,
	0.200991,
	0.495727,
	-0.179558,
	-0.145577,
	-0.567036,
	-0.188258,
	0.135749,
	-0.0167473,
	0.00469316,
	0.0250734,
	0.0625618,
	-0.069253,
	-0.757483,
	0.797428,
	0.0852484,
	-0.259236,
	0.257536,
	-0.102349,
	-0.0110697,
	-0.0190746,
	-0.0068764,
	0.174502,
	0.18133,
	0.0917256,
	-0.510502,
	0.273628,
	0.147664,
	-0.374685,
	-0.149189,
	0.0256393,
	-0.0397776,
	-0.0165011,
	0.108353,
	0.143913,
	-0.376026,
	-0.560685,
	0.0954065,
	0.051422,
	-0.0067171,
	0.0507538,
	0.0872198,
	-0.0261557,
	0.0155372,
	-0.0101208,
	0.471863,
	-0.632292,
	0.564426,
	-0.0146364,
	-0.479068,
	-0.039174,
	0.107871,
	-0.0396324,
	0.0355462,
	-0.0109229,
	0.145162,
	0.0938556,
	0.0032712,
	-0.464772,
	0.393684,
	-0.412979,
	-0.179858,
	-0.0290494,
	0.0260805,
	-0.0146646,
	0.0173537,
	-0.329607,
	-0.152146,
	-0.103798,
	0.789391,
	-0.0402227,
	-0.0386811,
	-0.217916,
	-0.0580927,
	0.00623488,
	0.0269268,
	-0.0219834,
	0.4333,
	0.0550156,
	-0.443807,
	-0.206597,
	-0.00442961,
	-0.241282,
	0.150251,
	0.00778065,
	-0.0410962,
	0.0271222,
	0.0191532,
	-0.0528792,
	-0.0373635,
	0.144855,
	-0.156619,
	0.159228,
	0.15019,
	0.223445,
	0.0476972,
	-0.0220104,
	0.000510779,
	-0.0660595,
	0.158297,
	0.492736,
	-0.752371,
	-0.385868,
	0.552333,
	0.124137,
	-0.353566,
	0.121216,
	0.112447,
	-0.00300882,
	0.00530583,
	-0.00848395,
	0.035624,
	-0.643539,
	0.826416,
	-0.209391,
	0.204974,
	-0.214138,
	0.10312,
	0.00799421,
	0.00489522,
	0.00209998,
	-0.0180899,
	-0.0115036,
	-0.000473888,
	0.205206,
	-0.428213,
	-0.359781,
	0.129638,
	-0.0127776,
	-0.00875633,
	0.0140308,
	-0.0361198,
	-0.0331356,
	-0.077039,
	0.367634,
	0.134121,
	0.0353189,
	-0.25745,
	-0.407156,
	-0.0470404,
	-0.0703274,
	-0.0148911,
	-0.0350207,
	-0.175651,
	-0.137334,
	0.407902,
	0.530262,
	-0.0430883,
	0.137977,
	-0.486821,
	-0.182174,
	-0.0751871,
	-0.00286761,
	0.0408069,
	-0.040715,
	-0.0384814,
	-0.761361,
	0.0990701,
	0.163489,
	0.339795,
	0.0745527,
	-0.129535,
	0.0173126,
	0.063505,
	0.00210302,
	0.108213,
	-0.0420309,
	-0.409595,
	-0.356757,
	-0.2949,
	0.247832,
	-0.127212,
	0.314723,
	0.131541,
	0.143482,
	0.108917,
	0.0411199,
	0.018417,
	0.0435601,
	-1.08461,
	0.339149,
	0.205269,
	0.302667,
	-0.0212655,
	-0.00752327,
	0.0138922,
	-0.0111948,
	0.276576,
	0.387598,
	0.370589,
	-0.011186,
	-0.0640361,
	-0.175867,
	-0.348803,
	-0.212717,
	-0.107583,
	0.0121498,
	-0.0144235,
	-0.167164,
	-0.0122956,
	0.17237,
	-0.837246,
	0.890983,
	0.0208214,
	-0.101752,
	0.0104485,
	0.0415345,
	0.0152646,
	0.0133433,
	0.265707,
	-0.0277957,
	-0.35196,
	0.514003,
	0.153644,
	-0.0856236,
	-0.151658,
	0.019469,
	0.036526,
	-0.0098069,
	-0.0257673,
	-0.0482349,
	-0.122339,
	-0.607226,
	-0.00153219,
	0.136152,
	0.372243,
	0.0881539,
	0.00761863,
	-0.1018,
	0.0210206,
	-0.0245543,
	0.0620144,
	0.0053884,
	0.983359,
	0.20431,
	0.0112289,
	-0.46417,
	-0.63406,
	-0.184137,
	0.0397641,
	0.0455211,
	-0.00722713,
	0.0846347,
	0.70629,
	0.602002,
	0.075898,
	-0.306446,
	-0.83543,
	-0.262454,
	-0.110705,
	0.0184175,
	0.0135333,
	0.0406147,
	0.225313,
	0.535641,
	0.757622,
	0.326858,
	0.0131256,
	-0.336873,
	-0.970784,
	-0.399354,
	-0.115874,
	-0.0732511,
	-0.0343819};
Mat_rptr conv_raw_W = NULL;

const float _conv_raw_b[] = {
	0.121503, 0.0118215, 0.101577, -0.234818, 0.37635, 0.049263, -0.123346, 0.0431514, -0.108096, 0.0743378, -0.199404, -0.783065, 0.0216694, 0.315149, -0.00984938, -0.203052, -0.271782, -0.0589952, 0.222407, 0.557815, 0.0446485, -0.0716264, 0.054349, 0.038964, -0.350989, 0.510449, 0.232971, 0.222371, -0.368653, 0.000146909, -0.0190809, -0.0514471};
Mat_rptr conv_raw_b = NULL;

const int conv_raw_stride = 2;
const float _gruF1_raw_iW[] = {
	0.00747039, -0.392068, 0.396916, -0.246026, 0.323454, -0.218984, 0.190059, 0.259501, -0.146847, 0.125026, 0.0742571, -0.0375787, 0.175017, 0.295509, -0.0350675, -0.135096, -0.419274, -0.523022, 0.178651, 0.307302, 0.0995773, -0.0619668, 0.328172, 0.406614, -0.267741, 0.384777, 0.45544, 0.164213, -0.318619, -0.011678, -0.463077, -0.137177,
	0.134301, -0.170313, 0.190464, -0.270022, 0.245722, 0.127851, -0.0899303, 0.166316, -0.293855, -0.380981, -0.179596, -0.182451, 0.194758, 0.247673, -0.24807, -0.30179, -0.29186, 0.0101202, 0.190551, 0.355328, -0.0636463, -0.138894, 0.11387, 0.148699, -0.301351, 0.26437, 0.248417, 0.235664, -0.308206, -0.0280089, 0.0130828, -0.058011,
	-0.676836, 0.0317547, 0.164954, 0.570699, 0.521354, 0.352181, -0.484276, -0.0429781, -0.0995813, -0.52545, -0.265706, 0.156156, -0.814454, -0.646289, 0.634729, -0.276311, 1.76619, -0.480564, -0.506824, -2.16834, -0.571969, -0.0192532, -0.143059, 0.354901, -0.196153, 0.215301, -0.297229, -0.314557, 0.457568, -0.20381, 0.594044, 0.218227,
	0.299623, -0.241495, 0.515454, -0.428047, 0.639357, 0.0790122, 0.124948, 0.435978, -0.0246248, 0.0595294, -0.329207, -0.0958145, -0.030257, 0.358275, -0.130427, -0.379853, -0.227442, -0.449724, 0.390211, 0.153578, 0.223642, -0.119358, 0.517307, 0.455447, -0.309027, 0.363526, 0.439673, 0.191447, -0.393319, 0.00813747, -0.0964793, -0.015913,
	0.0565928, 0.614747, 0.272495, -0.438379, 0.297288, 0.442641, -0.240653, -0.365079, -0.0673237, 0.302513, 0.160542, 0.0572817, 0.194859, -0.268212, -0.583479, 0.0650637, 0.585684, 0.116219, -0.0177013, -0.251432, -0.127433, -0.121132, -0.29673, 0.114009, -0.0521378, -0.00251336, -0.292599, 0.297372, -0.0110846, -0.0825423, 0.41248, 0.48999,
	0.0674957, -0.326907, 0.211508, -0.228323, 0.156311, 0.0743044, 0.144047, 0.261824, 0.142087, -0.349984, 0.067362, -0.253317, 0.15601, -0.153855, 0.22582, -0.239314, -0.0241782, -0.332992, 0.124803, 0.0112879, 0.118599, -0.00529082, 0.118827, 0.274443, -0.108334, 0.29396, 0.0335959, 0.309476, -0.389247, 0.0703994, -0.206626, -0.0498224,
	-0.0249048, -0.420907, 0.330658, -0.51565, 0.752606, 0.145792, 0.327267, 0.580613, -0.139285, -0.192472, -0.454361, -0.523915, 0.232505, 0.361678, -0.190267, -0.501129, -0.143872, -0.455946, 0.316221, 0.143096, 0.0699535, -0.128136, 0.391002, 0.355823, -0.553117, 0.318641, 0.655806, 0.179616, -0.521631, -0.0641613, -0.229122, -0.0467002,
	0.522415, -0.395152, 0.513385, -0.633321, 0.356158, 0.617103, 0.132569, 0.190572, -0.306731, -0.0861234, -0.442577, -0.527329, 0.239662, 0.293069, -0.492658, -0.468667, -0.238583, -0.278342, 0.695383, 0.210927, -0.00694293, -0.590749, 0.39921, -0.127087, -0.428879, 0.414822, 0.277569, 0.514254, -0.697281, 0.178561, -0.171174, -0.0332416,
	0.243679, 0.891764, -0.223835, -0.157254, -1.02227, -0.0380011, 0.0423538, 0.0910243, -0.189034, -0.287033, -0.238568, -0.0301249, -0.742243, -0.404823, 0.179029, -0.682298, 0.405747, -0.697573, 0.668212, -0.0341393, 0.126344, 0.448475, -0.371178, -0.270711, -0.182096, 0.235876, -0.918485, 0.00187657, -0.0843086, 0.268073, 0.000316779, 0.00502439,
	-0.2259, -0.0272049, 0.0840445, -0.00873177, 0.106633, -0.102053, -0.158499, -0.282849, -0.0416362, 0.0169519, 0.267615, -0.30824, -0.0417537, 0.178521, 0.0532798, 0.29495, -0.130725, -0.0728121, 0.0874245, -0.111708, 0.106401, -0.0760156, 0.0475364, -0.00980941, -0.165553, 0.211533, 0.0389519, 0.247683, -0.257817, -0.195222, -0.149936, -0.174088,
	0.0823461, 0.45708, 0.379854, 0.032886, -0.190825, -0.412466, -0.333371, -0.249703, -0.19326, -0.0590366, -0.205472, 0.0151878, 0.619397, -0.530773, 0.0631702, -0.0920135, 0.652411, 0.325807, 0.0751048, -0.871787, -0.276293, -0.121514, -0.00219216, -0.170217, -0.0685902, 0.15991, -0.301823, 0.0397396, 0.0506807, 0.117662, 0.122085, 0.153767,
	0.218714, -0.288409, 0.384609, -0.339554, 0.287423, 0.0703799, -0.350944, -0.396421, 0.111862, -0.132007, -0.297037, -0.176976, 0.340328, 0.0544728, 0.105487, -0.0651968, 0.21445, 0.0441941, 0.0750192, -0.244602, 0.100184, -0.255864, -0.191195, -0.0732937, -0.167682, 0.330161, -0.272728, 0.297608, -0.212346, 0.0914998, -0.165688, -0.0640012,
	0.00856553, -0.204709, 0.368067, -0.039527, 0.101435, -0.0179722, 0.12692, 0.618828, -0.311462, -0.059231, -0.0521054, 0.214076, 0.0574371, 0.0534375, 0.359531, -0.0223693, -0.0433919, -0.516525, -0.0742927, 0.113248, 0.212862, 0.334837, 0.149207, -0.29249, 0.0532465, 0.516197, 0.137018, 0.0142775, -0.16474, 0.132276, -0.208681, 0.0548096,
	0.0931983, 0.278611, 0.52392, -0.440961, 0.0521233, 0.247438, -0.265343, 0.299378, 0.312815, 0.346617, -0.943247, -0.0124995, -0.215415, 0.15108, -0.0995355, -0.415124, 0.428864, 0.1446, 0.293211, -0.279036, -0.0382389, -0.268181, 0.143369, 0.102925, -0.14012, -0.0313188, 0.166626, -0.0723523, 0.135166, 0.085685, 0.167021, 0.167351,
	0.335161, 0.287851, -0.0227955, -0.103882, 0.328806, -0.718786, 0.142028, 0.0694371, -0.00188995, 1.19314, -0.111264, 0.0626014, 1.06677, 0.372994, 0.260515, 0.153955, -0.601601, -0.341086, -0.188914, 0.614255, 0.330672, -0.0158112, 0.0481426, -0.137308, 0.317723, 0.30501, -0.155616, -0.0105, -0.547365, -0.0643576, -0.0397968, -0.144719,
	0.223503, -0.122063, -0.249267, 0.0367309, 0.312112, -0.0440535, -0.209053, -0.0532701, -0.309028, -0.0647229, -0.239997, -0.241305, 0.108331, 0.27786, 0.179635, -0.283634, -0.33299, -0.188522, -0.464686, -0.0977884, -0.00511079, -0.0177114, 0.156917, 0.406002, -0.162117, 0.00558958, -0.302807, -0.01129, -0.0392695, 0.116916, -0.398575, -0.138074,
	-0.656646, -0.193602, -0.382987, 0.356596, -0.18116, -0.171231, 0.231377, -0.249465, -0.162813, -0.420224, -0.15456, -0.165713, 0.0339957, 0.0141842, 0.281648, -0.422728, 0.481286, 0.575702, -0.818036, -0.437643, -0.0607724, -0.0683193, 0.284673, -0.348674, 0.173519, -0.265501, -0.271492, -0.0591677, 0.431874, 0.00727491, -0.0116121, 0.0127186,
	0.214003, -0.283917, 0.233754, -0.272804, 0.330948, 0.123626, 0.0343488, 0.200636, 0.113902, -0.0713768, -0.355352, -0.128987, 0.273992, 0.165602, -0.258084, -0.294808, -0.22694, -0.175149, 0.33762, 0.101749, 0.0858999, -0.172288, 0.211779, 0.453121, -0.328326, 0.411278, 0.373522, 0.244294, -0.411243, -0.0987227, -0.207157, -0.0320499,
	0.348809, 0.160985, 0.329959, -0.320155, -0.494595, 0.278304, -0.551896, -0.565514, -0.330781, 0.0512785, -0.450056, -0.210685, -0.110133, -0.120679, 0.224942, -0.256981, 0.214288, 0.230062, 0.12509, -0.334541, 0.147965, 0.551754, 0.0669095, -0.332772, -0.158353, 0.544413, 0.214877, 0.270007, -0.314474, 0.301363, -0.0249988, 0.433669,
	0.243254, -0.302662, 0.0363606, -0.211867, 0.436875, 0.339398, 0.0228096, 0.518654, -0.127469, -0.0893184, -0.274393, -0.177806, 0.122778, 0.122678, -0.261553, -0.299573, -0.1377, 0.119811, 0.103839, 0.244366, 0.167039, -0.355284, 0.166179, 0.205324, -0.154603, 0.228321, -0.0764067, 0.301979, -0.224881, -0.0926204, -0.181731, -0.0596957,
	-0.474257, 0.0615235, 0.320221, 0.459529, 0.405483, 0.558958, -0.0696292, 0.316898, -0.320312, 0.521598, -0.0184282, -0.161883, -0.897256, 0.525615, 0.449225, -0.352693, 0.0917433, -0.0431252, -0.159264, 0.0274364, -0.330948, 0.221787, 0.167578, -0.703449, 0.200739, 0.319922, -0.0698398, -0.029758, -0.140779, -0.0482655, 0.286266, 0.166316,
	0.22789, -0.168396, 0.0822262, -0.00709828, 0.368619, 0.22966, 0.0105788, 0.138149, -0.0744176, -0.0514123, -0.311754, -0.0736629, 0.369131, 0.242043, 0.0609669, -0.183313, -0.271208, -0.619185, 0.184664, 0.123281, 0.0805595, -0.0522654, 0.270902, 0.23705, -0.211694, 0.260014, 0.625693, -0.0317413, -0.175431, 0.038572, -0.0581498, -0.147845,
	-0.115036, -0.271831, 0.00136473, -0.246271, 0.230035, -0.0518231, 0.161879, -0.015949, -0.0989973, -0.370148, -0.148956, -0.1601, 0.689092, 0.197259, -0.0331948, -0.3248, -0.335793, -0.234268, 0.228452, 0.431056, 0.0891695, -0.0603844, 0.0123751, 0.238892, -0.110349, 0.2237, 0.249408, -0.0200377, -0.432542, -0.13111, -0.115713, -0.368806,
	-0.317326, -0.220193, -0.0756741, 0.200507, 0.140525, -0.127311, 0.0367073, 0.241796, -0.318978, -0.216753, 0.135088, 0.104867, 0.50336, -0.0337184, 0.0228392, 0.0983389, -0.286423, -0.226548, -0.0936663, -0.00148448, -0.123939, 0.169347, 0.0498996, 0.243679, -0.0494084, 0.326942, -0.09406, -0.275567, -0.282678, -0.0498956, -0.254113, -0.399168,
	0.257244, -0.427943, 0.137283, -0.364572, 0.716365, 0.213454, 0.10186, 0.552463, -0.131291, 0.490454, -0.164165, -0.434763, 0.0993011, 0.337752, -0.018653, -0.406954, -0.14498, -0.874042, 0.21595, 0.109912, 0.22111, -0.245463, 0.483835, 0.28882, -0.033397, 0.265846, 0.513873, 0.351386, -0.486908, -0.108867, -0.58927, -0.339023,
	0.376658, -0.512558, 0.18861, -0.333077, 0.279377, 0.539599, 0.293791, 0.536959, -0.118656, -0.0482679, -0.0867436, -0.0353001, 0.495822, 0.246937, -0.0745587, -0.149308, -0.506483, 0.163143, 0.224283, 0.603435, -0.0834817, -0.272739, 0.405732, 0.21235, -0.350258, 0.235206, 0.587683, 0.255428, -0.455165, -0.0276669, -0.171229, -0.0420269,
	-0.0713524, 0.240587, 0.0754892, 0.822147, -0.119695, -0.116688, -0.31977, 0.233005, 0.28173, 0.331171, -0.112689, 0.601499, 0.0607194, -0.385395, 0.271135, 0.13769, -0.0778957, 0.317968, -0.273416, -0.333287, 0.0225666, -0.103886, 0.0255765, -0.134704, 0.0598496, -0.126204, 0.135754, -0.154818, 0.391858, -0.0513209, -0.0437902, -0.122126,
	0.0317526, 0.231245, 0.291228, -0.270201, 0.249352, 0.0192923, -0.57016, -0.0736893, -0.344069, 0.440733, 0.095877, -0.469492, 0.278346, 0.419543, 0.181821, -0.298075, -0.161149, -0.107382, 0.255773, 0.299134, 0.39415, 0.0712433, -0.123498, -0.46439, -0.503046, 0.594116, 0.301615, 0.694324, -0.643052, -0.166308, -0.15338, 0.161915,
	0.234621, 0.145339, 0.307161, -0.178254, 0.103139, -0.045162, -0.437272, 0.082897, -0.232313, -0.193301, -0.405693, -0.0656165, -0.315173, 0.0105581, 0.18279, -0.168562, -0.0811341, 0.123705, 0.259857, -0.216718, 0.164027, 0.0368552, -0.115052, 0.126746, -0.434497, 0.365716, 0.249227, 0.11904, -0.0916605, 0.00530001, -0.0674188, -0.238984,
	-0.444298, -0.332844, -0.824838, 0.716719, 0.0713671, -0.704592, 0.216668, -0.166898, 0.145994, -0.00804646, 0.063121, 0.159098, 0.303124, 0.383872, -0.194302, 0.304781, -0.341078, 0.101049, -0.821151, -0.283658, 0.173687, 0.276031, 0.210248, 0.441832, 0.680558, 0.1315, -0.891332, -0.501915, 0.334885, -0.206254, -0.473642, -0.29352,
	0.19825, 0.261814, 0.370292, -0.29502, -0.141472, -0.123628, -0.526192, -0.20256, 0.282119, 0.205323, 0.316657, -0.33375, 0.0408017, -0.0845779, 0.226575, -0.298416, 0.376542, 0.0612939, 0.230795, -0.48569, 0.161346, 0.269215, -0.198295, 0.119516, -0.508921, 0.274187, 0.0560053, 0.252059, -0.569417, -0.204052, -0.128273, -0.309376,
	0.0646811, -0.171739, -0.0620265, -0.0244129, 0.466994, 0.172872, 0.0946071, 0.289122, -0.236968, -0.327685, -0.256402, -0.0573635, 0.54544, 0.355338, 0.264639, -0.573533, -0.357837, -0.189389, 0.125096, 0.391925, -0.069608, -0.206018, 0.417663, -0.05823, -0.496592, 0.00464724, 0.429614, -0.0464525, -0.134169, -0.280644, -0.375733, -0.178638,
	-0.751234, -0.131233, -0.0538434, 0.962815, -0.914321, -0.581512, 0.072124, 0.0968648, -0.119444, -0.462959, -0.81176, -0.126492, 0.0178227, 0.556721, -0.241494, -0.633878, 0.109583, 0.300746, -0.0774757, -0.395039, -0.337255, 0.180449, 0.354115, -0.639426, 0.280212, 0.173118, -0.843795, -0.560463, 0.802391, 0.0400791, 0.80231, 1.51913,
	-0.379941, 0.0779592, 0.40386, -0.0188227, 0.764499, -0.296922, -0.389077, 0.236305, -0.0720033, -0.0421006, -0.149028, -0.393685, -0.107204, 0.675085, 0.511001, -0.483378, 0.193806, -0.446731, 0.229804, -0.167077, 0.185935, -0.233633, -0.210109, 0.0130443, -0.0364406, 0.448603, 0.152438, 0.382728, -0.30709, -0.193708, -0.429427, -0.630999,
	-0.107015, 0.144368, 0.244929, -0.0924439, 0.0667101, -0.518753, -0.379939, -0.696909, 0.0485838, 0.0559829, 0.372494, -0.206266, 0.310191, 0.631292, 0.29157, -0.288165, -0.444875, 0.491116, 0.419602, 0.259764, 0.395395, 0.197114, -0.294016, -0.415016, -0.385526, 0.531055, -0.00922181, 0.449765, -0.643154, -0.0117282, -0.0769619, 0.124919,
	-0.544941, -0.352518, 0.0220796, 0.890607, -0.21587, 0.297624, -0.132168, 0.132233, 0.0750748, -0.405317, -0.108491, 0.109864, 0.0378248, 0.146218, 0.480785, 0.546369, -0.171113, 0.42689, -0.310176, -0.0848639, -0.0895528, -0.161727, 0.289642, 0.375119, -0.159443, -0.00116862, 0.155225, -0.436064, 0.0894478, -0.164132, -0.342179, -0.0337269,
	0.328835, 0.089885, 0.245056, -0.361602, 0.443023, 0.162082, -0.0517226, 0.234863, -0.117217, -0.269321, -0.132022, -0.194354, 0.0630567, 0.289691, -0.0854909, -0.278839, -0.37589, -0.0600064, 0.00821689, 0.34449, -0.0365377, -0.0408288, 0.391252, 0.250667, -0.384236, 0.132195, 0.43265, 0.327646, -0.390801, -0.250061, -0.167599, -0.0129261,
	0.419067, 0.0125721, -0.291616, -0.202282, -0.00171985, 0.000233386, -0.208716, -0.343132, -0.422741, -0.259159, -0.21092, 0.0443453, -0.445843, -0.155595, 0.101667, -0.512147, 0.0231253, -0.457673, 0.51067, -0.242468, 0.0145847, 0.130242, -0.110987, 0.0711887, -0.0558237, 0.38086, -0.57027, 0.141916, -0.101257, -0.259873, -0.0626044, -0.194254,
	0.0353088, 0.435851, 0.367405, -0.166967, 0.0217107, 0.4066, -0.378423, -0.443596, -0.816087, -0.155118, 0.0401617, -0.652383, -0.251384, -0.0843713, 0.0613692, -0.486335, -0.00838186, -0.347915, 0.26198, 0.144376, -0.191182, 0.332829, -0.37716, -0.315229, -0.373284, 0.483951, -0.113303, 0.234206, -0.491207, 0.0702527, 0.108631, 0.0562204,
	-0.286334, -0.306308, 0.593548, -0.309053, 0.0641911, 0.304539, 0.0256736, -0.371196, -0.238907, 0.117184, 0.154143, -0.147299, -0.50906, 0.0109056, -0.0471382, -0.32467, 0.0430215, -0.0601661, 0.469587, -0.0351035, 0.170952, 0.0251246, 0.282056, 0.0676524, -0.0302873, 0.27916, -0.0196051, 0.122315, 0.0238898, -0.229857, -0.313458, -0.337761,
	0.19135, -0.285679, 0.110417, -0.437562, 0.507569, 0.321228, 0.111192, 0.47441, -0.14698, -0.371341, -0.0979238, -0.584398, 0.193062, 0.281256, -0.273564, -0.344388, -0.39298, -0.405184, 0.26887, 0.315694, 0.379101, -0.281765, 0.445834, 0.476663, -0.286987, 0.46783, 0.370897, 0.293439, -0.681353, -0.134661, -0.207959, -0.405381,
	-0.86524, -0.69512, 0.457115, 0.694832, -0.471163, -0.192943, -0.0818368, 0.139835, 0.325863, 0.937248, 0.0847772, 0.25467, 0.418412, 0.138873, 0.779032, -0.513214, 0.260089, -0.393905, -0.610789, -0.142404, 0.199901, -0.164216, -0.311656, -0.788378, 1.1145, 0.137322, -0.339848, -0.26272, 0.815256, -0.443972, 0.270218, 0.810067,
	-0.0963848, 0.0700744, 0.486404, 0.0950258, 0.00490486, 0.66646, -0.469038, 0.388145, -0.23902, 0.448683, 0.167071, -0.531705, -0.568665, 0.122344, -0.00552889, -0.166584, -0.06262, -0.482548, -0.251886, 0.236666, 0.29218, -0.121281, -0.15673, 0.137785, -0.493139, 0.511666, -0.0230837, 0.431748, -0.314095, -0.0473247, -0.23353, 0.116067,
	0.077674, -0.230172, 0.201146, 0.505527, 0.253428, 0.119537, 0.436652, -0.0763334, 0.572277, -0.843918, -0.259622, 0.279302, -0.0330028, 0.346361, -0.410192, 0.266253, -0.576542, -0.720871, -0.407556, 0.390046, 0.378181, -0.280325, 0.355803, 0.109448, -0.373078, 0.00115907, -1.05823, -0.574629, -0.102884, -0.128914, 0.129178, -0.0963364,
	0.118785, -0.137607, 0.65366, -0.468126, -0.0122821, -0.127728, -0.0248612, 0.467588, 0.139838, 0.544009, -0.388972, -0.409311, 0.230525, 0.180599, -0.121657, -0.678209, 0.0818696, 0.0974729, 0.656385, 0.233085, 0.310776, -0.0331821, -0.0197426, 0.03643, -0.417197, 0.482208, 0.25126, 0.265405, -0.544457, 0.0553361, 0.0593708, -0.00846082,
	-0.159447, 0.189372, 0.293003, -0.0768339, -0.327114, 0.0473051, -0.182507, -0.315701, -0.0723848, -0.0168591, -0.0122428, -0.229639, 0.385289, 0.296967, -0.0196083, -0.173855, -0.193924, -0.0544481, -0.154165, -0.103912, -0.216611, 0.193951, 0.161759, 0.0987317, 0.0115558, 0.381818, -0.497549, 0.0146398, -0.118359, -0.00657812, -0.00724123, -0.118461,
	0.446901, 0.656221, -0.530503, 0.328926, -0.357768, 0.166998, -0.15847, -0.480214, -0.00261505, -0.485556, -0.00905396, -0.171168, 0.267491, -0.333474, -0.279378, -0.0868061, 0.222256, 0.217302, -0.436857, -0.0731794, 0.0170955, 0.00821827, -0.420378, -0.049971, -0.00380608, -0.119279, -0.639772, 0.413342, -0.0405601, 0.353792, -0.11977, -0.189092,
	0.18872, -0.946568, 1.15186, -0.308241, 0.111943, 0.748209, 0.392943, 0.415447, -0.507741, 0.0353134, -0.455187, -0.257115, 0.158467, -0.173824, -0.762549, -0.571367, -0.112657, -0.982171, 0.545814, 0.266495, 0.00502258, -1.01379, 0.390781, 0.730933, -0.201513, 0.289874, -0.137203, -0.398888, -0.587666, -0.0547485, -0.330722, -0.672128,
	-0.0482451, -0.135225, -0.098683, 0.183083, -0.0705086, 0.206599, 0.220953, -0.0366339, 0.222586, 0.0995767, -0.0135213, 0.249505, 0.222916, 0.0407418, -0.0715887, 0.177137, 0.125415, 0.0882492, -0.160078, -0.325681, 0.0196207, -0.00349722, 0.189188, 0.124559, 0.0666408, -0.050221, 0.280215, -0.206817, 0.031616, 0.0237362, 0.0114914, 0.0284547,
	0.191882, -0.552711, 0.068266, -0.0439605, 0.595789, 0.47563, 0.489387, 0.678563, -0.278322, -0.0152985, -0.207249, -0.54381, -0.00691712, 0.0569123, -0.0181348, -0.300054, -0.667778, -0.487156, 0.374097, 0.556594, -0.0199176, -0.462799, 0.519003, 0.525929, -0.322316, 0.48736, 0.364624, 0.318331, -0.851761, 0.139274, -0.00316766, -0.249616,
	0.124961, 0.763447, -0.0515399, 0.023107, 0.0662121, -0.407537, -0.39627, -0.357718, -0.146734, 0.175576, 0.317653, 0.0689165, -0.0981572, 0.276096, 0.287483, 0.068309, 0.0110951, 0.212524, -0.050072, -0.19604, -0.0302492, 0.0329629, -0.279476, -0.31245, -0.171579, 0.23196, 0.0225818, 0.471455, -0.166327, -0.204322, -0.355608, -0.0327525,
	0.328977, -0.416005, 0.267876, -0.597623, 0.445135, 0.442879, 0.12382, 0.527231, 0.0121475, 0.167123, -0.649324, -0.419915, 0.231347, 0.385685, -0.105036, -0.460115, -0.396714, -0.50571, 0.15995, 0.373429, 0.112172, -0.692624, 0.477591, 0.302931, -0.15622, 0.450781, 0.648685, 0.46164, -0.393641, 0.0669152, -0.153843, 0.0687426,
	-0.132247, 0.133352, -0.0906714, -0.462034, 0.959653, -0.278295, -0.125712, 0.130796, 0.0776409, 0.049555, -0.223519, 0.203816, 0.523483, 0.853588, 0.407677, 0.263485, 0.193352, -0.00794537, 0.0381514, -0.818026, 0.187223, -0.234483, 0.252354, -0.0383897, 0.400027, 0.327591, 0.093564, 0.49352, -0.652433, 0.114057, -0.760974, -0.72442,
	-0.0150493, -0.54469, -0.0726757, 0.81593, -0.637439, 0.272679, 0.376292, 0.00473979, -0.0616314, -0.493575, 0.718588, -0.148116, 0.37069, -0.470486, 0.0770875, -0.311184, 0.250997, -0.55985, -0.451943, 0.0152446, 0.0677468, 0.254797, -0.0687211, 0.129837, -0.679133, 0.109196, -1.3811, -1.21294, 0.178039, -0.0184485, 0.0771143, 0.28256,
	-0.689944, -0.433079, -0.724947, 0.68121, -0.223444, -0.32328, 0.273803, 0.114583, 0.292076, -0.849217, 0.223796, 1.20982, -0.256891, -0.0850215, -0.0971348, 0.218503, -0.143646, -0.323889, -0.128783, 0.134016, 0.383102, -0.291318, 0.210854, 0.135222, 1.10718, -0.371701, 0.227281, -0.785991, 0.710897, 0.220703, 0.115098, 0.302219,
	0.0237283, -0.724793, 0.389741, -0.236117, 0.802963, 0.512045, 0.066465, 0.232675, -0.0775599, 0.679954, -0.0134703, -0.359281, -0.0477985, 0.419951, -0.0154036, -0.491568, -0.488752, -0.413933, 0.28034, 0.480677, 0.466912, -0.240798, 0.575683, 0.19568, -0.170675, 0.378341, 0.662828, 0.31841, -0.333484, -0.175469, -0.166304, -0.0408426,
	0.307701, 0.459475, 0.0321507, -0.0357331, 0.459991, -0.484948, -0.465766, 0.302541, 0.364762, 0.724432, -0.289729, -0.377421, 0.429047, 0.455859, 0.235543, -0.26664, -0.68433, -0.48404, -0.150063, 0.0327315, 0.751188, 0.226052, -0.252074, -0.0376374, -0.282791, 0.4795, 0.0412734, 0.411756, -0.423744, 1.85095, 0.853977, 1.40141,
	0.035331, 0.424248, 0.369909, -0.202338, -0.0108628, -0.347113, -0.226038, 0.0139657, 0.160957, 0.0295561, -0.0241335, -0.31857, 0.156506, -0.0618366, -0.238161, -0.149431, 0.0646062, 0.11808, 0.142033, 0.0623267, 0.0959969, -0.0125882, 0.119115, -0.209901, -0.330838, 0.222912, 0.0609238, 0.264444, -0.138728, -0.0176996, -0.0665762, 0.0277665,
	-0.441982, 0.032205, 0.178566, 0.364842, -0.526511, 0.128164, 0.0548627, -0.0239578, 0.00363564, -0.148996, 0.333353, -0.179325, 0.137246, -0.0332822, 0.0702502, 0.251346, 0.179232, 0.187423, -0.111289, -0.240484, 0.0530867, -0.495235, -0.0633621, 0.0265344, -0.30294, 0.54249, -0.242247, 0.0933987, -0.279774, 0.0158272, 0.176726, 0.0317721,
	0.111577, -0.538797, 0.266791, -0.178999, 0.430924, 0.162016, 0.135101, 0.626759, -0.0574026, 0.0905633, -0.271536, -0.209768, 0.602465, 0.377708, 0.234962, -0.195009, -0.456905, -0.50222, 0.0105607, 0.317238, 0.458001, -0.155796, 0.541307, -0.0513109, -0.18707, 0.204919, 0.540228, 0.2023, -0.288168, 0.140023, -0.589292, -0.21193,
	0.0274489, -0.456206, 0.0384643, -0.20552, 0.961222, 0.241397, 0.224454, 0.679552, -0.622926, 0.262809, -0.34114, -0.330528, -0.445248, 0.919648, 0.268598, -0.724552, -0.599982, -0.727152, 0.0430515, 0.858884, 0.0819165, 0.0383634, 0.462147, 0.47991, -0.184644, 0.669329, 0.528062, 0.125062, -0.571394, -0.337056, -0.611113, -0.507558,
	-0.506746, -0.444706, 0.263391, -0.277425, -0.0761049, 0.147011, 0.819475, 0.927761, 0.440995, -0.46462, -1.11173, 0.0637542, 0.800731, -0.22675, -0.775473, -0.36729, -0.146252, -1.41812, -0.367646, 0.100857, -0.0399707, -1.4013, 0.164139, 1.07105, 0.364726, -0.224336, -0.356865, -0.670974, 0.195598, -0.477844, -0.06168, -0.606145,
	-0.671621, -0.791655, -0.245638, 0.563854, 0.54202, 0.745122, 0.825089, 0.203625, -0.220427, 0.152823, 0.3428, 0.905441, 0.368602, 0.181689, 0.0869666, 0.471079, -0.4421, 0.85236, 0.0340794, 0.0173604, -0.191995, -0.169256, 0.364741, 0.235558, 0.32876, -0.329373, -0.28706, -0.835589, 1.39369, -0.42274, -0.246989, -0.272475,
	0.564624, -0.477246, 0.43184, -0.847239, 0.446137, 0.336052, 0.198222, 0.298117, -0.0262226, -0.164197, -0.157845, -1.08958, 0.0595089, 0.305206, -0.348712, -0.924352, -0.386435, -0.374444, 0.307371, 0.300514, 0.436782, -0.532321, 0.376933, 0.488642, -0.315127, 0.440724, 0.0788099, 0.508212, -0.727271, -0.203524, -0.473269, -0.0555418,
	-0.127344, -0.49199, 0.126356, -0.248941, 0.267604, 0.799836, 0.742162, 0.816114, -0.332272, 0.166748, -0.529675, 0.0476214, 0.171617, -0.0348065, -0.157257, -0.0420706, 0.0486077, -0.804838, 0.0875637, 0.332756, 0.00208936, -0.516064, 0.88605, 0.645892, 0.235803, -0.543947, 0.0785527, -0.82738, 0.315599, -0.183394, -0.474986, 0.026942,
	0.260316, -0.335575, 0.307034, -0.259771, 0.150247, 0.496836, -0.0416438, 0.219846, -0.0531821, -0.0862428, -0.20525, 0.0913724, 0.223866, 0.162003, 0.00418727, -0.393026, -0.0457703, -0.329223, 0.15646, 0.0283427, 0.113839, -0.16211, 0.575863, 0.162975, -0.102235, 0.181073, 0.232532, -0.0577317, -0.109108, 0.0849491, -0.0214262, 0.339647,
	-0.0174811, 0.0294902, -0.132193, -0.718671, 0.120302, 0.586152, -0.194372, 0.107306, 0.238373, 0.500421, -0.470394, -0.299926, 0.182293, 0.259391, 0.0778193, -0.244463, 0.28117, 0.273017, -0.0766304, -0.437489, 0.028419, 0.0397101, 0.300228, 0.430609, -0.0457806, -0.158745, -0.246591, 0.783843, 0.106192, 0.158462, 0.116075, 0.202248,
	0.211981, 0.381977, 0.521631, -0.335193, -0.00578614, 0.275953, -0.300198, -0.205451, -0.318558, -0.00278427, -0.362607, -0.362009, 0.311415, 0.0551062, -0.183981, -0.526108, 0.278486, -0.292473, 0.22115, -0.427477, -0.233785, -0.014528, -0.187764, -0.317661, -0.304901, 0.623762, 0.0566822, 0.504302, -0.392418, 0.174435, 0.577367, 0.290743,
	0.0463229, 0.0319034, 0.343135, -0.477645, -0.0837591, 0.194946, -0.000617484, -0.0422639, -0.127094, -0.129255, -0.471418, 0.199927, -0.0045489, 0.0711037, -0.20985, -0.184202, 0.281309, 0.12969, 0.452809, -0.279745, -0.00316838, -0.139933, 0.119306, 0.383067, -0.251285, 0.593473, -0.322489, 0.181772, -0.607863, 0.0956576, -0.0438021, 0.376246,
	0.212545, 0.161512, -0.211256, -0.196684, -0.329153, -0.141237, -0.145509, -0.602966, -0.067586, -0.324954, -0.215831, -0.318649, 0.586124, 0.0356592, -0.750862, -0.00715167, -0.215415, 0.137266, 0.268319, -0.00309166, -0.185429, -0.451531, 0.159445, 0.903153, -0.489517, 0.286845, -0.46185, 0.0634099, -0.463389, -0.13746, -0.0215994, -0.680249,
	-0.0862848, 0.102796, -0.153816, 0.143824, -0.236633, -0.261357, -0.00483772, -0.590681, 0.0814264, -0.00818384, 0.651986, -0.505518, 0.123704, 0.117459, -0.387433, -0.0644451, 0.0248091, 0.144697, -0.236768, -0.0811043, 0.0257817, 0.335314, 0.189678, -0.0223334, -0.255729, 0.493216, -0.373913, 0.212402, -0.462928, -0.164521, -0.615783, -0.834738,
	0.210493, -0.373982, 0.457222, -0.958062, 0.700673, 0.447832, 0.30021, 0.47274, -0.037668, 0.0753943, -0.601899, -0.408021, 0.242959, 0.242782, -0.443591, -0.763644, -0.300147, 0.187234, 0.647226, 0.209799, 0.154139, -0.196009, 0.61734, 0.0203155, 0.152122, 0.0848787, 0.384502, 0.225208, -0.148918, 0.180816, -0.182743, -0.0631163,
	-0.0203955, -0.541008, 0.160065, -0.26733, 0.57159, 0.230356, 0.252341, 0.653671, 0.0762283, 0.102906, -0.312867, -0.509757, 0.227002, 0.481041, -0.0694188, -0.399079, -0.61692, -0.643505, 0.396213, 0.42216, 0.103652, -0.110246, 0.383755, 0.402471, -0.227601, 0.0478055, 0.501408, 0.33934, -0.413557, -0.128286, -0.179532, -0.217672,
	0.07274, 0.642183, 0.457519, -0.169182, -0.449617, 0.374809, -0.473692, 0.183583, 0.000148338, 0.603451, -0.295762, -0.0965913, 0.0437948, -0.0999123, -0.290978, 0.0497173, -0.236318, 0.174058, 0.181005, -0.46138, -0.295742, 0.0137326, 0.200362, -0.320113, -0.416595, 0.466042, -0.0122251, 0.227307, -0.289314, 0.383722, 0.481008, 0.147561,
	-0.0137064, 0.155034, -0.412169, 0.205982, -0.556173, -0.282152, -0.381385, -0.597973, 0.142866, 0.427658, 0.00913224, 0.212357, -0.0291523, -0.0383715, 0.280847, 0.336498, 0.28051, -0.104623, -0.0569783, -0.42609, 0.0772855, 0.106061, 0.100463, 0.0596875, 0.515342, -0.212932, -0.714683, 0.119778, 0.275364, 0.0305339, -0.0161621, 0.0120496,
	-0.313385, -0.0473572, -0.688287, 0.778282, -0.0996213, -0.448256, 0.101468, -0.0118695, 0.686235, 0.437322, 0.897318, 0.335449, -0.13454, 0.0382803, 0.482513, 0.951178, -0.221325, -1.18553, -1.08619, 0.182717, 0.534411, 0.427311, -0.0841724, -0.215654, 0.646254, 0.057709, -0.352685, -0.0691362, 0.534228, 0.330947, -0.216175, 0.186935,
	0.016781, 0.496191, 0.172381, -0.222929, 0.0703995, 0.0863621, -0.31146, -0.00252137, 0.10716, -0.0553714, -0.156726, -0.208187, 0.258183, 0.423298, -0.135351, -0.331315, 0.172496, -0.185262, 0.357307, -0.237431, -0.017291, 0.122258, -0.43459, -0.364184, -0.16824, 0.621415, -0.376684, 0.413364, -0.418255, 0.0659664, -0.064557, -0.14822,
	0.205814, -0.363514, 0.262248, -0.689907, 0.62924, 0.47999, -0.253753, 0.391454, -0.040425, 0.167017, -0.529745, -0.249646, 0.118111, 0.281566, -0.021576, -0.520475, -0.245031, -0.426429, 0.647279, 0.161995, 0.136383, -0.21994, 0.739481, 0.244925, -0.274713, 0.0279804, 1.2435, 0.359146, -0.220676, 0.165642, -0.222363, 0.260969,
	-0.176031, 0.060017, 0.523879, -0.127792, -0.113797, -0.723199, -0.795777, -0.333498, 0.309558, 0.382873, 0.317871, -0.0545279, 0.407265, -0.233235, 0.176264, 0.720047, 0.89282, 0.992011, -0.137155, -0.741005, -0.212697, -0.144353, -0.288649, 0.000219458, -0.239422, 0.507695, 0.597973, 0.214007, -0.655779, -0.219915, -0.276953, -0.599776,
	0.226812, -0.582479, 0.490445, -0.0745237, 0.454425, 0.244988, 0.243318, 0.387612, -0.0474668, 0.0915417, -0.411341, -0.0745683, -0.0996556, 0.388443, -0.0027031, -0.406977, -0.340876, -0.0581026, 0.339566, 0.365434, 0.186269, -0.0712226, 0.294244, 0.111592, -0.0623569, 0.122414, 0.307742, 0.0310706, -0.261258, 0.175593, -0.225852, 0.0610634,
	-0.325115, 0.218768, -0.229523, 0.0148575, 0.313354, 0.0312632, -0.34467, 0.153669, -0.0599326, 0.308036, 0.181109, -0.374425, 0.963683, 0.251008, 0.260636, 0.0630348, -0.028859, -0.0761335, -0.315682, 0.215814, 0.334011, 0.139271, -0.195321, -0.271525, -0.418481, 0.2907, 0.182245, 0.782765, -0.311176, 0.137215, -0.152463, 0.080691,
	0.247242, -0.61708, 0.580397, -0.495128, 0.584222, 0.385558, 0.115652, 0.508041, 0.139782, 0.237568, -0.44381, -0.455587, 0.0882938, 0.47394, -0.103888, -0.748102, -0.224547, -0.383188, 0.492017, 0.195902, 0.211856, -0.43313, 0.338463, 0.22696, -0.359681, 0.343351, 0.586237, 0.298213, -0.39869, 0.0508427, -0.112397, 0.128865,
	0.397071, -0.42945, 0.277734, -0.395972, 0.445253, -0.0102902, -0.135151, 0.419921, -0.152255, -0.182805, -0.266969, -0.222435, 0.291778, 0.332434, 0.00886556, -0.189667, -0.229318, -0.214863, 0.100457, 0.139862, -0.0205093, -0.156368, 0.077651, 0.048651, -0.523619, 0.0728824, 0.373025, 0.114773, -0.571553, 0.060503, -0.281108, 0.0403388,
	0.204232, -0.355799, 0.238558, -0.405243, -0.286222, 0.0786033, -0.0321571, 0.244746, 0.01582, 0.18653, -0.202111, -0.290601, 0.00871792, 0.118911, -0.52494, -0.285056, -0.0295332, 0.0217088, 0.420698, -0.0496688, 0.127015, -0.0800731, 0.155572, -0.122016, 0.0760589, 0.379131, -0.0771758, 0.33013, -0.293841, 0.0499578, -0.0243022, 0.098045,
	-0.339135, 0.606319, -0.0923307, 0.238485, -0.357071, -0.0387527, -0.311408, -0.43963, -0.117877, 0.398137, 0.197989, 1.19896, 0.515988, 0.110228, 0.419834, 0.724487, 0.126142, 0.17405, -0.985398, -0.0937763, 0.00223515, 0.525951, -0.456711, -1.0801, 0.659534, -0.34892, -0.69122, -0.909187, 1.09084, -0.032968, -0.000875894, -0.184601,
	0.139791, 0.0402433, -0.16131, 0.588082, 0.0607675, 0.737829, 0.150964, 0.20853, 0.456722, -0.126979, -0.314028, 0.387295, 0.0435993, 0.161647, 0.0133683, 0.564006, -0.154347, 0.000441902, -0.819315, 0.0524835, 0.535123, -0.392039, 0.196717, 0.320752, 0.119553, 0.109645, -0.154599, -0.256623, -0.0466536, 0.164693, -0.258328, 0.384579,
	-0.322779, 0.19315, 0.356883, -0.288985, 0.00617374, 0.199944, -0.335743, -0.122359, 0.13054, 0.248963, 0.0374369, -0.0675592, 0.11451, 0.568901, -0.154212, -0.275756, -0.0611955, 0.424947, -0.0546242, -0.528245, -0.236475, 0.0028674, 0.00611239, 0.121619, 0.49451, 0.113856, 0.284774, -0.0402176, 0.0548008, -0.10717, -0.112513, 0.476421,
	-0.0759529, 0.329864, 0.232954, 0.0690543, 0.298908, 0.159761, -0.0451657, 0.120107, -0.0879581, -0.0756923, -0.294312, 0.296048, 0.201947, 0.23703, -0.0911934, -0.605669, 0.0205659, -0.0663358, 0.146251, -0.134902, -0.205681, -0.195651, 0.0871819, 0.0298563, -0.258185, 0.262044, 0.114307, 0.189718, 0.0113852, -0.0570221, 0.149531, 0.150148,
	0.435959, -0.797312, 0.263366, -0.409093, 0.697835, 0.706472, 0.146497, 0.586457, -0.00161969, 0.291218, -0.385922, -0.236823, 0.0311573, 0.545499, -0.188131, -0.00305174, -0.421136, -0.468999, 0.555164, 0.383944, 0.455254, -0.0880314, 0.456355, 0.716446, -0.337808, 0.57768, 0.667894, 0.208003, -0.352325, 0.119123, -0.18275, -0.331848,
	0.109918, 1.12523, 0.37472, -0.654494, -0.248505, -0.704639, -0.149031, -0.684013, -0.721634, 0.407329, -0.660404, -0.224911, -0.261259, -0.100148, -0.26854, -0.261371, 0.763772, 0.147112, 0.420661, -0.659522, 0.195489, 0.598663, 0.239376, -0.431581, -0.0226738, 0.116308, -0.694788, -0.0938991, -0.504619, -0.099989, 0.258945, 0.120327,
	0.380775, -0.0155592, 0.26328, -0.914829, 0.200897, -0.248964, 0.170963, -0.0612385, -0.0395292, 0.243296, -0.524463, -0.573494, -0.0982873, 0.284113, -0.00561605, -0.530493, -0.532467, -0.241759, 0.772485, -0.0761373, 0.159419, 0.0884443, 0.000694358, -0.0985047, -0.379963, 0.562425, 0.320406, 0.0217849, -0.50181, -0.109174, -0.00240758, 0.144275,
	0.0909551, -0.0193938, 0.49762, 0.057594, 0.228576, -0.164688, -0.264968, -0.0118731, 0.017058, 0.175763, -0.218959, -0.050994, 0.0796753, 0.198359, 0.430016, -0.156666, -0.183205, -0.0760021, -0.0757012, 0.23168, 0.1837, 0.136376, -0.0169973, -0.0617535, -0.121484, 0.39601, 0.241392, 0.113516, -0.344558, 0.0280418, 0.000737886, 0.079748,
	0.096327, 0.0382252, 0.336117, -0.343135, 0.0413536, 0.0966456, -0.080417, -0.295678, 0.0475654, -0.122359, -0.25449, -0.304236, 0.168678, 0.345374, -0.327545, -0.423977, -0.10433, 0.23844, 0.382336, -0.172549, -0.00720057, -0.573049, 0.0872358, 0.441024, 0.173313, 0.050527, 0.164218, 0.368616, -0.0757189, -0.041508, -0.15257, -0.408442,
	0.0751026, -0.523366, 0.0506039, -0.420827, 0.114262, -0.111401, 0.0796167, -0.0038603, -0.0111343, -0.0139288, -0.171229, -0.0082543, 0.388041, 0.0393285, -0.150713, -0.362017, -0.263426, -0.25551, 0.498715, 0.180962, -0.0817756, 0.0624622, 0.0955202, -0.00200529, 0.130985, 0.31544, 0.416597, 0.294571, -0.450206, -0.0353832, -0.0323395, -0.231763,
	-0.0973118, 0.0239443, 0.3378, -0.482798, 0.385122, 0.355139, -0.172704, -0.0526636, -0.0609413, 0.292331, -0.106419, 0.040441, -0.126724, 0.0763918, -0.600471, -0.205958, 0.373483, -0.512115, 0.372501, -0.486321, -0.20804, -0.373965, 0.0111635, 0.130199, 0.198041, 0.0777467, -0.0291798, 0.114945, 0.0899241, -0.403117, 0.199865, -0.0508223,
	0.0463667, 0.182013, 0.247282, -0.332487, -0.238846, 0.74353, -0.270781, 0.178754, -1.32307, -0.546221, -0.0339863, -0.0141963, -0.995476, -1.00628, -0.368279, -0.0512862, 1.24632, 0.222518, 0.64893, -1.26569, -1.14861, -0.974877, -0.0328967, 0.540271, -0.358325, 0.255832, 0.265531, 0.219547, -0.105805, -0.335575, -0.511643, -0.675741,
	-0.531168, -0.186882, 0.0525855, 0.242068, 0.273234, 0.566852, 0.283279, 0.00734965, -0.0981238, 0.189927, 0.196572, -0.0355144, -0.460959, -0.0834389, 0.180716, 0.358996, -0.0687826, -0.474475, -0.238733, 0.0841016, -0.0495025, 0.316995, 0.0847149, -0.0804642, 0.191947, -0.287943, -0.179701, -0.115805, 0.154769, -0.180471, 0.030155, -0.0530585,
	-0.279672, 0.155931, 0.131897, -0.00231372, 0.0376441, -0.293107, -0.273897, -0.124204, -0.287581, -0.0679998, 0.264888, -0.123356, -0.0964918, -0.15074, 0.453358, -0.0740004, 0.102672, -0.0624608, -0.092884, 0.0115678, -0.0559375, 0.13027, -0.224518, -0.256029, -0.0508319, 0.060928, -0.149323, -0.000612877, -0.0422261, -0.120212, -0.252405, -0.0648536,
	-0.272493, 0.926143, 0.0953099, -0.546073, -0.790209, -0.627651, 1.07109, -1.37114, 0.740891, -3.6907, 0.888488, 0.0809137, -0.85688, -0.191627, -0.699759, -0.30472, 0.703023, -0.72999, -3.61721, -0.365472, 0.152093, 0.229693, -1.20072, -0.446543, 0.672629, 0.141524, -0.279669, -0.357623, -0.114036, 0.0215958, 0.0585764, -0.146525,
	0.43784, 0.703532, -0.175577, -0.015142, -0.431971, -0.369361, -0.0857214, -0.0314453, -0.113654, -0.39155, -0.282437, 0.306044, -0.10767, -0.667629, -0.142036, 0.248582, 0.448147, 0.246422, 0.089333, -0.289652, -0.40671, -0.217395, -0.328186, 0.26216, 0.0435913, -0.212359, -0.42441, 0.029412, 0.104224, -0.0982456, -0.246489, -0.642738,
	0.0765016, -0.0849104, 0.121884, -0.326735, -0.18419, -0.586377, -0.083286, -0.34299, -0.145743, 0.103011, -0.0152066, -0.0471734, 0.140685, 0.000464995, 0.178336, 0.126019, -0.0962941, 0.25565, 0.124593, 0.23425, 0.162637, 0.00292637, 0.0516277, -0.0608538, 0.141416, 0.416946, -0.263041, 0.0180316, -0.348675, -0.161675, -0.136917, -0.227226,
	-0.299443, 0.123417, 0.095482, -0.13768, 0.364816, -0.218162, -0.0938296, 0.0685548, 0.0794481, -0.168599, -0.12841, 0.34889, -0.156704, -0.697158, 0.338482, -0.324139, 0.789289, 0.197014, 0.238535, -0.345173, -0.139409, 0.126256, -0.217453, -0.279588, 0.107314, -0.134868, 0.0134236, -0.241363, 0.382071, 0.0273838, 0.411167, 0.159558,
	-0.117603, 0.406318, -0.00851949, 0.0520447, -0.0300324, -0.277564, 0.101395, 0.279421, 0.27563, 0.415599, 0.326068, 0.0426947, 0.17774, 0.0994809, 0.121226, 0.13691, 0.0602119, -0.250849, -0.504349, 0.020316, -0.0163152, -0.173705, -0.396844, -0.677434, 0.234008, -0.145696, 0.00610581, 0.188999, 0.152161, -0.226265, -0.0401267, 0.274509,
	0.296015, 0.27413, 0.123423, 0.0397408, -0.253783, -0.152117, -0.122144, -0.594699, -0.151085, -0.382266, -0.225275, 0.0398961, 0.151515, -0.300427, -0.412455, -0.0862896, 0.289076, 0.83802, -0.0564747, -0.256447, -0.581981, -0.329203, -0.202077, 0.187631, 0.129289, -0.193178, -0.130679, 0.0999391, 0.10587, 0.018785, 0.461244, 0.166855,
	-0.630112, -0.141541, 0.268925, 0.615161, -0.541719, 0.0557048, 0.129333, -0.0696414, 0.252339, 0.180696, -0.150677, 0.180988, -0.00191334, 0.0963314, 0.645772, 0.05535, 0.0736414, 0.462626, -0.380865, 0.329539, -0.156264, -0.188017, -0.172677, -0.164024, 0.70849, -0.120049, -0.56684, -0.0796308, 0.165306, 0.067614, 0.694094, 0.899958,
	0.674931, 0.362792, -0.0236239, -0.0266965, -0.377759, -1.09344, -0.0926826, -0.115721, 0.178697, -0.476698, 0.158635, -0.180694, 0.208193, -0.1951, 0.0270886, -0.281285, 0.114381, 0.0551128, -0.233507, 0.116423, -0.12446, 0.721275, -1.12154, -0.80284, 0.0294825, -0.164335, -0.351876, 0.221427, -0.120795, 0.125138, 0.0427089, 0.0609197,
	0.133364, 0.0564712, 0.305386, -0.122467, 0.049858, -0.00688175, 0.150626, -0.0140054, 0.126688, -0.153374, -0.122661, -0.210949, 0.369355, -0.162883, -0.293445, -0.0554428, 0.147804, 0.0822843, 0.136392, 0.048422, -0.0927483, -0.025398, -0.157985, 0.113669, -0.0731416, -0.215709, -0.297208, 0.235646, 0.164476, -0.0512705, 0.175703, 0.190653,
	0.797102, 0.491125, 0.777918, -0.373853, -0.750081, 0.0302265, -0.946377, -0.941521, -0.144533, 0.0480509, -0.473764, -0.0435764, 0.0538751, -0.372558, -0.307337, -0.0703731, 0.215725, 0.248347, 0.27056, -0.163242, -0.145952, 0.234774, -0.266677, 0.0453333, -0.347274, 0.294717, -0.552545, 0.200888, -0.453392, 0.418223, 0.832275, 0.671817,
	-0.291062, 0.506089, -0.282778, 0.0464976, -0.0684508, -0.220062, -0.152679, -0.347611, 0.104758, -0.106655, 0.0406513, 0.162422, 0.131246, -0.0339135, 0.154175, 0.474905, -0.0230417, -0.215001, -0.150774, -0.116324, -0.0544633, 0.126742, -0.325549, 0.231495, -0.0992676, 0.061317, -0.175127, -0.0521421, -0.0144386, -0.203843, -0.232461, -0.568365,
	0.51272, 0.38372, -0.172625, 0.111802, 0.0331473, -1.94554, 0.133926, 0.848315, 2.21837, 0.948622, -0.402645, -0.0978968, 1.2225, 0.644767, 0.188383, 0.26799, -0.987378, -0.677793, -0.55629, 1.00247, 1.1968, -0.172586, -0.512703, 0.275017, -0.0991624, 0.0673591, 0.116599, -0.113102, -0.160534, 0.655658, 0.375315, 0.332047,
	0.239807, 0.371316, -0.444134, -0.000202374, -0.296803, -0.472228, -0.318056, -0.417575, -0.0169642, 0.0165135, 0.123333, 0.0925518, 0.265962, -0.203222, -0.0916626, 0.337032, 0.193441, -0.1359, -0.196314, -0.337511, -0.349047, 0.00935565, -0.42033, 0.65017, 0.0397117, -0.126866, -0.230124, -0.105086, -0.058176, -0.208459, -0.132725, -0.210376,
	-0.494402, -0.11585, 0.195236, 0.195882, -0.164286, 0.398442, 0.163229, 0.26146, -0.412142, 0.0434744, -0.045752, -0.211789, -0.231751, -0.120169, -0.0133578, -0.266064, 0.222336, -0.406954, -0.395247, 0.00573864, 0.0497398, -0.32169, 0.0566685, -0.282093, -0.510312, 0.261239, 0.0572835, -0.184881, -0.0218133, 0.0655171, 0.24823, 0.555879,
	0.0567075, -0.031317, -0.396622, 0.104529, -0.311009, 0.302344, 0.0813366, -0.419216, 0.101612, 0.169562, 0.106017, -0.147124, -0.316335, -0.253006, -0.328529, 0.00715423, 0.0278834, 0.51277, -0.209812, 0.0396166, 0.0689059, 0.0813403, 0.326484, -0.246648, 0.380306, 0.122767, -0.374261, 0.219595, -0.0944353, 0.0295963, 0.290711, 0.396122,
	-0.130112, 0.135328, -0.236699, -0.076566, -0.154503, -0.00520272, -0.0279287, -0.0987697, 0.24506, -0.251693, 0.132352, -0.0282721, -0.0493962, -0.272521, -0.277588, 0.0157766, 0.129321, -0.0269011, -0.0765387, -0.148648, 0.0242829, 0.017176, 0.0803855, 0.682852, 0.0600926, -0.104506, -0.0955302, -0.0276787, 0.195657, 0.0412683, -0.125282, 0.065015,
	0.2127, -0.0378662, 0.52269, 0.102052, -0.217457, -0.223154, -0.192237, -0.0191986, -0.295384, 0.0891238, -0.370249, -0.0294977, -0.123806, -0.0993932, -0.202315, -0.0945359, -0.0556937, -0.22073, 0.0246028, 0.39417, 0.0841516, 0.281382, -0.212341, -0.568493, -0.148158, 0.480686, -0.17595, 0.120307, -0.134379, 0.294249, -0.295216, 0.0746924,
	-0.00556564, -0.183036, 0.121528, -0.285818, -0.200582, -0.27728, -0.213434, -0.0158477, 0.240042, 0.0842032, 0.0297083, -0.135508, 0.535364, 0.0631575, 0.277089, -0.127222, 0.073341, 0.428023, 0.0121957, -0.216969, 0.112656, 0.0458042, -0.000727502, -0.206249, -0.100871, 0.0835067, 0.307681, 0.0628909, -0.270147, 0.00446704, -0.0854278, -0.223303,
	-0.062541, -0.18796, -0.226436, -0.12206, -0.0957241, -0.353982, -0.269207, -0.145871, 0.239638, 0.16042, 0.00429584, 0.0489499, 0.312975, 0.111903, 0.587647, -0.0293101, -0.0569473, -0.0610488, -0.492436, 0.0973499, 0.265188, 0.421739, 0.0402614, -0.20906, -0.119527, 0.210508, 0.0200234, -0.104188, -0.195603, -0.113081, -0.237913, -0.543537,
	0.0234222, 0.0260665, 0.137594, -0.0733141, -0.114149, 0.0561365, -0.145842, -0.234885, 0.0823482, 0.374776, -0.0378576, -0.204544, 0.309946, 0.0585469, -0.393808, -0.0461447, -0.231865, 0.43189, 0.234961, 0.276465, 0.286717, 0.00212975, -0.151523, -0.332577, -0.173207, 0.388844, -0.0154448, 0.358784, -0.102817, 0.160335, 0.0219595, 0.33661,
	-0.259418, -0.349462, -0.1479, 0.290468, -0.270717, 0.204615, -0.100486, -0.352814, -0.0383652, 0.282458, 0.414393, 0.0240836, -0.0967366, -0.149135, -0.169178, 0.446554, 0.149803, 0.038635, -0.255547, -0.0884562, -0.118453, -0.0420005, 0.197503, -0.262614, 0.12584, -0.048418, -0.365979, -0.138944, 0.051249, 0.129372, 0.221721, 0.0276438,
	0.153885, 0.20742, -0.016638, -0.0173595, -0.18631, 0.109474, -0.575893, -0.449916, -0.467856, -0.142606, -0.164348, 0.179482, -0.375063, -0.300222, -0.629326, 0.15437, 0.0545348, 0.549994, 0.32187, -0.136814, -0.616752, 0.280831, -0.26141, -0.366416, 0.283598, -0.0795826, -0.404082, -0.0645779, 0.0812444, 0.080101, 0.286049, 0.162097,
	-0.406795, -0.22816, -0.242675, 0.350015, -0.0270567, -0.00838715, 0.0302012, -0.00781725, -0.157855, 0.0866804, 0.188058, -0.024309, -0.163211, 0.0485854, 0.708202, 0.221503, -0.0142713, -0.176168, -0.242326, -0.212588, 0.00273665, 0.2705, 0.183387, -0.269043, 0.0358381, -0.0565106, -0.0275714, -0.191651, 0.246457, 0.0678229, 0.172659, 0.33885,
	-0.310588, -0.0699734, -0.00204511, 0.361509, -0.0561657, 0.0587453, 0.230981, 0.0695728, 0.0203004, 0.00062701, 0.089353, 0.0575484, 0.0452809, -0.215131, 0.13409, -0.0139102, 0.129564, 0.193743, -0.0371572, -0.141054, -0.0718141, -0.00387086, 0.0105186, -0.054536, 0.144686, 0.115183, -0.247028, -0.101499, 0.0989748, 0.126763, 0.31403, 0.54335,
	-0.144994, 0.224619, -0.0844171, -0.05524, 0.200345, 0.164812, 0.0974194, 0.120601, -0.243279, 0.0463643, -0.160348, 0.205884, -0.197587, -0.182851, 0.149837, -0.0560542, 0.206637, -0.057673, 0.0469262, 0.0728758, 0.00229029, 0.217961, 0.0853893, 0.172162, 0.0426536, 0.00750809, 0.308067, 0.0145744, 0.348545, -0.0329038, -0.589102, -0.38172,
	-0.721981, -0.164474, -0.257748, 0.962382, 0.214861, -0.292392, -0.522665, 0.205595, -0.0461274, 0.709325, 0.14836, 0.469358, 0.299388, 0.209814, 1.01399, 0.440454, -0.222606, -0.475828, -0.958978, 0.240677, -0.0421874, 0.417999, -0.604265, -1.0464, 0.638388, -0.282242, 0.0899189, -0.0207346, 0.0549648, 0.787707, 0.491337, 0.795226,
	0.00522178, -0.097037, -0.236652, 0.288496, -0.253968, 0.413576, 0.841443, 0.273091, -0.113139, 0.229713, 0.130772, 0.351994, -0.215847, -0.260234, -0.377712, 0.317944, 0.237917, 0.0547013, 0.27329, -0.144646, -0.245409, 0.246439, 0.523168, -0.378316, 0.489104, -0.137064, 0.151982, -0.156167, 0.294274, -0.0788359, 0.115264, 0.273643,
	-0.330178, -0.134603, -0.154667, 0.226564, 0.083966, 0.0885414, 0.167551, -0.226548, 0.180868, -0.471337, 0.641813, -0.0124278, -0.115384, 0.212048, 0.0303121, 0.263202, -0.439054, -0.255409, -0.257762, 0.368118, 0.188829, 0.0484088, -0.0803827, 0.173396, 0.106738, 0.0141316, -0.153398, -0.079076, -0.189027, -0.385275, -0.172347, -0.604582,
	0.0986349, -0.069193, 0.119842, -0.164698, 0.00759907, -0.137011, -0.132279, -0.273811, 0.407588, -0.215294, -0.209351, 0.299948, 0.318406, -0.478448, -0.173925, -0.0183975, 0.0622534, 0.00276546, -0.0128097, -0.19194, 0.093191, 0.135088, -0.0556269, 0.155563, 0.157514, -0.22019, -0.0824243, -0.127834, 0.335843, -0.199338, 0.164246, 0.0808995,
	-0.135595, -0.483777, 0.0379701, 0.0788694, -0.0927943, -0.198764, 0.380096, 0.0836756, 0.308656, 0.00719966, 0.346736, -0.0100365, 0.411886, 0.0157726, -0.0292607, 0.179803, -0.196385, -0.500267, -0.405569, 0.00397946, 0.275069, 0.165323, 0.210808, -0.264124, 0.149922, 0.0528295, -0.0643976, -0.198719, -0.257018, -0.543766, -0.611861, -0.121934,
	-1.53857, -2.01233, 0.74158, 0.511822, 0.205123, 0.112628, -0.348057, 0.0358308, -0.38375, 1.35121, 0.604414, 0.275766, 1.72159, -0.363293, 0.834966, 0.182954, 0.353662, 1.57673, 0.635098, -0.37998, -0.682055, -1.05526, 1.05093, 0.11582, 0.0517608, -0.117606, 0.87117, -0.228131, 0.298396, -0.801705, 0.260218, 0.664738,
	0.176787, 0.305205, -0.495849, 0.129589, -0.190738, -0.91416, 0.124553, 0.0313436, -0.25273, -0.58499, -0.911502, 0.545536, 0.241606, -0.389544, 0.240674, -0.0319206, 0.279248, 0.183222, -0.453634, -0.26646, -0.368525, 0.316639, 0.0893766, -0.104511, 0.376164, -0.278849, -0.0425962, -0.49516, 0.285841, 0.154984, -0.094247, -0.579448,
	-0.938326, -0.219334, -0.28427, 0.937992, -0.291554, 0.873684, 0.307898, -0.075339, 0.0348922, 0.236979, 1.54742, 0.356977, -0.634368, -0.257981, 0.354987, 0.427122, 0.264827, -0.373892, -0.835605, -0.101284, -0.00998178, 0.626603, 0.176439, -1.15071, 0.512826, 0.0701799, -0.710357, -0.502207, 0.524241, -0.0582095, 0.193768, 1.07168,
	0.0174253, 0.0610946, 0.169989, 0.0977345, -0.351629, -0.351094, -0.436064, -0.240134, 0.269344, 0.651297, 0.114462, 0.025614, 0.600029, -0.217109, 0.41706, 0.0575247, 0.256528, -0.177131, 0.0112, 0.0144938, -0.129918, 0.582216, -0.556787, -0.279018, -0.278644, 0.147679, -0.130916, -0.0167163, -0.0816597, 0.336087, 0.39887, 0.775881,
	0.0842087, -0.16477, 0.051312, -0.280344, 0.308448, 0.253222, -0.185524, 0.243525, -0.297316, -0.0657452, 0.0258289, -0.287375, 0.0451118, 0.288457, 0.178683, -0.00774722, -0.183354, -0.00830641, -0.103519, 0.0857345, 0.0500288, -0.223318, 0.276189, -0.121361, -0.181291, 0.285381, 0.516935, 0.429068, -0.145931, -0.146995, -0.350926, 0.156646,
	0.0151444, -0.0358653, -0.305026, 0.100409, 0.549407, -0.140552, 0.0560868, 0.111201, 0.106266, 0.244853, -0.119977, -0.192033, 0.109161, 0.689366, 0.111494, 0.356835, -0.47453, -0.094645, -0.153651, 0.286941, 0.422728, -0.146766, -0.0195157, 0.24461, -0.147398, 0.386543, 0.176487, 0.166896, -0.749057, -0.459576, -0.462559, -0.619703,
	-0.209163, -0.238777, -0.0818779, -0.0734712, 0.110666, -0.0731129, 0.264111, 0.107998, -0.186896, -0.00627024, -0.198904, -0.282561, -0.187099, 0.385151, 0.313796, -0.326054, -0.498142, -0.0917753, 0.179359, 0.491805, 0.173786, -0.00583395, 0.0971048, -0.223956, -0.0360314, 0.126991, -0.00242899, -0.0427938, -0.14076, -0.1788, -0.116084, -0.251152,
	-0.497393, -0.519659, -0.0941548, 0.33076, -0.0216742, 0.136796, 0.544739, 0.13672, 0.065869, -0.0963906, 0.133204, 0.24694, 0.0129521, 0.0398436, 0.31738, -0.210576, 0.0378549, 0.0617949, -0.293829, 0.0495013, 0.0348403, -0.15057, 0.691101, -0.0990909, 0.434738, -0.107046, 0.490482, -0.337185, 0.183009, -0.246894, -0.123462, 0.336028,
	-0.014985, 0.111611, 0.350382, -0.372721, -0.412683, 0.335607, -0.182363, -0.338729, -0.224302, -0.120008, -0.241569, -0.159463, -0.417098, -1.24332, -0.323454, -0.150222, 1.41787, 0.437181, 0.340981, -0.981594, -0.326847, -0.0961232, -0.159334, -0.451561, -0.0770758, 0.0666116, -0.441413, 0.277739, 0.103542, -0.177325, 0.142393, 0.35887,
	-0.362906, -0.0231744, 0.175372, 0.173577, 0.110194, 0.34029, 0.243683, -0.206166, -0.0598808, -0.0426346, 0.303975, 0.133085, -0.139975, 0.0698577, 0.496236, 0.138809, 0.0858037, -0.209796, 0.278908, 0.116317, -0.0852467, -0.0144135, 0.0845063, -0.0721776, 0.0290894, -0.120818, 0.114944, -0.163723, 0.0555388, -0.173278, 0.0614127, -0.0253709,
	-0.199123, -0.258473, 0.138497, 0.0944171, 0.208108, 0.0554785, -0.0109559, -0.0521792, 0.183775, 0.385795, 0.0781092, 0.00404346, 0.27052, -0.119759, -0.229099, 0.0536963, -0.180823, 0.26215, 0.135748, 0.478954, -0.0675604, 0.130077, -0.0857607, -0.343994, -0.109921, -0.438941, -0.0268316, 0.170589, 0.157558, -0.0330557, -0.0657388, 0.241889,
	0.133405, -0.212466, -0.159739, 0.105581, 0.333695, -0.0846655, 0.0747734, -0.296359, -0.0230837, -0.0850853, 0.0585877, -0.342424, -0.0803607, 0.554565, 0.249832, -0.0732548, -0.572265, 0.00675702, -0.121178, 0.531175, -0.078715, -0.268583, 0.170726, 0.214013, -0.131014, 0.0979422, 0.227405, 0.21272, -0.390873, -0.400251, -0.181636, -0.190686,
	0.53303, 0.517391, -0.267016, -0.229417, 0.147294, 0.129483, -0.130072, 0.239276, -0.0798789, 0.0768988, -0.591211, 0.230196, -0.221005, -0.0453091, 0.0330776, -0.131344, 0.0457066, -0.366889, -0.0358747, 0.0629815, -0.0153868, -0.251238, -0.242732, 0.406749, -0.00536659, -0.2518, -0.191404, -0.016936, -0.0130721, 0.245161, 0.417164, -0.00424372,
	0.395316, 0.195306, -0.14906, -0.178693, -0.331175, -0.0654253, -0.313438, -0.880559, -0.0370775, -0.0897043, 0.152381, -0.19337, -0.0142691, -0.287816, -0.145929, -0.19876, -0.398558, -0.13473, 0.065865, -0.245596, -0.133624, 0.412906, -0.145403, 0.627055, 0.0275034, -0.284345, -0.461102, -0.316774, -0.30773, 0.175258, -0.144417, -0.532423,
	0.205899, 0.270075, -0.333421, -0.0593999, -0.547282, -0.461378, -0.0534004, -0.0488318, -0.171413, 0.0256399, -0.224472, 0.35486, 0.602883, -0.464341, 0.0382234, 0.273892, 0.508894, 0.728358, -0.266688, -0.452159, 0.0639751, 0.375048, -0.368634, -0.375242, -0.160654, 0.0250794, -0.346335, -0.150456, 0.044337, 0.3085, 0.236952, -0.221283,
	-0.0246481, 0.167453, 0.0584388, -0.119059, 0.307417, 0.345784, -0.188632, -0.0552424, -0.0448753, 0.278475, -0.144527, -0.010607, -0.348146, 0.177542, -0.304127, -0.0678516, -0.173268, 0.085256, 0.306034, -0.0936277, 0.0467212, -0.0164111, 0.231481, 0.193741, -0.0976249, -0.195379, 0.536381, 0.174857, 0.0331638, -0.195383, -0.151658, 0.0173932,
	0.946869, 1.8933, -0.796013, 0.166353, -1.30649, -0.0888072, 0.575945, -0.127427, 0.610477, -1.71165, 0.0925799, 0.0827718, -2.17432, -0.771674, -0.596289, -0.184335, 0.43172, -1.53854, -0.943948, 0.102434, 0.222592, 1.04761, -1.44385, -0.0642108, 0.542697, -0.0319377, -2.5083, -0.358605, -0.0628974, 0.755123, 0.47598, -0.120086,
	0.0151482, 0.462912, -0.0424189, 0.0137858, -0.531656, -0.227969, -0.336734, -0.183322, 0.0610422, -0.405162, -0.028078, 0.035763, 0.0981136, -0.719046, -0.00729252, 0.099611, 0.362236, 0.628621, 0.0189074, -0.510793, -0.159382, 0.0399779, -0.460451, -0.0628077, 0.00469811, -0.00496336, -0.0909424, -0.00284319, 0.15594, 0.188834, 0.0694643, 0.104254,
	0.447914, 0.0474392, 0.613079, -0.45395, 0.34949, 0.163234, -0.73695, 0.0318121, -0.399226, 0.592411, -0.24699, -0.783973, 0.0159113, 0.0560772, -0.00250671, -0.664391, -0.0793537, -0.346478, 0.895808, 0.185075, -0.260136, 0.355107, -0.503689, -0.480377, -0.906922, 0.600629, 0.444938, 0.780478, -0.593237, -0.0243354, 0.180489, 0.193972,
	0.289441, 0.466205, 0.170384, -0.122418, -0.0907913, -0.211611, -0.0746509, -0.462203, -0.128058, -0.296003, 0.0276775, -0.145815, -0.14316, -0.0309137, -0.146961, -0.0240303, 0.163099, -0.491323, -0.172016, -0.216815, 0.0217352, -0.111281, -0.246525, 0.271792, -0.132765, 0.242382, -0.0522499, 0.0327095, -0.122438, -0.0450972, -0.300918, -0.230455,
	0.372922, 1.54458, 0.536273, -1.21325, -0.0847263, -0.190367, -0.565323, -0.0299083, 0.240855, -1.49183, -0.330752, -0.439043, -1.14826, -0.490536, -0.185238, -0.860505, 0.673778, -0.733006, -1.11552, -0.167261, -0.304251, 0.360785, -0.813031, -0.212209, -0.226305, 0.54834, 0.660174, 0.701219, -0.50524, 0.148518, 0.389519, -0.210618,
	0.554709, -0.140713, -0.2358, 0.0782729, -0.0761569, 0.31072, 0.342815, 0.63857, 0.126723, 0.529573, 0.0670877, -0.275552, -0.106833, -0.616055, 0.34326, -0.375961, -0.0999208, -0.297914, 0.559496, 0.990154, 0.132289, 0.0359846, -0.245595, 0.0598847, -0.069673, 0.174733, -0.751683, 0.228912, -0.261768, 0.0402117, -0.177223, -0.108874,
	-0.299145, -0.511114, -0.180506, 0.585011, 0.302052, 0.803183, -0.179753, -0.347448, -0.417846, -0.207375, 0.523547, 0.149993, -0.504779, 0.510663, -0.271369, 0.507037, -0.480828, 0.326551, -0.321701, 0.0243605, -0.21538, -0.287336, 0.535426, -0.151106, -0.045398, 0.0602825, 0.203534, 0.133287, 0.319842, -0.220999, 0.0441264, 0.533735,
	0.408026, -0.166881, -0.250764, -0.124153, 0.437859, 0.674868, -0.286944, 0.180336, -0.142464, 0.19101, -0.301242, -0.476406, -0.447561, 0.279645, 0.56562, -0.0362493, -0.0171371, 0.213824, 0.286145, -0.197058, 0.455213, 0.116054, 0.24528, 0.0630455, -0.208173, 0.649614, 0.394098, 0.624542, -0.341781, 0.395351, 0.0651394, 0.570172,
	0.103226, 0.417966, -0.156821, -0.021246, -0.255926, -0.312394, -0.149658, -0.00376964, -0.146606, -0.104785, 0.261044, -0.279401, -0.473902, -0.0878129, 0.0117677, -0.0557732, 0.0473592, -0.862365, -0.257866, -0.0107547, -0.20846, 0.114138, -0.75894, -0.147286, -0.309331, 0.065573, -0.180693, 0.153381, -0.294701, 0.0609086, 0.282616, -0.134817,
	0.478058, 0.00487908, 0.621222, -0.571608, 0.0378901, -0.234848, -0.465981, 0.192548, -0.319596, 0.163159, -0.0505024, -0.804316, -0.832568, -0.159658, 0.122947, -0.732179, 0.0525916, -0.441776, 0.49873, 0.224445, 0.261697, 0.208453, -0.162188, -0.823853, -0.539413, 0.938972, 0.118913, 0.549132, -0.81052, -0.115603, 0.0258239, 0.450008,
	0.213868, 0.234967, 0.28843, -0.308986, -0.0911114, 0.0140722, -0.350767, 0.07076, -0.012798, 0.0458587, -0.326907, 0.283424, 0.0895575, -0.439972, 0.0251061, -0.0688636, 0.495833, 0.461701, 0.0917074, -0.404815, -0.42768, -0.0131496, -0.169613, -0.20425, -0.07803, 0.0421368, 0.15639, -0.0768464, 0.370523, 0.18798, 0.46902, 0.275248,
	0.199186, 1.01383, 0.237598, 0.132521, -0.930341, 0.747657, -0.0927203, -0.850401, 0.0470554, 0.0803265, -0.10893, 0.149841, -0.570379, -0.429851, -0.535216, 0.0323482, 1.11192, 0.171562, 0.132525, -1.23974, -0.328756, 0.268202, -0.427181, -0.182137, 0.0455629, 0.0367436, -0.880435, 0.0561339, 0.235809, 0.296339, 0.368444, 0.242768,
	0.144593, 0.105081, 0.0246567, -0.105953, -0.191625, 0.0378612, -0.312837, -0.705132, 0.0204643, -0.23901, 0.176226, -0.0365255, 0.115666, -0.0978713, -0.0616208, -0.121961, 0.0310073, 0.173887, 0.101581, -0.249012, 0.0536917, 0.210413, -0.260518, -0.0746517, -0.142471, 0.1562, -0.161645, 0.0628569, -0.0617849, 0.0308033, 0.0484424, -0.0334598,
	-0.449551, -0.275485, 0.0740723, 0.18737, -0.471998, -0.0725766, -0.236849, -0.51138, 0.00478545, 0.233515, 0.237715, 0.255771, 0.727743, -0.410064, 0.345754, 0.197445, -0.0845742, -0.0176815, 0.249312, -0.253639, -0.410472, -0.124758, 0.0114278, 0.501115, 0.21476, -0.0898281, 0.0146669, -0.242048, 0.0843577, -0.156299, 0.256529, 0.240328,
	-0.467001, -0.226778, -0.756211, 1.54778, -0.275988, -0.123333, -2.51734, -0.131162, -0.581863, 2.03507, -0.350175, 0.40412, 1.29142, -0.201185, 1.29977, 0.494427, 0.0113767, 1.75647, 1.22372, -0.328734, -0.491228, -0.219477, 0.330225, -0.168545, -0.138485, -0.49314, -1.11709, 0.584185, 0.494603, -0.784596, -0.0781253, -0.10879,
	0.124283, 0.127665, 0.210409, -0.129495, -0.142146, 0.0104113, -0.445893, -0.303879, -0.153171, -0.0989561, -0.0994952, -0.0901173, -0.410293, -0.701274, 0.3963, -0.128867, 0.467319, -0.128656, -0.116385, -0.371605, -0.476582, 0.301409, -0.100779, -0.137042, -0.189765, -0.0686552, 0.264607, -0.237779, 0.138717, 0.00997298, 0.349617, 0.0702954,
	-0.485131, -0.309698, 0.20906, -0.121457, -0.336295, -0.213575, 0.157806, -1.26655, 0.191302, -0.260821, 0.822488, 0.267035, 0.523375, 0.322237, 0.30899, 0.38064, 0.666066, 0.662811, -0.692143, -0.610138, 0.216654, -0.0130179, 0.132222, -0.318475, 0.455967, 0.0795837, 0.278561, -0.0999597, 0.0491805, -0.299315, -0.0620505, 0.175309,
	0.0618168, 0.606777, 0.0670036, -0.198909, -0.393817, -0.698442, -0.154216, -0.261301, 0.12301, -0.202341, 0.0423074, 0.0276189, -0.105587, -0.172564, 0.0901668, -0.0715502, 0.216869, 0.364149, -0.156988, -0.339666, -0.28193, 0.0515643, -0.187545, -0.127012, 0.121028, -0.0127901, -0.0299129, -0.010543, 0.132316, -0.204519, 0.325565, 0.427425,
	-0.0486388, -0.119587, 0.0575536, -0.0213748, 0.0440026, -0.168502, 0.0214017, -0.121224, -0.0514205, -0.524193, 0.294832, -0.0863267, -0.399474, -0.212937, 0.15799, -0.165287, -0.0934952, -0.137109, -0.0934904, 0.0547142, -0.0510007, -0.0213176, -0.41934, -0.299374, -0.1655, 0.152176, -0.161023, 0.0701265, -0.206952, -0.128752, -0.140756, -0.0799059,
	-0.0856434, 0.154489, -0.108518, 0.420711, -0.42869, 0.121759, 0.0363837, 0.0714865, 0.211604, -0.188469, 0.356699, 0.111756, -0.167282, -0.298817, 0.0210536, 0.0241657, 0.134113, 0.338944, -0.192968, -0.167035, -0.0239691, 0.247631, -0.0565076, -0.0712094, 0.0694983, -0.52301, -0.193068, -0.168933, 0.400437, 0.225813, 0.128745, -0.0408914,
	-0.282429, -0.215822, 0.216353, 0.150346, 0.00518828, -0.0628179, -0.157966, 0.151669, 0.103218, -0.109125, 0.329201, -0.162188, 0.183194, -0.103154, 0.646002, -0.0567322, 0.11342, -0.302267, -0.429916, -0.0385739, -0.304141, -0.14909, -0.28911, -0.352398, 0.0549518, -0.168491, -0.229692, 0.0713141, 0.221474, -0.0884191, 0.313349, -0.0989421,
	-0.0565654, 0.206669, 0.00864104, -0.0744933, 0.499386, 0.400911, 0.135308, 0.42138, -0.197245, 0.608545, -0.163959, -0.216778, -0.250747, 0.12737, -0.304464, -0.271124, 0.0723663, -0.482112, 0.489008, 0.0200878, 0.307062, -0.45175, 0.516864, 0.308603, -0.379994, 0.454047, 0.0990884, 0.271236, -0.270184, -0.293614, -0.399213, -0.492993,
	0.264013, -0.0404713, 0.298037, -0.459718, 0.300038, -0.141208, -0.152663, 0.198162, -0.201972, 0.319771, -0.311374, -0.199137, -0.209153, 0.217594, -0.149803, -0.379241, 0.0993027, 0.122237, 0.26509, -0.026428, -0.209418, -0.133758, 0.00783114, -0.207406, -0.126587, 0.305222, 0.049821, 0.0248678, -0.0491982, -0.110483, 0.169506, -0.0160311,
	0.137273, -0.0236935, -0.205557, 0.238764, 0.0181293, 0.228495, 0.0401967, -0.109729, -0.00170983, 0.0640208, -0.0400023, 0.12033, -0.1891, 0.0927201, 0.131333, 0.123174, -0.135822, -0.216904, -0.197432, 0.0244941, 0.053934, 0.105319, 0.356805, 0.457252, -0.0614661, 0.138942, -0.0533156, -0.400226, 0.0833522, 0.0758682, 0.255024, 0.160685,
	0.13587, 0.664012, -0.179337, -0.150725, -0.420433, -0.222155, -0.135977, -0.297406, -0.285232, 0.317659, -0.178689, 0.0833782, -0.126598, -0.970184, 0.0866132, 0.0478167, 0.897876, 0.366376, -0.161652, -0.205932, -0.228571, 0.36608, -0.247736, -0.231907, 0.192375, -0.253697, -0.532375, -0.0175604, 0.0782965, 0.0629731, 0.0415959, 0.177001,
	-0.295893, 0.00323486, -0.340103, 0.0193047, 0.0872032, 0.226112, -0.170326, 0.432519, 0.369805, 0.614078, 0.314887, -0.218832, -0.0447635, 0.147459, 0.397966, 0.161056, 0.188846, -0.377684, -0.0553912, -0.212606, 0.0601211, -0.444356, 0.0393431, 0.105867, -0.111894, -0.0534913, 0.369396, 0.133137, -0.0929387, -0.175268, -0.19026, -0.0377815,
	0.450099, 0.574893, 0.127316, 0.0342726, -0.416302, 0.268446, -0.0751508, -0.073228, -0.394107, -0.27998, -0.309762, -0.0188834, -0.147973, -0.581265, -0.459384, 0.029728, 0.715709, 0.70525, 0.291717, -0.413248, -0.391075, -0.034824, -0.253478, -0.320225, -0.273963, 0.0939203, -0.0777791, 0.173569, -0.07793, 0.514943, 0.0964485, 0.119757,
	0.141148, 0.406338, -0.0964959, 0.0636978, -0.545045, -0.113421, 0.64544, -0.542879, 0.839629, -0.288243, 1.45015, 0.0215786, -0.515949, -0.49307, 1.04835, 0.144733, 0.305239, -0.511316, -0.708638, 0.433618, 0.278627, 0.667905, -1.10193, 0.0430483, 0.823468, 0.226221, -0.774015, -0.243383, -0.334292, 0.341537, 0.541625, -0.293856,
	-0.396631, -0.457237, 0.329875, 0.229724, 0.214113, -0.349174, -0.0944624, 0.0422358, -0.137782, -0.0370044, 0.211162, -0.366718, 0.280619, 0.321343, 0.522873, 0.0601054, -0.250711, 0.357407, -0.260657, 0.406169, 0.0449907, -0.00154969, -0.34297, -0.363862, -0.101623, 0.359307, -0.178826, 0.260833, -0.289842, -0.00392075, 0.0807002, 0.0406191,
	0.182373, 0.121751, -0.193183, 0.362873, -0.203909, -0.100606, -0.167727, -0.21104, 0.115711, -0.240854, 0.0679355, 0.0860023, 0.241772, -0.0419743, 0.137398, 0.457759, -0.0904026, -0.0764418, -0.263566, 0.0524938, 0.0694493, 0.13303, -0.103234, 0.519279, -0.0773714, 0.123247, -0.300252, -0.255879, -0.144831, 0.0448017, 0.0684475, -0.428544,
	0.371671, 0.54512, -0.0225145, -0.311134, -0.382093, 0.069546, -0.661178, -0.356698, -0.276524, 0.0609261, -0.169857, -0.407366, -0.368601, 0.0756759, -0.0385114, -0.430901, -0.208532, 0.351163, 0.626547, 0.0138005, -0.512996, 0.123665, -0.591064, -0.0214187, -0.245892, -0.00211812, -0.236523, 0.37078, -0.0714492, -0.40385, -0.00924232, 0.0736918,
	-0.216807, 0.0161479, -0.291712, -0.00999981, -0.0425802, -0.38308, 0.00637366, -0.344654, 0.223006, 0.250195, 0.464836, 0.21636, 0.460821, -0.0450995, 0.0917127, 0.406521, 0.12119, 0.0787686, -0.313333, -0.169052, 0.0679413, 0.237889, -0.401457, 0.0660165, 0.0738338, -0.188367, -0.359196, -0.0358605, -0.0768548, -0.184377, -0.403405, -0.712129,
	0.669439, 0.462938, -0.0515617, -0.37028, -0.388844, -0.145318, -0.41173, 0.283411, 0.179936, 0.422094, -0.618147, -0.705131, -0.136494, -0.491562, 0.789672, -0.573088, 0.0459783, -0.590661, 1.06304, 0.532201, 0.107029, 0.383862, -0.360343, 0.113217, -0.496013, -0.00422827, -0.485787, 0.220248, -0.345753, 0.0947606, -0.080138, -0.0779752,
	0.156897, -0.484152, -0.217008, 0.347614, 0.104546, -0.335472, 0.649563, 0.593067, 0.316847, 0.247361, 0.502789, -0.0628656, 0.540118, 0.318733, 0.104514, 0.697023, -0.350747, -0.587454, -1.44347, 0.23339, 0.148151, -0.603942, 0.118246, 0.111446, 0.125018, 0.158357, -0.0296382, -0.22108, -0.23663, -0.571091, -0.659902, -0.474143,
	-0.169949, 0.202197, -0.11559, 0.0508096, -0.229438, -0.251777, 0.0214332, 0.00866508, 0.087474, 0.0650436, 0.289393, 0.236992, 0.364623, -0.161141, 0.0998866, 0.207597, 0.109443, 0.198081, -0.0925809, -0.0831541, -0.0466909, 0.195421, -0.0401983, 0.142384, 0.133586, -0.188366, -0.28552, -0.126491, 0.00294977, -0.29623, -0.0858971, 0.0559168,
	-0.267114, -0.453885, -0.277132, 0.139732, 0.321922, 0.0101541, 0.303447, 0.0219354, 0.186156, -0.517653, 0.186861, 0.102173, -0.136807, 0.450758, 0.258093, 0.0815021, -0.583945, 0.337529, -0.0958384, 0.226132, 0.404785, -0.207588, 0.4293, 0.519149, -0.0156185, 0.0652703, 0.193094, -0.155093, -0.0566574, -0.165365, -0.275307, 0.114158,
	0.611372, 1.44562, -0.418723, 0.906578, -0.965802, 0.0430132, -0.676247, 0.229453, 0.061162, -0.00782476, -0.248924, -0.644868, -1.22328, -1.01647, 0.363104, -0.0251983, 0.300837, -0.488203, -0.375536, 0.241317, 0.15659, 0.560743, -0.903064, -0.280737, -0.900425, 0.336716, -1.5194, 0.485964, -0.644723, 0.585997, -0.144106, -0.909222,
	-0.0550583, -0.318256, -0.0383738, 0.214038, -0.501363, 0.0062393, 0.494321, 0.0527955, -0.0541173, 0.182029, 0.559484, -0.282715, -0.0737424, -0.158342, -0.0270064, 0.230846, 0.215351, 0.0596794, -0.200728, 0.0262566, 0.0388333, -0.000442924, 0.0530068, -0.771964, 0.170665, -0.137759, -0.0321589, 0.01906, 0.157563, 0.267745, 0.300043, 0.775623,
	-0.20362, 0.239068, -0.0320461, 0.461541, 0.13109, -0.204787, 0.0206253, -0.202632, -0.147255, 0.0900807, 0.504649, 0.341176, 0.44159, 0.134937, -0.141312, 0.46302, -0.301894, 0.787985, -0.0564839, 0.207442, -0.140734, -0.0684704, -0.195296, -0.423688, 0.194222, -0.0749238, -0.285976, 0.0479023, 0.214767, 0.153573, -0.0875021, -0.396727,
	-0.0563018, 0.188032, 0.344608, 0.00851211, 0.304913, 0.341605, -0.255485, 0.192284, -0.143406, 0.0591878, -0.386281, -0.0164775, 0.0643162, 0.254629, -0.351788, 0.0187151, -0.133028, 0.0836697, -0.086015, -0.00586289, -0.360418, -0.259223, 0.170473, 0.208946, -0.234405, 0.0290102, 0.333359, 0.0500932, -0.0636356, -0.050644, 0.224493, -0.0394827,
	0.278464, 0.0895324, -0.0999653, -0.0882851, -0.0997617, -0.221452, -0.301026, -0.278018, -0.374902, -0.193809, 0.104549, 0.307231, 0.218229, -0.0507762, -0.250848, 0.115749, 0.0451226, 0.773466, 0.15822, -0.197561, -0.151964, -0.0219512, -0.127451, 0.238305, -0.107119, 0.13936, 0.0578874, 0.20974, -0.0318149, 0.0957508, -0.0357699, 0.126858,
	-0.0952127, 0.076876, 0.212899, 0.12243, -0.028327, -0.186109, -0.0117563, -0.0305779, -0.0509373, 0.043827, -0.0623437, 0.162494, 0.166243, -0.284627, 0.393664, 0.182472, 0.202878, -0.166286, -0.37804, 0.124027, 0.0570167, 0.130293, -0.17015, -0.115298, 0.0584505, -0.150931, 0.192823, -0.195474, -0.0273505, 0.0584684, 0.165489, 0.189641,
	-0.308733, -0.220195, -0.213451, 0.371081, -0.137994, -0.461724, 0.107159, 0.0450529, 0.338262, -0.0265874, 0.25397, 0.131176, 0.18753, 0.223591, 0.669123, -0.0170527, -0.292498, -0.0342866, -0.297111, 0.269477, 0.27297, 0.322778, 0.13478, 0.0563318, -0.0179931, 0.0433771, 0.263015, -0.391397, 0.263771, -0.414912, -0.10714, -0.0282973,
	0.0605764, -0.127942, -0.305921, 0.135829, 0.238218, 0.0163079, 0.298044, -0.0729194, 0.344029, -0.242551, 0.015293, -0.112179, 0.258734, 0.0653058, -0.627565, 0.159851, 0.0351959, 0.439336, -0.199939, -0.166791, 0.124777, -0.667998, 0.517962, 0.274372, 0.0496761, -0.138417, 0.0401827, 0.106852, -0.110782, 0.0632151, -0.289573, -0.171225,
	-0.154292, -0.145645, -0.22748, 0.335034, 0.195621, -0.375455, 0.608929, 0.26325, 0.907233, 0.349189, 0.116901, 0.0193248, 0.561139, 0.208055, 0.142082, 0.434531, -0.371454, 0.249739, -0.490883, 0.521565, 0.58634, -0.132766, 0.0436271, 0.118231, -0.0572456, 0.0997592, -0.045206, 0.105996, -0.0492694, 0.347938, 0.0164648, 0.318085,
	0.249168, 0.0856972, 0.169523, -0.0441758, 0.0777497, 0.00172212, -0.0892468, 0.168632, 0.0670474, 0.0105241, -0.225008, -0.246544, 0.335032, -0.0551916, 0.202012, -0.23813, 0.0367539, 0.186607, 0.1232, -0.075574, -0.35882, -0.389589, 0.113284, 0.344173, -0.152951, 0.00572991, 0.150482, 0.222513, -0.098501, -0.113728, -0.00890448, 0.0193473,
	0.0821109, -0.481514, 0.710488, -0.216709, -0.718101, -0.125399, -0.584056, -1.35719, 0.062418, -0.576054, 0.0447721, 0.493412, 0.480602, -0.471924, -0.242616, -0.141734, 0.101248, 0.730425, 0.534248, -0.0355326, -0.364254, 0.247672, 0.083483, 0.188747, -0.170389, -0.22387, 0.332682, -0.316981, 0.0255725, -0.171036, 0.535933, 0.178557,
	0.593257, 0.463995, 0.165947, -0.145272, -0.17584, -0.271169, -0.344476, -0.407043, -0.0512577, -0.269008, -0.124615, -0.580995, 0.0964553, -0.0445594, -0.253982, -0.354265, -0.205385, 0.236063, -0.0181543, 0.463753, -0.0847804, -0.081977, 0.111184, 0.0842871, -0.387429, 0.0825596, 0.0919826, 0.334237, -0.633099, 0.178678, 0.378292, 0.047658,
	0.0384941, -0.271438, 0.208252, -0.0555835, 0.0477896, 0.46677, -0.1655, 0.156909, -0.105631, -0.305978, -0.00919761, -0.0558623, 0.0589296, 0.144497, -0.151155, 0.00695682, -0.0700796, 0.0905008, 0.061898, 0.0885546, 0.034738, -0.117088, 0.0575215, 0.0271123, -0.181921, 0.0732678, 0.256073, 0.0767578, -0.114399, 0.0791102, 0.0573597, -0.0579206,
	-0.305695, -0.121675, -0.02523, 0.220366, 0.0736005, 0.0343927, 0.0709137, 0.0876252, 0.152078, -0.0287162, -0.150511, -0.00175908, -0.00554184, 0.0329239, 0.296416, 0.025415, -0.0970404, -0.227792, -0.115066, 0.0425925, 0.0385057, -0.0407054, 0.0894806, 0.275268, 0.0492309, -0.05782, 0.156026, -0.136375, 0.0309736, -0.0653525, 0.0270684, -0.202799,
	-0.0711221, 0.0091333, 0.402431, -0.518079, 0.285605, -0.01078, -0.630123, -0.238697, -0.317603, 0.435589, -0.120847, -0.380811, -0.273023, 0.229126, -0.0734574, -0.152784, 0.0821655, 0.124502, -0.196578, -0.064435, -0.230254, -0.180993, -0.253232, -0.136503, -0.0970346, 0.00711771, 0.48111, 0.426199, -0.156492, 0.0321404, 0.0578545, -0.100971,
	-0.228234, 0.0378594, -0.185294, 0.105066, -0.0448075, -0.0265666, 0.105825, -0.0645264, 0.238783, -0.00929388, 0.15861, 0.142341, -0.133115, -0.0712052, 0.262787, 0.151851, 0.0667327, 0.0689054, -0.169113, -0.0762812, -0.0885994, 0.00652085, -0.0486798, -0.00992897, 0.189507, -0.0148142, -0.053348, -0.196536, 0.170032, -0.112882, -0.241045, -0.144749,
	-0.226523, -0.303181, 0.0809665, 0.188087, -0.0462346, -0.039013, 0.126432, -0.0073715, 0.266855, 0.0982528, 0.0829025, -0.00667109, 0.268743, 0.127863, 0.292036, 0.0833784, -0.0395491, 0.0491134, -0.296455, -0.0425332, 0.217485, 0.299765, -0.057564, -0.129112, 0.177917, 0.0229784, -0.227606, -0.127296, 0.0718958, -0.124727, -0.00361265, 0.074029,
	0.0993472, -0.0817935, -0.0612426, -0.275647, -0.0467659, 0.103117, -0.0281023, -0.0372793, 0.0995636, -0.0630979, 0.095103, -0.239263, -0.0273206, 0.09471, 0.0875762, -0.260315, -0.117549, -0.212562, -0.0106221, 0.140698, 0.0688375, -0.0415007, 0.186485, 0.113783, 0.0262296, 0.143058, 0.00993253, 0.0201334, -0.157642, -0.0791893, -0.0360764, -0.0602613,
	0.268355, 0.241914, 0.110509, -0.0494307, -0.117636, -0.0189918, -0.282268, -0.144199, -0.0460831, -0.06509, -0.022092, 0.248328, 0.0938729, -0.108589, -0.0811655, 0.196532, 0.147399, 0.248303, -0.13915, -0.211472, -0.0307155, 0.0290632, -0.0798958, -0.0333642, -0.0356567, 0.0165103, -0.16435, -0.105533, 0.00886972, -0.0110238, 0.196272, 0.056805,
	0.0191226, -0.0940271, 0.0652107, -0.168548, -0.05661, 0.0390436, -0.398457, -0.178927, 0.148265, 0.0377067, 0.0277338, 0.097814, -0.199708, -0.0600016, 0.304321, 0.0587812, 0.0967993, 0.0988045, -0.159239, -0.0944308, 0.186809, 0.00665552, -0.0400071, 0.0993858, 0.0774152, -0.125605, -0.164792, -0.140317, 0.097637, -0.119598, 0.0088434, -0.204921,
	0.0884517, -0.0178954, -0.141362, -0.060959, -0.196143, 0.135505, -0.282133, -0.358586, 0.0738666, 0.0812389, 0.225883, 0.0015104, -0.106626, 0.0578673, -0.100195, 0.156966, -0.0288015, -0.201626, -0.0913671, -0.0878415, 0.079562, 0.716899, 0.0218227, -0.30237, -0.138878, 0.0476562, -0.0678864, 0.00112201, -0.0824286, 0.33306, 0.464414, 0.451837,
	-0.0160088, -0.108745, -0.316545, 0.212566, 0.0897143, -0.161591, 0.151506, -0.0915586, 0.175009, 0.150085, 0.150859, -0.0663622, 0.199454, 0.313455, 0.182868, 0.164298, -0.45568, 0.0240694, -0.0975936, 0.348274, 0.391724, 0.264651, 0.222461, 0.00472842, -0.0154176, 0.138083, 0.0858401, 0.00436795, -0.07142, 0.130387, -0.0700428, 0.196455,
	-0.0336525, -0.017605, 0.0773399, 0.173858, -0.12744, -0.0391776, -0.222185, -0.0290226, 0.021246, -0.0890567, 0.0787124, -0.0217024, 0.195054, -0.267462, 0.0664605, 0.0204794, 0.157138, 0.0355511, -0.00184907, -0.0526487, -0.114607, -0.0304572, -0.332007, -0.242343, -0.187589, 0.263879, 0.155582, 0.142838, -0.0601381, 0.0149242, 0.261937, 0.25826,
	-0.117232, -0.0410314, -0.0327866, -0.0402332, -0.000895136, -0.0917107, -0.106537, -0.262453, -0.0300637, 0.197177, 0.189967, -0.0241543, 0.0737373, 0.0483346, 0.136223, 0.175172, -0.0523775, 0.124199, 0.0679065, -0.0809556, -0.145525, 0.00265644, -0.209836, 0.0479729, 0.01118, 0.124807, -0.00733809, 0.184498, -0.152543, -0.224873, -0.0552801, 0.0222036,
	-0.264219, -0.293212, -0.224309, 0.285753, 0.0349247, -0.188903, 0.286038, 0.147465, 0.27031, -0.0884106, 0.0329616, -0.0232913, 0.0259547, 0.17573, 0.752855, 0.0645169, -0.233193, -0.0837277, -0.283674, 0.246087, 0.13657, -0.0347417, 0.157361, 0.182143, 0.212862, -0.411435, 0.267961, -0.198065, 0.119938, 0.0481703, -0.497481, -0.113141,
	0.217545, 0.121247, 0.357552, -0.616606, -0.0658582, 0.180179, -0.195036, -0.0445209, -0.226396, -0.333973, -0.282683, -0.303136, -0.0354555, -0.031598, -0.226117, -0.319093, 0.13088, 0.1167, 0.44362, -0.0670793, -0.22402, -0.119481, -0.0165064, -0.0534895, -0.297273, 0.00866082, 0.163922, 0.385743, -0.109116, 0.069258, -0.0297186, -0.0609281,
	0.0959084, 0.136857, 0.118152, -0.183892, 0.494665, -0.209989, 0.0790398, 0.13623, 0.0545551, -0.0664946, -0.359599, -0.0476137, 0.417309, 0.997729, -0.0689473, 0.00572113, -0.595869, 0.175429, 0.0404535, 1.3029, -0.0524791, -0.244477, -0.122931, 0.0648755, -0.269504, 0.0961883, 0.404914, -0.092078, -0.142242, 0.228765, 0.16413, -0.261328,
	0.317713, 0.0640629, 0.0193452, -0.122857, 0.1563, 0.0626542, -0.35349, -0.00940835, -0.0111283, 0.00552224, 0.0701028, -0.147271, 0.25377, 0.1003, -0.054013, -0.238562, -0.123681, -0.157743, 0.091147, 0.10658, 0.0337629, 0.0701861, -0.415844, -0.270349, -0.286037, 0.0713195, 0.0724452, 0.238892, -0.168675, 0.0819037, 0.0458662, 0.0288222,
	-0.0558741, 0.0136626, -0.104021, 0.0400341, 0.0775242, -0.039019, 0.106577, -0.0156879, 0.0421375, 0.446795, -0.0460573, 0.137166, 0.00850454, 0.210752, 0.187694, -0.0490176, -0.156824, -0.0870111, -0.160786, 0.0811889, 0.169881, -0.0176229, 0.0646367, 0.142778, 0.291174, -0.188916, -0.0896404, 0.0242661, 0.109568, 0.0378164, 0.0351362, 0.0418936,
	-0.0342352, -0.0689119, 0.0838805, -0.123614, 0.175659, 0.130288, -0.0739952, 0.106781, -0.137667, -0.0626401, -0.0604697, -0.0966389, -0.151245, 0.0580248, -0.0770224, -0.0793249, -0.0128486, -0.0640096, 0.0555033, -0.035037, -0.0889871, -0.110306, -0.00851129, -0.0217669, -0.0553995, -0.0247582, 0.157623, 0.126285, -0.0532573, 0.00664899, 0.0131057, 0.0661606,
	0.131177, 0.0837174, -0.0555074, -0.197716, -0.0366324, -0.358433, 0.127897, 0.0327391, -0.121597, -0.377658, -0.04373, -0.00642757, -0.217513, -0.214542, -0.160343, -0.0650805, 0.387385, 0.315415, 0.0910868, -0.399306, -0.459901, -0.310388, 0.0761641, -0.025561, 0.0737788, -0.306322, 0.174075, 0.0617449, 0.0316618, -0.233649, -0.307987, -0.320947,
	0.0749594, 0.118099, 0.112017, -0.0767527, -0.06136, -0.0196478, 0.046403, 0.00818935, -0.0705512, 0.10488, 0.0103477, -0.0219133, 0.162522, -0.0218523, 0.0914464, -0.0846485, -0.00190203, -0.1471, -0.0237786, 0.026882, 0.126772, -0.000794322, 4.90852e-05, -0.152362, -0.0681644, 0.105272, 0.0569882, 0.0973202, -0.0221029, -0.06094, -0.125521, -0.0859964,
	0.0937174, -0.280617, -0.0102193, 0.145587, 0.133311, 0.32124, -0.337774, 0.00413422, 0.0563257, -0.00604805, 0.0719856, -0.183207, 0.0936935, 0.0622812, 0.299252, -0.151997, -0.217018, 0.0370901, -0.136629, 0.0654106, 0.098452, 0.247245, -0.0127522, -0.783991, -0.240062, 0.208469, 0.0461579, 0.16002, -0.236263, 0.248885, 0.421663, 1.20857,
	-0.0397309, -0.0368965, 0.00241729, -0.0864516, 0.116365, 0.323186, 0.085014, 0.0593884, 0.125746, 0.0984168, 0.0792621, -0.113594, 0.100655, 0.166813, -0.228165, 0.00186728, -0.186472, 0.0222399, 0.135115, 0.143131, 0.145213, -0.282556, 0.276867, -0.0801359, -0.115595, 0.108028, 0.0355075, 0.120803, -0.0224117, -0.0214079, -0.0434026, -0.105636,
	0.12047, 0.137614, 0.0290506, -4.14814e-05, -0.0512887, -0.0981453, 0.0193621, 0.0884457, 0.0847797, 0.0310085, -0.0539902, -0.0117783, -0.0165939, 0.0672865, -0.13268, 0.0147269, -0.0789535, -0.275706, -0.0480841, 0.0454684, -0.00662892, -0.0906529, 0.207418, 0.0756954, -0.0130405, -0.0299202, 0.00207251, 0.0223416, 0.0423696, 0.102819, 0.0816922, -0.0447852,
	0.363699, -0.0442912, 0.0163418, -0.147488, -0.0102921, 0.017479, 0.0471212, -0.2106, 0.0128334, -0.0721518, -0.084064, -0.121634, -0.0203561, 0.017964, -0.250476, -0.0830985, -0.129321, 0.0949641, 0.173536, 0.128555, 0.0666131, -0.0525847, 0.0234728, 0.117262, -0.0405531, 0.132969, 0.183067, 0.0359007, -0.0823004, 0.00509126, -0.0143592, -0.0493647,
	0.00528679, 0.148476, -0.0215007, -0.146974, -0.0986308, -0.0525685, -0.20264, -0.225589, -0.204474, -0.127219, 0.144736, 0.0709167, -0.234037, -0.119598, -0.0840451, 0.0457805, 0.0814637, 0.139727, -0.0837541, -0.140218, -0.0462004, 0.259588, -0.121011, 0.00704749, 0.0416748, 0.0173236, -0.135316, -0.0532566, 0.00409049, -0.0384713, -0.111397, 0.0122081,
	-0.0422492, 0.173989, 0.0553886, -0.199968, 0.150602, 0.103899, 0.222112, 0.0846249, -0.016991, 0.161199, -0.108758, -0.135935, 0.0813078, 0.0606151, -0.162649, -0.027091, -0.079389, 0.196274, 0.215039, 0.0601356, -0.0625625, -0.133602, 0.145011, 0.197723, -0.151811, 0.119815, 0.140115, 0.181244, -0.128398, 0.041072, -0.192016, -0.083564,
	-0.294285, -0.246614, -0.621156, 0.737835, -0.16585, -0.342375, 0.00611624, 0.0831986, 0.209703, -0.101771, 0.228403, 0.635098, 0.185714, 0.0679911, 0.505518, 0.604692, -0.081765, -0.294161, -0.941866, -0.021284, 0.201938, 0.359491, -0.191344, -0.0290837, 0.241599, -0.162712, -0.323435, -0.635767, 0.362738, 0.0608584, 0.120732, -0.0627191,
	-0.0345659, -0.118697, 0.0179818, 0.232044, 0.0146015, 0.226513, 0.0965899, 0.0709722, -0.203452, -0.00797724, -0.0634156, 0.432263, 0.180278, 0.0596033, -0.0709859, 0.225623, -0.0896013, 0.042785, 0.00557491, 0.0439789, -0.0475617, -0.17289, 0.0953863, 0.201426, 0.193025, -0.19428, 0.0943739, -0.113687, 0.0328755, -0.0139598, -0.0696625, -0.305727,
	-0.0170513, -0.302636, 0.0504555, 0.153294, 0.0479445, 0.186521, -0.0763914, -0.0526484, -0.152324, 0.0678047, 0.0161187, 0.071211, 0.019822, -0.0335029, 0.270761, 0.0437232, -0.0622136, -0.141145, -0.166674, 0.0635753, 0.0955077, -0.166381, 0.429256, 0.474699, -0.120377, -0.000934979, 0.273132, -0.0848333, -0.116276, 0.109026, -0.20832, -0.160619,
	-0.165322, 0.0190836, -0.0678468, -0.0344266, -0.00261895, 0.0831748, -0.0963777, 0.156176, 0.0404093, 0.16662, 0.110442, 0.302552, 0.0562897, 0.114818, -0.017055, 0.262275, 0.0183505, 0.189011, -0.190683, 0.0545128, 0.0898603, -0.209645, 0.332365, 0.286899, 0.144438, 0.140488, -0.0420267, -0.107682, 0.106894, -0.0859255, 0.0170833, 0.0271772,
	0.196065, -0.129257, 0.256639, -0.264095, 0.0799384, -0.0620027, 0.259498, 0.0879461, 0.105525, -0.0582892, -0.00914843, -0.358653, -0.100369, 0.124388, -0.0866968, -0.3316, -0.177359, 0.00438334, 0.0655885, 0.112346, 0.134994, 0.0214357, -0.0126246, 0.0395965, -0.156722, 0.148099, 0.0434238, 0.12361, -0.260975, -0.0776859, -0.11508, -0.00665486,
	-0.0105694, -0.131387, 0.0153351, -0.0476562, 0.107954, 0.00119547, 0.00809898, 0.117204, -0.131854, 0.0451392, 0.0246847, -0.121537, -0.0970893, 0.137836, -0.0125501, 0.0136515, -0.150884, -0.109847, 0.0129095, 0.274668, -0.0822692, -0.163233, 0.0909582, 0.0654615, -0.0974285, -0.0351546, 0.0744427, -0.0327416, -0.082047, -0.0349823, -0.088126, 0.0835947,
	0.231914, 0.18351, 0.0531761, -0.30723, 0.0715983, -0.100018, -0.104126, 0.182424, -0.0261653, -0.0583919, -0.361593, 0.0511621, -0.0156983, -0.00386763, -0.231653, 0.15369, 0.12574, 0.355158, 0.0875416, 0.00024136, -0.191254, 0.15145, -0.396768, -0.300307, 0.145959, -0.124785, 0.0677615, 0.235544, -0.0377245, 0.303895, -0.00598172, 0.209675,
	-0.21403, 0.0016155, -0.0107838, 0.0623473, 0.096573, 0.0337756, 0.0145596, -0.125681, 0.071996, 0.0861227, 0.145113, -0.0205542, 0.193266, 0.136812, 0.14852, 0.207376, -0.0366081, -0.143196, 0.306119, -0.00453444, -0.0122435, 0.157462, -0.39063, -0.130293, 0.0867379, 0.258569, -0.105787, 0.0379632, -0.0974122, -0.168328, 0.177829, -0.0435254,
	0.13121, -0.167822, 0.168559, -0.0817498, -0.166558, 0.337539, -0.228193, 0.115254, -0.380152, 0.102981, -0.165657, 0.114686, -0.249621, -0.542128, -0.197234, 0.00709832, 0.560601, -0.254414, -0.121921, -0.650494, -0.21377, -0.0848069, 0.0423663, -0.166422, 0.0331407, -0.0745374, 0.0161009, 0.0117314, -0.0258386, 0.00175081, -0.191439, 0.112154,
	0.0290766, -0.0190896, -0.130361, 0.13932, -0.105215, -0.00214358, 0.195139, 0.218549, 0.265763, 0.390591, 0.172075, 0.624969, 0.14772, 0.0630351, 0.0673981, 0.225995, 0.0182619, -0.29198, -0.300275, 0.12035, 0.202658, 0.0551984, -0.232295, -0.115614, 0.414981, 0.0219058, -0.292418, -0.212465, 0.126048, -0.0118385, 0.155419, 0.162213,
	0.124835, -0.0303266, 0.134479, -0.168741, -0.114871, 0.160612, 0.112378, 0.0493051, -0.102634, 0.0407259, -0.0151147, -0.0810907, 0.00127919, -0.0256645, -0.564804, -0.119385, -0.0952413, 0.105251, 0.097624, -0.00389066, -0.114204, -0.00454947, 0.0884018, 0.101489, -0.101006, 0.129119, 0.00883153, 0.127852, -0.0191699, 0.123664, 0.133056, 0.185937,
	-0.139288, -0.265259, -0.203059, 0.13934, 0.0356731, -0.165496, 0.546199, 0.0538776, 0.0700027, -0.0238045, -0.0857827, 0.0429184, 0.0335723, 0.0301839, 0.170612, 0.0861981, -0.263765, 0.0063469, -0.233071, 0.129881, 0.157114, -0.132583, 0.323579, 0.153494, 0.224802, -0.00813831, 0.0786702, -0.235007, 0.0242885, 0.119876, -0.0322318, 0.0487312,
	-0.427268, 0.0998029, -0.273715, 0.457852, 0.0403515, -0.19631, 0.432332, 0.40649, 0.127609, -0.13257, -0.0777204, 0.626981, 0.205978, 0.173976, 0.259086, 0.407793, -0.121038, 0.275353, -0.191276, -0.00369572, 0.145294, -0.0561574, 0.125981, -0.0426584, 0.44188, -0.519759, -0.140397, -1.03639, 0.357857, 0.176265, -0.150383, -0.272056,
	-0.108935, -0.405151, -0.527538, 0.554796, -0.0382383, -0.273057, 1.03068, 0.513738, 0.0741005, -0.422713, 0.0480935, 0.128085, -0.121157, 0.0849048, 0.475982, -0.0165171, -0.0390854, -0.412033, -0.730472, 0.0967796, 0.124647, 0.031747, 0.234594, 0.0947255, 0.0284049, -0.151933, -0.185796, -0.504889, 0.0798924, 0.143229, -0.162311, 0.0442031,
	-0.169189, 0.0741984, -0.187794, 0.188237, -0.105389, -0.269357, 0.179291, -0.0684005, 0.168441, 0.190468, 0.0919417, 0.169925, 0.0012298, -0.0477637, 0.0878306, 0.203085, 0.0894623, -0.0906145, -0.167738, -0.0504406, 0.0183024, -0.047471, -0.0576533, -0.0821752, 0.0648327, -0.0729817, -0.196601, -0.197092, 0.141172, -0.0957893, -0.0255579, -0.0340385,
	-0.0432083, -0.131676, 0.25966, -0.105666, 0.0220845, -0.249113, -0.18906, -0.256674, -0.0855324, -0.155366, 0.07019, -0.0799383, 0.0391412, 0.301353, 0.0480074, -0.0805403, -0.212617, -0.27722, 0.204004, 0.151536, -0.110843, 0.182677, -0.36053, -0.126955, -0.196041, -0.0246596, -0.00474907, 0.137946, 0.0984003, -0.0438638, -0.119387, -0.0377464,
	0.115654, 0.189983, -0.239544, -0.200706, -0.122911, -0.172096, -0.119568, -0.202783, -0.0597874, -0.204927, -0.168466, 0.00275383, 0.0967045, 0.0693572, -0.258397, -0.166285, 0.130388, 0.012811, 0.0833249, -0.272833, 0.0829446, -0.0876885, 0.112148, 0.0692895, -0.0482374, -0.0597634, -0.128148, 0.263745, 0.0591737, -0.0286608, 0.0316738, -0.22089,
	-0.281154, 0.0140068, -0.513753, 0.341534, 0.30017, -0.197286, 0.172565, -0.349864, 0.334961, 0.0725296, 0.453305, 0.0379063, 0.0822915, 0.189854, 0.428782, 0.119751, -0.266918, 0.106826, -0.229547, -0.00741582, 0.317472, 0.400835, 0.118549, 0.0155503, 0.168377, 0.0119795, -0.239145, -0.154284, -0.0140854, 0.17818, -0.169752, -0.060716,
	0.216262, 0.140819, 0.00425884, -0.165666, 0.0586614, -0.221561, 0.114283, 0.0904863, 0.179114, 0.255693, -0.121561, -0.322912, 0.199803, 0.0472176, 0.107255, 0.0560109, -0.0310962, -0.0217164, -0.0200584, 0.180078, 0.0730886, 0.0939957, -0.136226, -0.0392956, -0.0447736, 0.0285212, -0.0242736, 0.136464, -0.126355, -0.10474, -0.00929169, 0.0291533,
	-0.00444398, -0.0689522, 0.0155583, 0.0179169, -0.0909779, -0.141442, -0.0866329, -0.171308, 0.0343725, -0.0183898, 0.0762257, -0.0967299, -0.0499888, 0.024899, -0.0554532, 0.153864, -0.0192946, -0.0151347, 0.0714621, 0.16344, -0.127576, 0.10865, -0.0591983, -0.0506018, -0.0811628, 0.0286422, -0.106463, -0.00665075, -0.159597, -0.083848, -0.0233701, 0.0305472,
	-0.123179, -0.102673, 0.188065, 0.0410022, -0.018794, 0.00308435, -0.0746132, -0.116, -0.0247558, 0.0815467, 0.187153, 0.00266576, 0.383601, 0.081894, -0.0975835, 0.0197696, -0.21598, -0.0539814, 0.0265369, 0.289324, -0.167908, 0.053016, -0.260517, -0.0667592, -0.00836145, 0.139957, -0.335274, 0.0938257, -0.111284, -0.00499084, 0.125078, -0.0297459,
	-0.120605, 0.0183632, -0.131601, 0.0729816, -0.162412, -0.0435318, -0.0392539, 0.0613526, 0.182587, -0.129032, 0.247114, 0.124237, 0.0695452, 0.00756587, -0.0349173, 0.0603484, -0.0627767, 0.0232549, 0.0788224, 0.0946014, 0.187321, 0.107981, -0.0420387, -0.0604398, -0.125996, 0.110288, 0.0405501, -0.117319, -0.113906, 0.140347, -0.0329642, 0.104297,
	-0.059753, 0.0760368, -0.0910563, 0.0267827, -0.143272, -0.134715, -0.201854, -0.264335, 0.0444008, -0.0482885, 0.131652, 0.174346, -0.0549542, -0.0621583, 0.286297, 0.107895, 0.075734, 0.278768, -0.152669, -0.212568, -0.205711, 0.183912, -0.142012, 0.076415, 0.0669873, -0.172236, 0.0106809, -0.0689551, 0.0516678, 0.199272, -0.0166695, -0.100861,
	-0.157638, -0.0579361, -0.146727, 0.141417, -0.192268, -0.197087, 0.0203297, 0.0983806, 0.128655, 0.0666433, 0.37476, 0.0792178, -0.100735, -0.0935297, 0.0846769, 0.163943, 0.114259, -0.10142, -0.228978, -0.163619, 0.0225087, 0.263173, -0.125278, -0.00500625, 0.174796, -0.0974559, -0.184349, -0.110671, 0.106594, -0.132294, 0.00852411, -0.100471,
	0.243199, 0.0591399, 0.119084, -0.0660391, -0.289835, 0.173051, -0.347477, -0.165258, -0.204938, 0.136483, 0.0452832, 0.0804033, 0.132913, -0.592409, -0.157876, 0.124528, 0.623125, -0.0870424, -0.132361, -0.881466, -0.327779, -0.0296843, -0.0898103, -0.210636, 0.0383018, -0.0389908, -0.174848, -0.00140278, 0.109022, -0.0183111, 0.0270618, -0.0736664,
	0.0799278, -0.10993, 0.100116, -0.22991, 0.10841, 0.0515814, -0.032449, 0.0499175, 0.00659842, -0.131096, -0.0725687, -0.164923, -0.191402, 0.0843451, 0.0129934, -0.071926, -0.0635225, -0.224709, 0.0802517, 0.0875448, -0.0625778, 0.0218084, 0.100563, 0.0428897, -0.100319, 0.089637, 0.184266, 0.129384, -0.191321, -0.0442556, 0.0019535, -0.0612366,
	-0.221769, -0.0902068, -0.0382483, 0.108377, 0.154167, -0.121482, -0.185363, 0.192804, -0.0752322, 0.194604, -0.082925, -0.106543, 0.124687, 0.455806, 0.306062, 0.265116, -0.42695, -0.00830435, -0.191938, 0.251229, 0.124995, -0.0176241, 0.150956, -0.166625, 0.0375738, 0.0518271, 0.592512, 0.119768, -0.0175839, 0.0644947, -0.211033, -0.0504557,
	0.371619, 0.104602, -0.17258, 0.105457, 0.161356, -0.280443, -0.499193, -0.38963, -0.107307, -0.30043, 0.0803826, 0.0397505, -0.0120706, -0.176404, 0.223233, 0.0261868, 0.0107966, 0.424359, 0.356904, -0.0392718, -0.0560425, 0.298053, -0.171396, 0.216278, -0.377083, 0.0646237, 0.363103, 0.286739, -0.180284, 0.489015, 0.0853997, -0.0180056,
	0.0171262, -0.198895, 0.418734, -0.0839541, -0.00611171, 0.21645, -0.0462997, 0.164298, -0.387349, -0.118214, -0.0504792, -0.111366, -0.545116, -0.104911, -0.294327, -0.137058, 0.153005, 0.0303672, 0.193081, 0.0343262, -0.112368, -0.449992, 0.162608, 0.28919, -0.0986664, -0.0444835, 0.22691, -0.047921, 0.12572, -0.196079, -0.164883, -0.121319,
	-0.00123148, -0.0830185, 0.0181711, 0.0277793, 0.110977, 0.175903, 0.139033, -0.00852574, 0.116557, -0.022495, -0.003321, -0.0712696, -0.0281203, 0.0720161, -0.100706, -0.0735414, -0.0672006, 0.0432345, 0.102681, 0.0148907, -0.0228608, 0.0846838, 0.0596896, 0.182805, -0.063322, -0.0354599, 0.00536121, 0.0578813, -0.0763639, 0.0385439, -0.0559417, 0.0407689,
	0.349645, 0.0260739, 0.2001, -0.2065, -0.0258088, 0.0555933, 0.0679619, 0.0413321, 0.021209, -0.113245, -0.0855709, -0.107835, -0.305569, -0.217522, 0.030983, -0.159664, 0.491711, 0.031607, 0.191623, -0.367457, 0.0568835, -0.0909556, 0.0436478, -0.115212, -0.367696, 0.330325, -0.0192512, 0.0899747, -0.141649, 0.106911, 0.151438, 0.0447721,
	0.162721, -0.0389077, -0.0654981, -0.11144, -0.163731, -0.0359402, 0.0370204, -0.103071, 0.0960505, 0.131519, 0.0161612, -0.065657, -0.0216981, -0.245174, -0.270108, -0.0301431, 0.407123, 0.0214813, 0.0131833, -0.577048, 0.176811, -0.0149322, 0.048701, 0.0874148, 0.0883879, -0.0696955, -0.165491, 0.0583701, -0.0138956, 0.0874361, 0.0541044, 0.134172,
	-0.0110147, 0.0825193, -0.0386037, 0.019389, 0.0599988, 0.158219, -0.0937201, -0.149074, -0.251182, 0.0397643, -0.0174036, -0.00558147, 0.126264, -0.134091, 0.0579086, -0.0708276, 0.282175, 0.112242, 0.0514557, -0.366732, -0.201421, 0.0603164, 0.072542, -0.355871, 0.0325443, 0.0225838, -0.0925474, 0.124369, 0.0165105, -0.0378056, -0.0205969, 0.0062149,
	-0.13474, 0.00893161, 0.0811662, 0.000307856, -0.0650718, -0.115985, -0.0342393, -0.0288664, 0.09901, 0.0780611, -0.0216247, 0.0900858, -0.250466, 0.111774, 0.0963511, 0.0179663, -0.0943493, 0.0395158, -0.0826704, 0.0680836, 0.0843145, -0.0227719, -0.00667083, 0.0720852, 0.135776, 0.0295943, 0.00130693, -0.0360657, 0.100749, -0.0621267, 0.075487, 0.0351125,
	0.0125225, -0.0728458, -0.00615113, -0.0714469, 0.368806, 0.355583, 0.0435046, 0.356379, -0.430431, -0.219931, -0.176802, -0.17746, -0.306852, 0.376282, 0.162935, -0.258701, -0.479286, -0.345224, 0.155588, 0.25212, -0.0238171, -0.359046, 0.162672, 0.182934, -0.084714, 0.15595, 0.32968, 0.163684, -0.118747, 0.103946, -0.0297327, -0.106576,
	-0.0443115, -0.151857, 0.650209, -0.201358, -0.0273473, -0.184565, 0.417933, 0.239954, 0.0672369, 0.134489, -0.342592, 0.0603075, 0.0767582, 0.0247607, -0.764054, 0.00786199, 0.256884, -0.0738754, 0.20955, -0.136631, -0.303367, -0.89307, -0.149161, 0.463466, 0.0997863, -0.1919, 0.229577, -0.158193, 0.0950932, -1.00176, -0.392961, -0.826763,
	-0.210997, -0.253516, -0.131416, 0.0504, -0.117037, -0.0940674, 0.259011, 0.311001, 0.379197, -0.0213853, 0.0268113, -0.0316111, 0.00391669, 0.00198739, 0.24732, -0.0857494, -0.510199, -0.0961988, -0.0543967, 0.776682, 0.347413, 0.175452, 0.208013, 0.170595, 0.0731258, -0.0864564, -0.262657, -0.222332, 0.0988427, 0.0544952, 0.036399, 0.165025,
	-0.299006, 0.105571, -0.154092, 0.622275, -0.120636, -0.153396, -0.21501, -0.0833162, 0.107804, 0.121625, 0.0895602, 0.6676, -0.0890478, -0.0943162, 0.282017, 0.503799, 0.334988, 0.0381839, -0.232818, -0.390359, 0.000929098, 0.0764161, -0.0858733, -0.159407, 0.175039, -0.0363774, -0.125171, -0.0722128, 0.195384, 0.044521, 0.152552, 0.051904,
	0.44479, 0.477807, -0.224851, -0.0703122, -0.344625, -0.424677, -0.318995, -0.256948, 0.0411482, 0.251823, -0.0755892, -0.014976, 0.409559, -0.0590361, -0.105536, 0.196968, 0.0241111, 0.35781, -0.103784, -0.0970668, -0.150792, 0.237781, 0.103888, -0.199475, -0.0445756, -0.00980903, 0.147461, 0.0649688, -0.308196, 0.348385, 0.163103, 0.395345,
	-0.134834, -0.0707742, -0.0979199, 0.14521, -0.0584457, -0.0179171, -0.0438018, -0.120888, 0.0261327, -0.00697203, 0.0724049, 0.0779335, 0.184834, -0.0178362, 0.0560846, 0.101621, 0.0878377, 0.229321, -0.15251, -0.0663319, -0.0827648, -0.00166279, -0.111712, 0.0331398, 0.0688666, -0.0608335, -0.0698444, -0.027081, 0.0261659, -0.0191092, 0.0274686, -0.0666438,
	-0.422517, -0.159041, -0.208033, 0.766642, -0.0889621, -0.0571384, 0.181419, -0.0665177, 0.204968, -0.249519, 0.161057, 0.273313, -0.00431787, 0.143093, 0.121285, 0.271162, -0.14692, 0.0666903, -0.606873, 0.0545338, 0.179926, -0.205422, 0.222286, 0.242746, 0.210514, 0.0620342, -0.176673, -0.217187, 0.0428259, -0.16649, -0.0172859, 0.0136577,
	-0.163503, -0.0374461, -0.0957507, 0.060954, -0.00209415, 0.0177023, 0.0479211, 0.166086, -0.0505355, 0.0593352, -0.0535828, 0.33948, -0.0674613, 0.00957782, 0.0545355, 0.15695, -0.0255959, 0.553459, -0.0769468, -0.111708, -0.101241, -0.12134, 0.237486, 0.0227908, 0.34374, -0.49596, -0.053492, -0.226892, 0.313947, 0.0703916, -0.172335, -0.392195,
	0.0864693, 0.00974174, 0.340161, -0.0872193, -0.0345218, -0.0641289, -0.00138745, 0.046871, -0.0005828, -0.179707, -0.0899547, -0.0818313, 0.108784, 0.0509834, -0.033139, -0.187264, 0.00850956, 0.173683, 0.1075, 9.07263e-05, 0.0132066, 0.0562707, 0.0352233, 0.0603219, -0.0425218, 0.119586, 0.0502826, -0.062761, -0.08264, 0.0653108, -0.0498394, 0.0275052,
	0.406527, 0.130729, 0.0300525, 0.0392132, 0.0526504, -0.119498, -0.209711, 0.172917, 0.400248, 0.247282, -0.102053, -0.0968447, 0.249623, 0.248437, -0.120063, 0.165, -0.0619256, -0.154479, -0.0991171, 0.160121, 0.232406, -0.0104342, -0.0760064, -0.300035, -0.349934, 0.214149, 0.14353, 0.176826, -0.103502, 0.450647, 0.332767, 0.811317,
	-0.0687281, -0.0614778, -0.00605674, -0.0807001, 0.190786, 0.380565, -0.0493832, 0.320219, 0.00248157, -0.1878, -0.0317623, -0.281787, -0.13537, 0.299356, -0.0101545, -0.225562, -0.261014, -0.192056, 0.0781643, 0.35264, 0.0491278, -0.216302, 0.223072, 0.0762119, -0.264997, 0.0921452, 0.0976935, 0.0373811, -0.120482, 0.00224399, -0.0655345, -0.138146,
	-0.135488, 0.0488919, -0.280748, 0.306703, -0.0125034, -0.245053, -0.200706, -0.0771915, 0.135977, 0.0583934, 0.0331058, 0.228574, 0.0173848, -0.238561, 0.406924, 0.143575, 0.340805, -0.175768, -0.292732, -0.265213, -0.094624, 0.150398, -0.237619, -0.132667, 0.115108, -0.19254, -0.14638, -0.498889, 0.442362, 0.0198334, 0.163292, 0.0552389,
	0.00543037, -0.0098095, -0.0249175, -0.12445, -0.0390874, -0.287068, -0.180174, -0.110371, 0.1128, 0.0725073, -0.194404, 0.132074, -0.0784199, 0.010566, 0.0670967, 0.0527438, 0.0297495, 0.173031, -0.12352, -0.141505, 0.0293595, 0.00173168, -0.0326259, 0.206951, 0.0593266, -0.0447258, 0.0458058, -0.0588134, 0.0224464, 0.104489, 0.200174, -0.1912,
	0.172457, -0.105404, -0.152481, 0.0245105, 0.0171517, 0.204265, 0.106717, 0.0240264, -0.0975122, 0.127558, 0.0251171, -0.0331438, -0.0501528, -0.011991, -0.166952, -0.0647203, 0.0488543, -0.068245, -0.0201734, -0.165758, 0.209355, -0.159303, 0.223823, 0.402727, 0.0150219, 0.220751, -0.0812019, -0.0358343, -0.00368, 0.0908726, -0.00837556, 0.0853665,
	0.160132, -0.152006, -0.0566281, -0.00452599, 0.0393806, -0.0654081, 0.0525197, 0.0655105, -0.102561, -0.256601, -0.0321711, -0.027506, 0.0456181, -0.0716985, 0.0860095, -0.0193104, 0.0765169, 0.0190406, -0.109742, 0.128504, -0.00402738, -0.0359495, -0.0746472, -0.0528427, -0.0894538, 0.110386, 0.0880146, 0.00300164, -0.0974519, -0.0177126, 0.0717268, -0.109633,
	-0.0213234, 0.136178, -0.0319651, -0.0217144, -0.121431, 0.189038, 0.255625, -0.0377568, -0.0656165, 0.263552, 0.288357, -0.0327096, 0.0716468, -0.308303, 0.102341, -0.0731005, 0.23845, 0.089664, 0.287637, 0.152995, -0.0155864, -0.209769, 0.23645, 0.393296, -0.0998743, 0.117144, -0.345466, -0.232744, -0.267865, -0.0946707, 0.13486, 0.0203503,
	0.0228212, -0.0219936, 0.0818836, 0.0270735, -0.0910541, -0.0160651, -0.0214296, -0.0342908, 0.210223, 0.0266619, -0.00134046, -0.183188, -0.0327214, 0.0510226, -0.111241, -0.0435931, -0.0895869, -0.123718, -0.109506, -0.0320192, -0.00625077, 0.0475483, -0.108108, 0.136671, -0.123838, 0.100447, -0.142775, 0.142608, -0.0513389, 0.0787421, 0.114539, -0.00781471,
	0.00988986, -0.0444421, -0.107929, 0.0857469, 0.0479189, 0.238506, 0.0793167, 0.0947506, 0.246674, 0.112995, -0.00462549, -0.0890063, -0.0612885, -0.0345886, 0.00188624, -0.0396718, -0.0972188, -0.188727, -0.0298376, 0.0376826, 0.104029, -0.0109144, 0.0772558, 0.0777798, 0.0648671, 0.00899407, 0.0853784, -0.177497, 0.102318, 0.0672169, -0.0325511, 0.0739104,
	0.0295708, 0.0782249, 0.0669841, 0.106231, 0.165129, 0.0481403, -0.442241, -0.323117, -0.26306, 0.176561, 0.230275, -0.187082, -0.148541, 0.107097, 0.0554612, -0.0651665, -0.041069, -0.0725916, 0.0647889, 0.109098, -0.124956, 0.069126, -0.229416, -0.196049, -0.199488, 0.120115, 0.196665, 0.362488, -0.0777934, 0.140995, -0.122372, -0.0657049,
	0.00517295, 0.23492, 0.00850115, 0.0839999, -0.155108, -0.336066, -0.0261994, -0.341443, 0.107269, 0.0873519, 0.160852, 0.181693, -0.130693, -0.172792, 0.00763566, 0.114428, 0.181656, 0.1599, -0.168176, -0.175662, -0.0225877, 0.0488185, -0.132164, -0.160159, 0.145184, -0.112053, -0.103627, -0.101845, 0.0968931, -0.0742332, 0.0332035, 0.0479428,
	-0.0855926, 0.00844533, -0.141145, 0.0839218, 0.241717, -0.0396789, 0.107588, 0.170942, 0.361481, -0.0359906, 0.00922044, 0.11935, 0.20407, 0.34066, 0.135337, 0.310619, -0.262519, -0.103507, -0.0597907, 0.485429, 0.458708, 0.0933158, 0.052769, -0.0363223, -0.12229, 0.0385555, 0.240192, -0.0557123, 0.00956146, 0.0630355, 0.0384346, 0.241205,
	0.0858759, -0.121013, 0.152489, -0.171785, 0.0602905, 0.203173, -0.0198955, -0.0194126, 0.052529, 0.181677, -0.065601, -0.165268, 0.0518951, 0.00942381, -0.31968, -0.240942, -0.0466492, 0.021178, 0.274334, 0.0492066, 0.0268818, -0.123858, 0.0880399, 0.0779854, -0.106325, 0.0900894, 0.0755752, 0.154808, -0.185426, 0.0102244, 0.114136, 0.0385257,
	0.104738, 0.0457056, -0.0548379, -0.00866766, -0.0229878, 0.0221055, 0.173954, 0.0125241, -0.0807981, -0.109192, -0.00889371, -0.0802523, 0.0424473, 0.039936, -0.107271, 0.044224, -0.0575516, -0.240767, 0.0109394, 0.010548, -0.0334472, -0.023207, -0.0140665, 0.011438, -0.089612, -0.128303, 0.0202536, -0.0378634, 0.0107394, 0.0974972, 0.0727115, 0.181411,
	-0.0272977, -0.149469, 0.0131359, -0.0613942, 0.0279156, 0.0180118, 0.0036708, -0.0299447, 0.113964, 0.0123814, -0.0191321, 0.0266331, 0.0871943, -0.0679576, -0.148747, -0.0393934, -0.029746, 0.0601453, -0.0767101, -0.0392746, 0.0573157, 0.00866056, -0.0571284, -0.0903332, 0.0126173, 0.0101882, 0.000530672, -0.00617287, -0.0764282, -0.159532, 0.0298851, 0.117436,
