#pragma once
#ifndef NANONET_RAW_MODEL_H
#define NANONET_RAW_MODEL_H
#include <assert.h>
#include "util.h"
float __conv_raw_W[] = {
	-0.0531725, 0.0, 0.0, 0.0,
	-0.0859036, 0.0, 0.0, 0.0,
	0.330566, 0.0, 0.0, 0.0,
	0.0189059, 0.0, 0.0, 0.0,
	-0.0580832, 0.0, 0.0, 0.0,
	-0.504377, 0.0, 0.0, 0.0,
	0.649105, 0.0, 0.0, 0.0,
	0.292831, 0.0, 0.0, 0.0,
	-0.370716, 0.0, 0.0, 0.0,
	-0.0962503, 0.0, 0.0, 0.0,
	-0.0750733, 0.0, 0.0, 0.0,
	-0.365216, 0.0, 0.0, 0.0,
	0.0232082, 0.0, 0.0, 0.0,
	-0.431796, 0.0, 0.0, 0.0,
	0.0771477, 0.0, 0.0, 0.0,
	0.133894, 0.0, 0.0, 0.0,
	0.357002, 0.0, 0.0, 0.0,
	0.0787436, 0.0, 0.0, 0.0,
	0.11867, 0.0, 0.0, 0.0,
	0.0420647, 0.0, 0.0, 0.0,
	-0.107575, 0.0, 0.0, 0.0,
	0.038426, 0.0, 0.0, 0.0,
	-0.321167, 0.0, 0.0, 0.0,
	-0.167593, 0.0, 0.0, 0.0,
	0.0641612, 0.0, 0.0, 0.0,
	0.346399, 0.0, 0.0, 0.0,
	0.156581, 0.0, 0.0, 0.0,
	0.420517, 0.0, 0.0, 0.0,
	0.105674, 0.0, 0.0, 0.0,
	-0.0747428, 0.0, 0.0, 0.0,
	-0.00206969, 0.0, 0.0, 0.0,
	0.0100504, 0.0, 0.0, 0.0,
	-0.0178981, 0.0, 0.0, 0.0,
	-0.880301, 0.0, 0.0, 0.0,
	-1.16995, 0.0, 0.0, 0.0,
	0.107638, 0.0, 0.0, 0.0,
	0.279286, 0.0, 0.0, 0.0,
	0.838898, 0.0, 0.0, 0.0,
	0.610491, 0.0, 0.0, 0.0,
	0.102213, 0.0, 0.0, 0.0,
	0.0219571, 0.0, 0.0, 0.0,
	-0.00172875, 0.0, 0.0, 0.0,
	-0.00568051, 0.0, 0.0, 0.0,
	0.00040964, 0.0, 0.0, 0.0,
	0.0880162, 0.0, 0.0, 0.0,
	0.208965, 0.0, 0.0, 0.0,
	-0.282619, 0.0, 0.0, 0.0,
	0.16279, 0.0, 0.0, 0.0,
	-0.155912, 0.0, 0.0, 0.0,
	-0.474199, 0.0, 0.0, 0.0,
	0.499697, 0.0, 0.0, 0.0,
	0.158535, 0.0, 0.0, 0.0,
	-0.298456, 0.0, 0.0, 0.0,
	0.0840498, 0.0, 0.0, 0.0,
	-0.0200681, 0.0, 0.0, 0.0,
	-0.13766, 0.0, 0.0, 0.0,
	-0.377154, 0.0, 0.0, 0.0,
	-0.291977, 0.0, 0.0, 0.0,
	-0.464323, 0.0, 0.0, 0.0,
	0.288989, 0.0, 0.0, 0.0,
	0.433356, 0.0, 0.0, 0.0,
	0.143633, 0.0, 0.0, 0.0,
	0.105325, 0.0, 0.0, 0.0,
	-0.0600582, 0.0, 0.0, 0.0,
	-0.0590828, 0.0, 0.0, 0.0,
	0.0095199, 0.0, 0.0, 0.0,
	-0.135425, 0.0, 0.0, 0.0,
	-0.0268465, 0.0, 0.0, 0.0,
	0.253889, 0.0, 0.0, 0.0,
	0.213132, 0.0, 0.0, 0.0,
	-0.249821, 0.0, 0.0, 0.0,
	-0.321598, 0.0, 0.0, 0.0,
	0.255054, 0.0, 0.0, 0.0,
	-0.304237, 0.0, 0.0, 0.0,
	0.13562, 0.0, 0.0, 0.0,
	-0.0505734, 0.0, 0.0, 0.0,
	-0.059717, 0.0, 0.0, 0.0,
	-0.176185, 0.0, 0.0, 0.0,
	0.0471475, 0.0, 0.0, 0.0,
	0.0674565, 0.0, 0.0, 0.0,
	0.120644, 0.0, 0.0, 0.0,
	0.321803, 0.0, 0.0, 0.0,
	-0.0169154, 0.0, 0.0, 0.0,
	0.221158, 0.0, 0.0, 0.0,
	-0.12908, 0.0, 0.0, 0.0,
	0.080185, 0.0, 0.0, 0.0,
	0.0443613, 0.0, 0.0, 0.0,
	0.0273442, 0.0, 0.0, 0.0,
	0.328077, 0.0, 0.0, 0.0,
	0.0426907, 0.0, 0.0, 0.0,
	0.293415, 0.0, 0.0, 0.0,
	-0.2255, 0.0, 0.0, 0.0,
	-0.0978638, 0.0, 0.0, 0.0,
	0.037948, 0.0, 0.0, 0.0,
	-0.000984749, 0.0, 0.0, 0.0,
	0.139252, 0.0, 0.0, 0.0,
	0.00304259, 0.0, 0.0, 0.0,
	-0.00722721, 0.0, 0.0, 0.0,
	-0.00672157, 0.0, 0.0, 0.0,
	0.127236, 0.0, 0.0, 0.0,
	-0.12303, 0.0, 0.0, 0.0,
	0.410195, 0.0, 0.0, 0.0,
	-0.440623, 0.0, 0.0, 0.0,
	-0.346136, 0.0, 0.0, 0.0,
	0.299102, 0.0, 0.0, 0.0,
	0.396081, 0.0, 0.0, 0.0,
	-0.265263, 0.0, 0.0, 0.0,
	-0.188375, 0.0, 0.0, 0.0,
	0.122334, 0.0, 0.0, 0.0,
	0.0446093, 0.0, 0.0, 0.0,
	-0.0580795, 0.0, 0.0, 0.0,
	0.0122907, 0.0, 0.0, 0.0,
	0.0776497, 0.0, 0.0, 0.0,
	0.0203626, 0.0, 0.0, 0.0,
	0.300235, 0.0, 0.0, 0.0,
	0.491434, 0.0, 0.0, 0.0,
	0.154893, 0.0, 0.0, 0.0,
	-0.138992, 0.0, 0.0, 0.0,
	-0.705202, 0.0, 0.0, 0.0,
	-0.14511, 0.0, 0.0, 0.0,
	0.0170366, 0.0, 0.0, 0.0,
	-0.057949, 0.0, 0.0, 0.0,
	0.103695, 0.0, 0.0, 0.0,
	0.148185, 0.0, 0.0, 0.0,
	0.110408, 0.0, 0.0, 0.0,
	0.0173604, 0.0, 0.0, 0.0,
	-0.0440224, 0.0, 0.0, 0.0,
	-0.635749, 0.0, 0.0, 0.0,
	-0.0805961, 0.0, 0.0, 0.0,
	0.00912587, 0.0, 0.0, 0.0,
	0.0109507, 0.0, 0.0, 0.0,
	0.016684, 0.0, 0.0, 0.0,
	0.139291, 0.0, 0.0, 0.0,
	-0.344627, 0.0, 0.0, 0.0,
	-1.42161, 0.0, 0.0, 0.0,
	0.257218, 0.0, 0.0, 0.0,
	0.0294708, 0.0, 0.0, 0.0,
	1.02105, 0.0, 0.0, 0.0,
	0.45104, 0.0, 0.0, 0.0,
	-0.115822, 0.0, 0.0, 0.0,
	0.0550512, 0.0, 0.0, 0.0,
	-0.0398811, 0.0, 0.0, 0.0,
	-0.0252924, 0.0, 0.0, 0.0,
	0.0784403, 0.0, 0.0, 0.0,
	-0.00596558, 0.0, 0.0, 0.0,
	0.0935781, 0.0, 0.0, 0.0,
	0.166063, 0.0, 0.0, 0.0,
	-0.158154, 0.0, 0.0, 0.0,
	0.0858332, 0.0, 0.0, 0.0,
	0.159636, 0.0, 0.0, 0.0,
	0.24309, 0.0, 0.0, 0.0,
	7.54752e-05, 0.0, 0.0, 0.0,
	-0.0124251, 0.0, 0.0, 0.0,
	-6.87488e-05, 0.0, 0.0, 0.0,
	-0.0160389, 0.0, 0.0, 0.0,
	0.0935219, 0.0, 0.0, 0.0,
	0.34952, 0.0, 0.0, 0.0,
	-0.429403, 0.0, 0.0, 0.0,
	-0.26931, 0.0, 0.0, 0.0,
	0.323768, 0.0, 0.0, 0.0,
	-0.117289, 0.0, 0.0, 0.0,
	-0.0854839, 0.0, 0.0, 0.0,
	0.446828, 0.0, 0.0, 0.0,
	-0.188987, 0.0, 0.0, 0.0,
	-0.059257, 0.0, 0.0, 0.0,
	-0.16687, 0.0, 0.0, 0.0,
	0.0979964, 0.0, 0.0, 0.0,
	0.143139, 0.0, 0.0, 0.0,
	-0.569862, 0.0, 0.0, 0.0,
	0.275184, 0.0, 0.0, 0.0,
	0.180004, 0.0, 0.0, 0.0,
	0.185956, 0.0, 0.0, 0.0,
	-0.274935, 0.0, 0.0, 0.0,
	-0.100786, 0.0, 0.0, 0.0,
	0.105888, 0.0, 0.0, 0.0,
	-0.0561733, 0.0, 0.0, 0.0,
	0.0766026, 0.0, 0.0, 0.0,
	-0.223711, 0.0, 0.0, 0.0,
	0.269434, 0.0, 0.0, 0.0,
	-0.0616199, 0.0, 0.0, 0.0,
	0.399346, 0.0, 0.0, 0.0,
	-0.671276, 0.0, 0.0, 0.0,
	-0.779856, 0.0, 0.0, 0.0,
	0.624605, 0.0, 0.0, 0.0,
	0.0626361, 0.0, 0.0, 0.0,
	0.151091, 0.0, 0.0, 0.0,
	-0.015976, 0.0, 0.0, 0.0,
	-0.260838, 0.0, 0.0, 0.0,
	-0.245811, 0.0, 0.0, 0.0,
	0.22715, 0.0, 0.0, 0.0,
	0.111517, 0.0, 0.0, 0.0,
	-0.309999, 0.0, 0.0, 0.0,
	0.171292, 0.0, 0.0, 0.0,
	-0.0571606, 0.0, 0.0, 0.0,
	0.203587, 0.0, 0.0, 0.0,
	-0.00836833, 0.0, 0.0, 0.0,
	0.0495961, 0.0, 0.0, 0.0,
	-0.0910765, 0.0, 0.0, 0.0,
	0.243412, 0.0, 0.0, 0.0,
	0.0128151, 0.0, 0.0, 0.0,
	-0.0309868, 0.0, 0.0, 0.0,
	0.249448, 0.0, 0.0, 0.0,
	0.209961, 0.0, 0.0, 0.0,
	-0.0574166, 0.0, 0.0, 0.0,
	-0.661621, 0.0, 0.0, 0.0,
	0.0178477, 0.0, 0.0, 0.0,
	0.0487404, 0.0, 0.0, 0.0,
	-0.242525, 0.0, 0.0, 0.0,
	-0.00587767, 0.0, 0.0, 0.0,
	-0.00280109, 0.0, 0.0, 0.0,
	0.187834, 0.0, 0.0, 0.0,
	-0.106264, 0.0, 0.0, 0.0,
	0.0223346, 0.0, 0.0, 0.0,
	-0.178391, 0.0, 0.0, 0.0,
	0.692569, 0.0, 0.0, 0.0,
	-0.421325, 0.0, 0.0, 0.0,
	0.208304, 0.0, 0.0, 0.0,
	-0.18702, 0.0, 0.0, 0.0,
	0.0342814, 0.0, 0.0, 0.0,
	-0.0741901, 0.0, 0.0, 0.0,
	-0.00891242, 0.0, 0.0, 0.0,
	0.0964164, 0.0, 0.0, 0.0,
	0.0250959, 0.0, 0.0, 0.0,
	0.170996, 0.0, 0.0, 0.0,
	0.912274, 0.0, 0.0, 0.0,
	-0.367103, 0.0, 0.0, 0.0,
	-0.820155, 0.0, 0.0, 0.0,
	-0.434432, 0.0, 0.0, 0.0,
	-0.0807503, 0.0, 0.0, 0.0,
	0.153796, 0.0, 0.0, 0.0,
	0.139952, 0.0, 0.0, 0.0,
	0.043357, 0.0, 0.0, 0.0,
	0.0325027, 0.0, 0.0, 0.0,
	-0.062326, 0.0, 0.0, 0.0,
	0.437196, 0.0, 0.0, 0.0,
	-0.749336, 0.0, 0.0, 0.0,
	0.588357, 0.0, 0.0, 0.0,
	-0.153323, 0.0, 0.0, 0.0,
	-0.181717, 0.0, 0.0, 0.0,
	-0.0193597, 0.0, 0.0, 0.0,
	0.0479033, 0.0, 0.0, 0.0,
	0.0037593, 0.0, 0.0, 0.0,
	-0.148567, 0.0, 0.0, 0.0,
	-0.0913697, 0.0, 0.0, 0.0,
	0.0279621, 0.0, 0.0, 0.0,
	0.0427068, 0.0, 0.0, 0.0,
	0.377214, 0.0, 0.0, 0.0,
	0.210573, 0.0, 0.0, 0.0,
	0.312321, 0.0, 0.0, 0.0,
	-0.0906296, 0.0, 0.0, 0.0,
	-0.0216207, 0.0, 0.0, 0.0,
	-0.0169384, 0.0, 0.0, 0.0,
	0.000330952, 0.0, 0.0, 0.0,
	0.0516285, 0.0, 0.0, 0.0,
	0.276706, 0.0, 0.0, 0.0,
	0.0364786, 0.0, 0.0, 0.0,
	0.143925, 0.0, 0.0, 0.0,
	-0.605813, 0.0, 0.0, 0.0,
	-0.0697582, 0.0, 0.0, 0.0,
	-0.642084, 0.0, 0.0, 0.0,
	-0.0335499, 0.0, 0.0, 0.0,
	0.208588, 0.0, 0.0, 0.0,
	0.294927, 0.0, 0.0, 0.0,
	-0.0205921, 0.0, 0.0, 0.0,
	0.111258, 0.0, 0.0, 0.0,
	0.307755, 0.0, 0.0, 0.0,
	0.713194, 0.0, 0.0, 0.0,
	0.974681, 0.0, 0.0, 0.0,
	0.347137, 0.0, 0.0, 0.0,
	-0.111968, 0.0, 0.0, 0.0,
	-0.866664, 0.0, 0.0, 0.0,
	-0.886604, 0.0, 0.0, 0.0,
	-0.389781, 0.0, 0.0, 0.0,
	-0.0623383, 0.0, 0.0, 0.0,
	-0.060513, 0.0, 0.0, 0.0,
	-0.00115597, 0.0, 0.0, 0.0,
	-0.0233851, 0.0, 0.0, 0.0,
	-0.594385, 0.0, 0.0, 0.0,
	-0.0717285, 0.0, 0.0, 0.0,
	-0.0698583, 0.0, 0.0, 0.0,
	0.097018, 0.0, 0.0, 0.0,
	0.0790432, 0.0, 0.0, 0.0,
	0.0588688, 0.0, 0.0, 0.0,
	0.0254769, 0.0, 0.0, 0.0,
	-0.0538045, 0.0, 0.0, 0.0,
	0.0198189, 0.0, 0.0, 0.0,
	0.104964, 0.0, 0.0, 0.0,
	-0.162961, 0.0, 0.0, 0.0,
	-0.330112, 0.0, 0.0, 0.0,
	-0.223093, 0.0, 0.0, 0.0,
	0.213997, 0.0, 0.0, 0.0,
	0.924498, 0.0, 0.0, 0.0,
	-0.1559, 0.0, 0.0, 0.0,
	-0.228754, 0.0, 0.0, 0.0,
	0.00290397, 0.0, 0.0, 0.0,
	0.00146656, 0.0, 0.0, 0.0,
	-0.0164639, 0.0, 0.0, 0.0,
	-0.297094, 0.0, 0.0, 0.0,
	-0.0698394, 0.0, 0.0, 0.0,
	0.609195, 0.0, 0.0, 0.0,
	0.188583, 0.0, 0.0, 0.0,
	0.15935, 0.0, 0.0, 0.0,
	-0.201577, 0.0, 0.0, 0.0,
	-0.126066, 0.0, 0.0, 0.0,
	0.0498161, 0.0, 0.0, 0.0,
	-0.0131968, 0.0, 0.0, 0.0,
	0.0522204, 0.0, 0.0, 0.0,
	-0.020061, 0.0, 0.0, 0.0,
	0.204658, 0.0, 0.0, 0.0,
	0.0533697, 0.0, 0.0, 0.0,
	-0.128912, 0.0, 0.0, 0.0,
	-0.733313, 0.0, 0.0, 0.0,
	-0.0506056, 0.0, 0.0, 0.0,
	-0.0883057, 0.0, 0.0, 0.0,
	0.299243, 0.0, 0.0, 0.0,
	0.535922, 0.0, 0.0, 0.0,
	0.0651279, 0.0, 0.0, 0.0,
	-0.0342501, 0.0, 0.0, 0.0,
	-0.0255129, 0.0, 0.0, 0.0,
	0.0124407, 0.0, 0.0, 0.0,
	-0.0393872, 0.0, 0.0, 0.0,
	-0.154009, 0.0, 0.0, 0.0,
	-0.071989, 0.0, 0.0, 0.0,
	-0.875124, 0.0, 0.0, 0.0,
	0.367685, 0.0, 0.0, 0.0,
	0.2822, 0.0, 0.0, 0.0,
	0.0457717, 0.0, 0.0, 0.0,
	0.0408767, 0.0, 0.0, 0.0,
	0.012412, 0.0, 0.0, 0.0,
	0.00588347, 0.0, 0.0, 0.0,
	0.161911, 0.0, 0.0, 0.0,
	-0.0693466, 0.0, 0.0, 0.0,
	-0.344965, 0.0, 0.0, 0.0,
	0.230663, 0.0, 0.0, 0.0,
	0.354364, 0.0, 0.0, 0.0,
	-0.404806, 0.0, 0.0, 0.0,
	0.322613, 0.0, 0.0, 0.0,
	-0.308871, 0.0, 0.0, 0.0,
	0.280636, 0.0, 0.0, 0.0,
	0.0245313, 0.0, 0.0, 0.0,
	-0.0794099, 0.0, 0.0, 0.0,
	-0.236472, 0.0, 0.0, 0.0,
	0.12795, 0.0, 0.0, 0.0,
	0.132898, 0.0, 0.0, 0.0,
	0.506131, 0.0, 0.0, 0.0,
	-0.613561, 0.0, 0.0, 0.0,
	-0.184695, 0.0, 0.0, 0.0,
	0.485613, 0.0, 0.0, 0.0,
	-0.0624951, 0.0, 0.0, 0.0,
	0.097888, 0.0, 0.0, 0.0,
	-0.0644241, 0.0, 0.0, 0.0,
	0.0271871, 0.0, 0.0, 0.0};
_Mat _conv_raw_W = {
	.nr = 41,
	.nrq = 11,
	.nc = 32,
	.data.f = __conv_raw_W
};
const_scrappie_matrix conv_raw_W = &_conv_raw_W;

float __conv_raw_b[] = {
	-0.0512688, 0.0739253, -0.0688378, -0.189504, 0.0200948, -0.254156, 0.00687257, -0.48784, 0.493594, 4.71786e-05, 0.0019552, 0.927878, -0.0142919, -0.352546, -0.00149025, -0.0014755, 0.0999454, -0.0545517, 0.00875154, -0.0040916, 0.0121477, -0.00291373, 0.986105, 0.0582746, 0.11633, 0.664752, 0.119448, 0.603517, 0.189306, 0.108956, 0.0634207, 0.198242};
_Mat _conv_raw_b = {
	.nr = 32,
	.nrq = 8,
	.nc = 1,
	.data.f = __conv_raw_b
};
const_scrappie_matrix conv_raw_b = &_conv_raw_b;

const int conv_raw_stride = 5;
const size_t _conv_nfilter = 32;
const size_t _conv_winlen = 11;
float __gruF1_raw_iW[] = {
	-0.239266, -0.352907, 0.0232542, 0.0118997, -0.642964, -0.352947, 0.783042, 0.501747, -1.17024, 0.2869, 1.50362, -0.463068, 0.196883, 0.0563753, -0.184165, -0.534048, -0.437864, -0.599706, 0.707442, -0.493704, 0.739282, 0.352327, -0.948762, 0.124687, 0.463302, -1.40373, 0.509269, -0.296699, -1.11726, -0.515943, 0.502228, -1.33606,
	0.417942, 0.0352708, 0.557111, -0.346588, 0.847469, -0.504267, 0.585405, 0.88118, -0.798851, 0.112322, -0.585885, 0.221161, 0.487679, 1.04899, -0.275436, -1.28603, -0.984674, 0.308067, 0.91784, -0.224666, -0.026147, 1.33194, 0.0239968, 0.472187, 0.677244, -0.344751, -0.380892, 0.0382342, -0.127586, 0.142213, -0.261054, 0.892602,
	0.279771, -0.158696, 0.147078, -0.288563, 0.348563, -0.169841, 0.491069, -0.371579, 0.166014, 0.341052, -0.186358, 0.612621, 0.38688, 0.263009, -0.165954, -0.633119, 0.392602, -0.244295, -0.17051, 0.121451, -0.795761, 0.0859226, -0.57337, -0.247471, 0.0226096, 0.619766, 0.191194, 0.125611, -0.762923, -0.218976, -0.174529, -0.336657,
	-0.63442, -0.03311, 0.521473, -0.368702, -0.631844, -0.167554, 1.22696, 0.4235, -1.80924, 1.60257, 0.96525, -0.657433, 0.491691, -0.358675, 0.130386, 1.40483, -1.13052, -0.762045, 0.621522, -0.099353, 0.90634, 2.0676, -0.238689, 0.1556, -0.0482745, -0.4452, 0.527883, -0.736247, -0.839192, -0.65538, 0.148203, -0.534007,
	0.459857, -0.136328, 0.0342455, -0.113268, 0.120953, -0.0968534, 0.0400626, -0.0654502, 0.660567, 0.283645, -0.337969, -0.174494, -0.162897, 0.112029, -0.110439, -1.27337, -0.460874, 0.144668, 0.521185, 1.00074, -0.0906014, 0.0672865, -1.09673, -0.303525, 0.656404, 0.231702, -0.157748, 0.135648, 0.0381336, 1.3874, -0.030862, 0.569603,
	0.146988, 0.354005, -0.0740637, 0.074761, -0.194124, 0.0975775, -0.0739063, -0.408124, -0.702153, -0.266225, 0.288343, -0.335879, 0.100021, 0.00507022, 0.252594, 0.399405, -0.225043, 0.484306, 0.0752019, 0.0962972, -0.127118, -0.393198, -0.543857, -0.146872, 0.186494, 0.0551553, 0.228211, -0.294568, -0.10041, -0.28086, -0.630387, -0.0620217,
	-0.423519, 0.143405, -0.110247, -0.968746, -0.725666, -0.197785, 0.00107196, 1.13127, -0.92781, 0.445772, 0.775075, -0.0507236, 0.495198, 0.893553, -0.236573, -0.58084, -0.53155, 0.127533, -0.358602, -0.326454, 0.0173198, 0.761595, -0.30412, 0.584505, -0.457506, 0.929334, -0.0839227, 0.465457, 0.0688693, -0.297983, -0.168353, -0.168249,
	0.678501, 0.645221, 0.156327, 0.292267, -0.482787, -0.631607, 0.434285, -0.176155, -0.947645, -0.994446, -0.257004, 0.0811469, -0.218236, 0.40276, 0.0377738, 1.11131, 0.0762604, 0.845164, -0.263845, -0.284344, -0.202174, -0.207354, -0.15745, -0.127253, -0.107556, 0.0521804, 0.14836, 0.246134, -0.0559026, 0.124563, -1.54092, -0.030376,
	0.394793, 0.315216, -0.233454, 0.254615, -0.437261, 0.705811, -0.0711265, -0.0132892, -0.726884, -0.650485, 0.737371, -0.227415, 0.211106, 1.57081, 0.924549, 0.87737, 0.284781, 0.660797, 0.393387, -0.852294, 0.0622102, 0.243566, -0.170034, 0.692915, 0.803549, -0.155584, -0.694872, -0.145025, -0.255696, 0.3983, -0.742854, 0.172607,
	0.454008, 0.0233881, -0.21528, 0.449098, 0.0633234, 0.368876, -0.18465, 0.25173, -1.00298, -1.06189, -0.564189, -0.396624, -0.0405475, 0.612834, -0.433692, -0.261709, -0.193777, -0.033901, 0.253734, 0.277437, -0.122644, -0.364533, -0.379372, 0.329934, -0.101263, -0.344983, 0.283967, -0.458534, -0.800713, 1.12054, -0.0875847, -0.988465,
	0.626247, -0.085788, 0.701293, -0.350551, -0.199328, -0.396599, 0.601983, 1.36882, -0.814873, 0.432419, 0.739547, -0.755941, 0.0135014, 1.62157, 0.104143, 0.314355, -2.0886, -0.0950094, 0.648478, -0.733551, -0.348328, 0.0770397, -0.302081, 0.0185214, 0.643172, 0.335542, 0.172364, -0.710433, 0.386019, 0.593908, 0.854424, 0.643265,
	0.401948, -0.334962, -0.50504, 0.24537, -0.727697, 0.452002, -0.0198365, 0.424197, -0.148942, -0.243846, -0.58824, -0.486548, -0.111914, 0.506771, -0.186857, 0.0113451, 0.429725, 0.585956, 0.088179, -0.375344, 0.650165, -0.367662, -0.214705, 0.616218, -0.0379265, -0.704434, -0.636494, -0.188459, -0.280693, -1.15179, -0.864805, 0.248092,
	-0.207711, 0.461178, -0.212292, -0.167833, 0.212529, 0.743623, 0.631914, 0.43308, -0.115338, -0.717593, 0.115103, -0.325951, -1.0221, -0.0152425, -0.0809195, 0.455906, 0.18347, 0.00529861, -0.232525, 0.0429574, 0.0492128, -0.000242464, 0.463784, -0.629765, -0.420539, -0.479913, -0.324301, 0.148006, -0.533725, 0.0349266, 0.113332, -0.270197,
	0.0543421, 0.0216407, 0.304439, 0.383967, -0.706628, -0.167132, 0.0825858, 0.669182, -0.837381, 0.124169, -0.137527, 0.215931, -0.147027, 0.606784, 0.0552338, -0.199184, -0.297584, 0.428333, -0.0390039, -0.0265416, -0.160838, -0.231674, -0.357411, -0.241881, 0.101069, -0.79574, 0.121488, -0.525164, -0.277756, 0.00166488, -0.464324, -0.208487,
	0.615775, 0.565853, 0.246484, 0.274118, 0.902912, 0.472967, -1.03961, 0.0636194, -0.0340416, -0.674916, 0.355467, -0.306071, -0.365465, 1.31943, -1.32841, -0.678922, 1.08013, -0.266695, -0.00811253, 0.533619, 0.445547, -0.040895, 0.00645186, -0.00390955, -0.0224237, 0.197104, -0.374664, -0.0201136, 0.55844, 0.771694, -2.36676, -0.331051,
	0.817575, -0.145306, -0.713423, 0.575159, 0.758415, -0.119318, -0.172334, -0.078688, -0.297603, -0.701537, 0.0684062, -0.095553, -0.0347203, -0.174046, 0.062248, -0.316507, -0.519132, -0.300167, 0.87376, 0.0786562, 0.0981266, -0.214652, 0.525107, 0.258359, 0.279318, -0.323587, -0.430599, -0.131768, -0.12116, -0.923803, 1.42734, -0.0370504,
	0.114191, 0.711028, 0.131769, 0.461523, -0.308422, 0.178332, 0.312905, 0.614057, -0.661694, -0.33291, 0.17199, 0.276998, 0.0480131, 0.053114, -0.400901, 0.798962, 0.0890511, 0.454335, -0.340231, 0.0284221, 0.331482, 0.0761763, 0.426125, 0.141184, -0.220981, 0.316691, -0.0354838, 0.356204, 0.404259, 0.339294, -0.42488, 0.275996,
	0.312737, 0.0973426, 0.014832, 0.922614, -0.957456, 0.114008, 0.15967, -0.302207, -0.653198, 2.44644, 1.58472, -0.819306, 0.280703, 0.427142, 1.13344, -0.291919, 0.00971586, 0.811117, 0.453625, 0.210829, 0.147091, -0.0208386, -0.454472, -0.316641, 0.257758, -1.25893, 0.707353, -1.07534, -0.0214651, 0.0942282, -1.60445, -0.810045,
	0.148684, 0.251398, 0.519215, -0.2786, -0.896933, 0.193857, -0.21915, 0.0154161, -0.128952, 0.414489, 0.176776, 0.137248, 0.247759, 0.261364, 0.292085, 0.0809462, 0.325032, -0.033622, -0.155909, -0.0974175, -0.434967, 0.657598, -0.100591, -0.567926, -0.319319, -0.239174, 0.157389, 0.0250973, 0.0941651, 0.00198751, -1.07742, -0.806041,
	-0.417728, 1.22287, -0.101495, -0.388676, 0.368756, -1.20536, 0.359598, 0.388087, -0.928665, -0.145519, 0.303021, 0.632417, -0.227413, 0.536482, 0.270951, 0.414962, -0.289628, -0.71134, 0.144171, -0.195847, 0.34863, -0.516954, 0.26922, 0.297591, 0.468396, 0.0258972, -0.132832, 0.0600741, 0.804637, 0.388496, -0.522502, 0.880361,
	-0.153758, 0.10262, -0.0431458, -0.0449257, 0.11078, -0.0324808, 0.0145342, -0.0116508, 0.257317, -0.0107733, 0.0503811, -0.114635, -0.0825237, 0.0694498, -0.0530359, 0.103745, 0.0202795, 0.107282, 0.159634, -0.0463287, -0.0259589, 0.0307455, -0.144989, 0.0206984, -0.00651984, 0.495399, 0.0582202, 0.122224, -0.11586, 0.206278, 0.190416, 0.0418401,
	0.23527, 0.522664, 0.478039, -0.0864794, 0.399046, -0.618339, 0.125705, -0.77697, -0.105637, -0.903917, -0.259731, 0.210502, -0.531529, 0.253009, -0.331948, 0.627518, -0.916129, 0.0219462, 0.169311, 0.703339, 0.242197, -0.345506, 0.321695, 0.381732, -0.222504, 0.567237, -0.0961948, 0.465335, -0.463844, 0.443131, 0.154625, 0.789713,
	0.0984856, -0.10827, -0.368178, -0.655026, 0.403155, 0.00170481, -0.0962307, 0.0503768, -0.27466, -0.276947, -0.245774, -0.304798, -0.107717, -0.136526, 0.0424661, 0.598378, 0.0304436, 0.402091, -0.160817, 0.0729695, -0.135959, -0.0427085, -0.010667, -0.0578344, 0.264533, 0.0453355, 0.419004, 0.294846, -0.167026, 0.0677743, -0.206289, -0.102453,
	0.36474, 0.292021, -0.110344, 0.359952, -0.71576, 0.110202, 0.423663, 0.331967, -0.257771, -0.180509, 0.553269, -0.574976, -0.253567, 0.433994, 0.38097, 1.09792, -0.424153, 0.815056, -0.370814, -0.105023, 0.0855233, -0.625942, -0.169101, 0.132712, -0.51961, -0.480606, -0.0331079, -0.832298, -0.436637, -0.538643, -0.16589, -0.285127,
	0.718433, 0.336039, -0.246149, 0.78116, -0.593321, 0.636059, 0.111351, 0.0805889, -0.342793, 1.33943, 0.0753678, 0.227546, 0.348978, 0.533409, 0.729927, 0.463761, 0.723052, 0.844674, -0.17627, -0.523353, 0.754325, -0.0205847, 0.0756712, -0.0342927, -0.665902, -0.456932, 0.324841, -0.726929, -0.222046, -0.551785, -0.283444, 0.00517357,
	-0.0536166, 0.221542, 0.207157, -0.0171565, 0.24654, -0.202256, 0.0445545, 0.102437, -0.102881, -0.0715142, -0.166052, 0.575631, -0.0460522, 0.123319, -0.089848, -0.20028, 0.0508468, -0.273611, -0.210323, 0.0334366, 0.0235662, 0.305614, -0.166366, -0.239965, 9.74891e-05, 0.00554503, 0.118223, 0.210433, 0.262817, 0.0183941, 0.285662, -0.0389319,
	0.490861, -0.302273, -0.0736258, -0.0354343, 0.080654, -0.0781816, -0.507477, -0.198353, 0.301839, 0.0710745, -0.534598, 0.0227848, 0.310856, 0.176208, -0.0261014, -0.553107, -0.368017, -0.54502, 0.272849, 0.335038, 0.296144, -0.0624193, -0.12954, 0.00789775, 0.0466103, -0.527595, 0.379112, 0.377194, 0.348395, 0.285307, 0.451101, -0.0801184,
	0.740911, -0.691488, 0.687703, 0.130052, 0.221851, -0.159118, 1.8057, 0.854339, -0.99188, 1.44684, -0.270477, 0.754815, 0.26382, 0.4839, -0.226224, 1.40512, -0.189563, 0.0779852, -0.0609231, -0.671221, 0.0446866, 0.219291, 0.202622, 0.408219, -0.919172, -0.309387, 0.458089, 0.222489, -0.307564, 0.270772, 1.37467, -0.421386,
	0.715951, -0.411688, 0.30265, 0.0843812, -0.338338, -0.0769721, -0.553202, 1.22686, -0.037591, -0.241744, -0.511455, -0.939595, -0.0138055, 1.90546, 0.305112, -0.462229, -0.687899, -0.334557, 0.514754, 0.305282, 0.238279, 0.0954359, -0.787265, 0.0979703, 0.161003, -0.498493, 0.130762, -0.2068, -0.0768168, 0.484862, -0.303797, -0.242396,
	0.0979489, 0.0105822, -0.402952, -0.00296227, 0.151088, 0.0330256, 0.09969, -0.325738, 0.261278, -0.0901888, -0.00979008, 0.686098, 0.11432, 0.0118843, 0.0104212, 0.0758886, -0.175103, -0.137617, 0.0241909, -0.183133, -0.0333624, -0.00839698, -0.228599, 0.0182755, 0.0719037, -0.0678992, -0.0685315, 0.0226117, 0.211677, 0.0402914, 0.0702281, -0.241,
	0.206741, 0.306563, -0.422614, -0.790336, 0.228936, 0.346266, -0.691032, -0.312993, 0.332431, 0.766598, 0.341729, 0.205115, -0.254202, 0.361376, 1.33043, -0.559565, -0.26103, -0.230883, -0.186607, 0.681185, 0.798781, -0.0629411, -0.376551, 0.0922931, 0.126473, -0.121232, -0.119619, 0.228955, -0.18174, -0.809721, 0.386685, 0.34372,
	-0.336879, 0.397774, 0.676188, 0.631433, 0.307172, -0.0293162, -0.222703, 0.412047, -1.38424, -0.352846, -0.93125, 1.18575, 0.639801, -0.614888, -0.887939, 0.0717029, 0.50639, -1.30576, -0.403696, -0.861048, -0.606941, -0.340014, 0.0630883, 0.19706, -0.398494, 0.0197888, 0.972791, 0.0801999, 0.558836, -0.00398811, 0.507533, -1.3239,
	-0.073094, 0.321581, -0.274625, 0.588617, 0.432291, -0.27426, -0.188565, 0.455883, -0.370548, -0.714047, -0.00342376, -0.489453, 0.0632616, 1.17788, 0.30381, -0.244431, -0.322593, 0.305053, -0.0450607, -0.063489, 0.523707, 0.916092, -0.704289, 0.283764, 0.605005, 0.368026, -0.454164, -0.324501, 0.157693, 0.0552534, 0.0988299, -0.426489,
	0.368123, 0.0976345, 0.31026, 0.00652934, -0.149258, 0.00627896, 0.238256, 0.781389, -0.12597, -0.552348, -0.573341, -0.271682, 0.167839, 0.319025, -0.409605, 0.272891, -0.307551, 0.133964, -0.186504, 0.370813, -0.0859298, 0.409461, -0.00783657, 0.00168929, -0.0824609, -0.341339, -0.00587884, -0.0519393, 0.0822546, -0.677633, -0.254389, 0.0768004,
	0.210508, 0.0396555, 0.0675482, 0.198032, -0.0106471, -0.777501, 0.220577, 0.714566, -0.2671, -0.435575, -0.630579, 0.655309, 0.270863, 0.71688, -0.649357, -0.467776, -0.489369, -0.953747, -0.01481, -0.0280523, -0.0745849, 0.866436, -0.463929, -0.360153, 0.120711, 0.407326, -0.128902, 0.116343, -0.302359, 0.301708, -0.026988, -0.460276,
	0.241913, -0.128634, 0.180762, 0.78683, 0.113099, -0.134496, 0.0406546, -0.581156, -0.787951, -0.148497, 0.298038, -0.289153, 0.045762, 0.0838597, 0.413134, -1.11601, 0.218708, -0.112592, 0.540796, -0.647184, 0.259784, -0.921212, -0.133501, 0.19654, 0.460949, -0.484764, -0.191956, -0.183074, -0.244634, -0.0306985, -0.0795755, -0.613109,
	-0.418912, -0.171869, -0.0442603, -0.0453669, -0.603201, 0.152491, -0.375407, -0.0254299, -0.381511, -0.97831, 0.219026, 0.0504526, -0.0766876, 0.210166, -0.89031, -1.26438, 0.869376, -0.252104, 0.580182, 0.0183435, 0.651391, 0.336594, -0.68897, 0.354845, 0.147897, -1.20282, -0.0110977, 0.539473, -1.01968, 0.49785, -0.642506, -0.729406,
	0.384171, 1.13361, -0.0221678, 0.637291, 0.631741, 0.17673, -0.374217, 0.336346, -1.15725, -1.55869, 0.194026, 0.28158, -0.223787, -0.564097, -0.719844, 0.428282, 0.702, -0.438023, -0.341142, -0.474691, 0.373089, -0.603756, 0.56392, -0.350595, 0.408863, -0.760258, 0.179107, -1.21634, 0.412663, -0.489465, 0.955248, -1.31482,
	0.166886, -0.381845, -0.264343, -0.948345, -0.193315, -0.181636, 0.0689567, -0.158881, -0.552607, -0.411748, -0.0310258, -0.414926, -0.141181, 0.573759, -0.130242, 0.377579, -0.952181, 0.0390856, 0.350339, 0.0821092, 0.292134, -0.192126, 0.1301, 0.623409, 0.865575, -0.134121, 0.0845076, 0.240814, -0.0620437, -0.265772, 0.125354, -0.0779877,
	-0.0427749, 0.472421, -0.121584, 0.806809, 0.17434, 0.237732, 0.0265889, -0.308829, -0.0654577, -0.633014, -0.271898, 0.0727218, 0.541944, -0.0940624, 0.119298, 0.250972, -0.0655094, 0.236811, -0.489243, -0.200198, -0.226712, 0.183732, 0.0183139, 0.0223606, -0.175913, -0.08759, -0.155996, 0.0184476, -0.28006, -0.432788, -0.416216, -0.112998,
	0.198268, 0.137097, 0.171915, 0.0132783, -0.399711, -0.175378, -0.183451, 0.188762, -1.46879, -0.242032, -0.0307803, -1.49302, -0.135676, 0.212818, -0.0642522, 0.132854, -0.318959, 0.484077, -0.127202, -0.112698, 0.0456791, -0.0618543, 0.0788806, -0.132081, 0.298954, -0.302611, -0.127735, -0.4771, -0.422671, 0.104091, -0.67947, -0.430211,
	0.630627, -0.0427029, 0.0354595, 0.470512, -0.965221, -1.04945, 0.1096, 0.581612, -0.116246, -0.855742, -1.20442, 0.013601, 0.261164, 0.30897, -0.0752272, -1.13802, 0.0317389, -0.347513, -0.38059, -0.466428, 0.793529, 0.772085, -0.425393, 0.296649, -0.599445, -0.491291, 0.768359, -0.113788, 0.32214, 0.979921, -0.282211, -0.672183,
	0.0880877, 0.701623, 0.0179516, -0.0588076, 0.0284372, -0.351304, 0.235112, -0.187634, 0.316427, 0.384907, -0.0792788, 0.16633, -0.0424257, -0.388379, 0.0589168, 0.117291, 0.203053, -0.272621, 0.0201554, 0.213079, 0.172669, -0.186381, 0.113492, -0.0552249, -0.026819, 0.550586, 0.114919, 0.348254, 0.137506, 0.25206, -0.0741253, 0.0712838,
	1.47504, 0.270655, -0.631412, 0.883266, 0.455855, 0.137868, -0.6477, -0.11893, 0.485131, -0.278799, -1.10833, -0.113412, 0.596442, 0.213251, -0.347635, -0.128672, 1.65888, 0.316188, 0.284235, 1.46031, -1.51835, -0.0454925, -0.141149, 0.276898, -0.304266, -0.714478, 0.242193, -1.38023, 0.134888, 0.0728118, -2.49726, -0.0132884,
	0.594734, 0.386481, -0.812833, -0.156069, -0.0681852, -0.142961, 0.0321419, -0.406193, 0.250355, 0.808108, -0.0753401, -0.208456, -0.126728, 0.566087, -0.10635, -0.128217, -0.0695404, 0.967757, 0.444975, -0.152838, 0.308657, -0.902029, 0.400838, 0.263589, 0.558508, 0.289381, 0.412382, -0.658113, -0.103063, 0.547746, 0.508587, -0.556569,
	0.99378, 0.267834, 0.337689, 0.177557, -0.57265, -0.286504, 0.302719, 0.305524, -1.0749, 1.96748, -0.315867, 0.497939, -1.1984, 0.502897, 0.549216, 0.848776, -1.0572, -0.987204, 0.160695, -1.67877, -0.0882596, 0.0963128, -0.517068, -1.39744, 0.780327, 0.424517, 1.07708, 0.484516, 0.881929, 0.335272, 0.134918, -0.253761,
	-0.0562892, -0.152079, -0.171129, 0.623997, 0.444087, -1.0091, -0.177198, -0.0858181, 0.273641, 0.347811, 0.0925353, -0.196403, -0.729403, 0.117051, 0.43203, -0.315625, -0.0692287, -0.581095, 0.097285, 0.406778, -0.355652, 0.227106, -0.586296, -0.260771, 0.134195, -0.364991, -0.15491, -0.0623277, -0.323819, -0.135088, 0.274377, 0.0257348,
	-0.146488, 0.249047, -0.0293417, 0.792797, 0.567552, -0.304412, -0.152435, 0.26457, -0.339372, -0.702852, 0.49992, -0.50362, 0.325525, 0.22053, 0.222504, 0.351762, 0.259629, -0.0695289, 0.0994372, -0.301857, 0.359097, -0.762727, -0.00491411, 0.524153, 0.00308357, 0.0990066, -0.186788, 0.382412, -0.432073, -0.459892, -0.0762203, -0.228021,
	-0.55747, 0.566826, -0.270296, 0.0563157, 1.06338, -0.156422, 0.841709, -0.411052, -0.94636, -0.267934, -0.257264, -0.1852, 0.83499, 0.821163, -0.381311, -0.83901, 0.298029, -0.0560288, 0.372669, 0.133625, 0.0962009, -0.047254, 0.777624, 0.653173, -0.227399, -0.314703, -0.00803407, 0.0428475, -0.380841, 0.105884, -0.0286091, -0.343466,
	0.318422, 0.36519, -0.288129, 0.622684, -0.383609, 1.18999, 0.532646, -0.0446726, -1.15906, 0.000819531, 0.00815614, -0.579996, 0.261391, 0.0490377, 0.000852884, 0.519039, 0.430965, 1.18119, -0.0203158, -0.306601, 0.426486, -0.120756, 0.0816724, 0.401621, -0.330717, -0.274772, -0.278322, -0.555956, -0.0475011, 0.293594, -0.626276, -0.893575,
	0.192621, 0.003621, 0.143891, -0.0507089, -0.926186, -0.0545974, -1.2377, 0.803693, -0.393637, -0.556174, 0.748503, -0.711053, -0.606988, 1.03959, 0.179447, -0.850198, -0.601569, 0.0537734, -0.696482, 0.548864, -0.551432, -1.06632, -0.402125, -0.158484, -0.313179, -2.07267, 0.229325, -0.36925, -1.28206, -0.384092, 0.18113, -0.153065,
	-0.42841, 0.0311277, -0.808281, -0.533443, 0.847356, 0.383254, 0.0604071, -0.115484, -0.124715, 0.65853, 0.611276, 0.0594673, 0.422366, -0.00477862, 0.714381, -0.464349, 0.136141, -0.426314, 0.303782, -0.468997, 0.195223, -0.0351047, -0.857686, 0.354938, 0.118052, -0.0529118, -0.0044894, -0.262067, 0.30903, 0.271662, -0.0687263, -0.366625,
	0.260352, -0.247838, -0.548436, -0.314981, 0.208746, -0.257147, 0.336363, 0.404736, -0.00619142, -0.066117, -0.318402, -0.0953815, 0.179126, 0.366778, -0.0208995, -0.189392, -0.073414, -0.656823, 0.316793, 0.0840232, -0.329415, 0.233608, -0.280881, 0.144962, 0.181154, -0.509326, 0.018665, 0.06565, -0.111031, -0.0917803, -0.12137, -0.442018,
	-0.233984, -1.20832, -0.536167, 1.05331, -0.0833168, 0.659446, 0.800501, -1.09403, 0.133549, 0.737247, -0.483114, -1.28138, 0.337257, 0.14427, -0.00285239, -1.05654, -0.471797, -0.63554, -0.620045, -0.218247, -0.529058, -0.862827, -2.39786, -0.262741, -0.426856, -0.0646173, 0.417256, -1.94041, -0.471047, -0.527709, -0.254151, -1.44923,
	0.532796, 0.283837, -0.0351964, 0.380759, -0.237435, 0.513452, -0.199821, 0.88636, 0.16359, -0.96524, 0.00567136, -0.430333, -0.0615469, 0.979589, -0.267296, 0.685158, -0.587198, -0.0408557, 0.522372, -0.472732, 0.692943, -0.207182, -0.610724, -0.911732, -0.0313601, -0.876708, 0.839742, 0.484879, 0.631863, -0.801688, 0.77999, -0.393653,
	0.663731, 0.0499605, -0.121872, -0.142015, -1.0073, -0.555289, 0.0707616, 0.312838, -0.126891, 0.578357, 0.013966, -0.364277, 0.0736388, 0.743513, 0.81024, 0.448929, -0.380707, -0.108072, -0.0910543, 0.120551, -0.402546, -0.395967, -1.09714, 0.44465, 0.396899, -0.092114, 0.347599, 0.286427, -0.426942, -0.741807, -1.04213, -0.42159,
	-0.0344626, -0.401497, 0.129971, -0.407059, -0.304632, 0.496376, -0.799061, -0.104232, -0.761995, -0.0906552, -0.130316, -0.282786, -0.354041, -0.297687, -0.931151, -0.826057, -0.373851, -0.113462, 0.466345, -0.257993, 0.412018, -0.554881, -0.190792, 0.165404, 0.47492, -0.105479, 1.42743, -1.10528, 1.32575, 1.0337, 0.961415, -0.214901,
	0.220161, -0.174644, 0.0375754, 0.604016, -0.557469, 1.13385, 0.267806, 1.0727, -0.444866, 0.0771838, -0.0775624, -0.81353, -0.00589872, 1.00821, -0.19847, -0.425443, -0.167725, 0.1863, 0.292878, -0.356534, 0.777065, -0.145853, -0.65188, -0.0372083, -0.248684, -0.395874, -0.484368, -0.295545, -0.457535, 0.378926, -0.929088, -0.945046,
	-0.15045, -0.389428, -0.82741, 0.135849, 0.485938, 0.704716, -0.144356, -0.643079, -0.64828, 0.621795, -0.457125, -0.834743, 0.0952867, 0.38299, 0.717539, 0.948302, 0.234884, 0.317053, -0.10678, -0.108042, -0.245202, -0.990033, -2.0692, -0.760364, -0.490677, -0.282923, -0.318709, -1.95213, -0.456732, 0.417462, -1.83229, -1.67857,
	-0.25707, -0.534211, 0.265818, -0.609191, -1.22744, -0.655735, 1.50348, 1.5744, -1.05011, 1.4311, 0.083771, -1.21539, -0.184851, 1.16807, 0.0345068, 0.456715, -0.549875, -0.295826, 0.155376, -0.369197, -0.131701, -0.99894, -1.2308, 0.898747, 0.239353, 0.0791483, 0.433127, -0.778798, 0.0540958, -0.435831, 0.0918919, -0.375628,
	0.283125, 0.12042, -0.394275, -0.249302, 0.0249145, -0.0922365, -0.174397, 0.0678665, -0.157245, -0.0968966, 0.0472941, -0.242894, -0.228071, 0.67308, 0.125893, -0.726322, -0.105397, -0.0173275, -0.243308, -0.610796, 0.419254, 0.44521, -0.226773, -0.00151968, 0.164807, -0.682847, 0.644336, -0.350437, 0.46915, 0.326587, -0.236435, 0.00595519,
	0.506055, -0.0405713, -1.17392, 0.755056, 0.00991263, 0.130668, -0.717683, 0.658581, -0.898682, -0.348864, -0.279588, 0.162438, -0.622412, 0.628788, 0.361197, 1.07128, -0.163369, -0.254906, 0.315459, -0.545476, 0.286588, 0.294604, -0.623461, -0.235024, 0.42282, 0.472489, -0.190678, 0.239931, 0.53126, -0.2296, -0.55955, -0.455395,
	0.441051, 0.0669415, -0.280271, 0.447467, 0.122834, 0.581288, 0.761595, -0.177343, -0.535374, -0.56982, -0.241648, -0.307326, 0.228665, 0.0864457, -0.133709, 0.185507, -0.21735, 0.516853, 0.0705787, 0.0512568, 0.288802, 0.176738, -0.0136237, 0.397051, -0.0870835, 0.172972, -0.341662, -0.72204, -0.245103, 1.06947, -0.260525, -0.767985,
	0.419047, -0.263197, 0.0628995, -0.0324148, -0.436529, -0.0991026, 0.417229, 0.0239401, 0.0894075, -0.323691, 0.157685, -0.0674023, 0.181908, 0.626943, -0.0997631, -0.946665, -0.463244, 0.152566, 0.371561, 0.0264866, 0.254421, 0.629835, -0.252482, 0.0960151, -0.0514029, 0.0446848, -0.0500351, -0.413824, -0.0599051, -0.411675, -0.209873, 0.0111473,
	0.0688446, -0.643298, -0.315044, 0.0265388, -0.324501, -0.10487, -0.426073, 0.336706, 0.219118, 2.18563, 0.633277, -0.336495, -1.16759, 0.226188, 0.6657, 2.34888, 0.00318399, -0.182608, -0.390904, -0.0952965, 0.489039, -0.97566, -0.31024, -0.25107, -0.229107, 0.154508, 0.375055, -0.272505, 1.60275, 0.593149, -1.30593, -1.2337,
	-0.247002, 0.290109, -0.367945, 0.100061, -0.478429, -0.0188382, 0.320277, 0.907097, -1.00118, -1.44053, 0.638792, 0.0699559, -0.0141725, 0.0546545, -1.09038, 0.309452, -0.0626978, 0.39652, -0.297712, -0.457044, 0.0924021, 0.246539, -0.469064, 0.146616, -0.0504681, -0.422363, 0.567688, 0.495339, -0.603344, 1.09843, 0.378338, -0.244385,
	0.0748401, 0.4598, 0.621089, 0.238508, -1.26052, 0.310112, -0.0312521, 0.772156, -0.506024, 0.140559, -0.0629438, -0.134693, 0.65716, 0.205099, -0.789803, 0.87536, -0.19064, 0.343021, -0.800484, -0.163455, -0.724278, 0.17184, 0.150285, -0.436311, -0.584607, 0.171452, 0.590819, -0.136052, 0.495957, -0.471579, -0.346749, -0.436192,
	0.38026, 0.286388, -0.316111, 0.38424, -0.138864, 0.291081, -0.404553, 1.00085, -0.0638782, -0.147041, 0.810125, 0.000624738, 1.18431, 1.85481, 0.154889, -0.691725, 0.50914, 0.324803, -0.00579955, 0.704616, -0.690079, 0.430211, -0.75357, 0.216294, 0.313014, -1.26212, -0.498497, -0.21996, 0.636671, -0.268062, -0.619269, -0.332569,
	-0.168415, 0.348264, 1.0324, -0.614991, 0.312732, -0.0846929, 0.122018, -0.508194, -0.828395, -0.956602, -0.155511, 0.0282568, -0.448882, 0.258432, -0.987691, -0.537889, -0.898352, 0.306039, 0.327908, -0.728909, 0.225455, 0.562295, 0.840569, 0.113214, -0.256902, 0.248804, 0.782532, -0.099812, -0.00199522, -0.010815, 0.0262541, -0.112924,
	0.540358, -0.331562, -0.0355152, -0.307432, -0.924268, 0.140252, -0.136176, 0.160633, -0.299052, -1.55089, 0.24656, -0.48319, 0.037666, 0.0790266, 0.173858, -0.0410538, 0.384893, 0.529522, -0.0314003, 0.204511, 0.13284, -1.45729, -0.246453, 0.369117, -0.0806396, -0.526506, 0.0696529, 0.0891995, -1.44634, -0.353528, -0.441899, -1.40574,
	-0.169248, 0.129889, 0.205948, -0.192507, -0.00418548, 0.140828, 0.23336, -0.0139198, 0.0315666, 0.037303, -0.119395, 0.286292, 0.0485637, 0.0199723, -0.395517, -0.0661597, 0.0946011, 0.127407, 0.100514, -0.0164581, -0.110726, -0.111054, -0.0357576, -0.00604829, 0.23685, 0.371688, -0.010075, -0.252849, 0.111393, 0.127879, 0.131571, 0.0431576,
	0.183497, -0.630544, 0.428849, -0.147332, -1.66302, 0.22374, -0.390283, -0.15556, -0.689493, 0.389999, 0.0546897, -0.494417, -0.287391, 0.373771, -0.0558031, -1.17066, -1.0589, 0.69195, -0.334967, 0.248547, 0.177046, -0.353217, -0.676768, 0.0909216, 0.156605, -0.200385, -0.0340123, -0.560143, -0.795319, 1.13435, -0.226172, 0.160289,
	0.224635, -0.38704, 1.23901, 0.260478, -0.635436, 0.960483, 0.336738, 0.250978, -0.305659, 0.375595, 0.0885426, -0.0926995, 0.548192, 0.320976, 0.0417459, -0.341932, 1.45668, 1.09141, 0.137127, -0.564827, -0.159308, 0.957458, 0.0597907, -0.388418, 0.327319, 0.277742, 0.843848, 0.479745, 0.125254, 1.02102, 0.15587, -0.94361,
	0.203975, 0.325945, -0.00268511, 0.400782, -0.126407, 0.0219477, 0.299596, 0.744214, 0.288709, -0.166401, -0.185088, 0.0346381, -0.556874, 0.0166021, -0.0395012, -0.160238, 0.013265, 0.574945, -0.190634, -0.290324, 0.177232, 0.352555, -0.116817, -0.0557512, 0.191892, -0.151766, -0.0883793, 0.776848, -0.0288115, 0.167569, -0.580389, -0.100573,
	-0.756493, 1.00904, -0.466407, 0.638863, 0.153754, 1.1845, 0.561815, -0.402711, -1.45348, -1.17616, 0.173892, -1.34159, 0.156776, 0.071057, 0.204815, 0.829069, -0.778743, 0.81639, -0.0865532, 0.274961, 0.57666, 0.188836, -0.351326, 0.488246, -0.510025, 0.200162, -1.17135, -3.11528, -0.164541, 0.0651181, -0.257039, -0.443965,
	-0.179588, -0.18309, 0.235366, -0.069265, 0.0991121, 0.59704, -0.164048, -0.071731, -0.809093, -0.264721, 0.406704, -0.314707, -0.142735, -0.41636, -0.718294, 0.687075, -0.0316785, 0.550043, -0.426428, -1.60538, 0.415344, 0.00980118, 0.249632, -0.201104, -0.292774, 0.372816, -0.400312, -0.0778816, -0.168905, 0.65591, -0.744085, -0.151182,
	0.706999, -0.0772262, 0.492559, 0.152217, 0.0484104, -0.0512757, -0.0455802, 0.299565, -0.461033, -1.46676, -0.477082, -0.416989, 0.0164351, 0.864848, 0.992977, -0.367798, -0.322593, 0.412017, 0.609164, -0.426465, -0.102793, -0.973281, -0.286429, -0.0497841, 0.321552, -0.651312, -0.123654, -0.235401, -0.737396, 0.290318, 0.348767, -0.26589,
	-0.0634405, -0.410055, 0.408123, -0.163792, 0.251439, -1.21468, -0.437554, -0.135413, -0.588099, -0.552826, -0.969461, -0.255001, 0.0614144, 0.845583, 0.0977103, -0.897287, 0.529017, -0.382604, 0.145352, -0.383641, 0.122356, -0.131619, -0.782082, 0.34377, -0.0249247, 0.0029004, 0.0527479, 0.769451, -0.0441955, 0.69641, -0.886608, -0.72195,
	0.168895, 0.171452, 0.648468, -0.108013, -0.841069, -0.115897, -0.336146, -0.179581, -0.530679, 0.281173, -0.154175, -0.0406521, -0.063594, -0.457031, -0.25861, -0.0520474, -0.229894, 0.111509, -0.288509, 0.14832, -0.145, -0.567247, 0.755601, 0.0745927, 0.138061, 0.149308, -0.0355657, -0.0129151, 0.145669, 0.0268024, 0.00152962, -0.130452,
	1.01832, -0.493816, 0.114185, 0.0510062, -1.13425, -0.351933, 0.715765, 0.766013, 0.429146, 1.12929, 0.887658, -0.377366, -0.52252, 1.28944, 0.030216, -0.305394, 0.223117, -0.411918, 0.207271, 0.103837, 0.31696, 0.485005, -0.499636, -0.242801, -0.476091, -4.15084, -0.39223, -0.124644, -0.0336305, -0.848626, -1.27012, 0.0096328,
	0.442966, -0.0696324, 0.354112, -0.237368, -1.26758, -0.294218, 0.272537, 0.48487, -1.11437, 0.505368, -0.881331, -0.686765, 0.801856, 1.08023, 0.168469, -1.1842, -0.0835957, 0.432471, 0.627575, -0.0963586, 0.164234, -1.25072, -0.173263, 0.355448, 0.596802, -0.181425, 0.630969, 0.0620572, -0.474177, 0.0155479, 0.500174, -0.180548,
	0.117078, 0.75118, 0.591906, -0.0720365, -0.675122, -0.253556, 0.320145, -0.152886, -0.924727, -0.690443, -0.0522582, 0.232416, 0.313074, 0.165492, -0.804192, 0.718736, 0.446044, 0.0435862, 0.0567441, -0.3239, 0.187161, 0.800067, 0.528455, 0.0351094, -0.199245, -0.469681, 0.179357, -1.47025, 0.290299, 0.385338, 0.117994, 0.178956,
	0.0986801, -0.101179, -0.349971, -0.583109, 0.542976, 0.135226, -0.21612, 0.203358, -0.088089, 0.303884, 0.255663, -0.0251323, -0.2616, 0.274963, 0.553857, 0.471845, -0.0190825, -0.0465277, -0.0687068, 0.0123171, 0.390498, -0.0880799, 0.527214, 0.598989, 0.209154, -0.56665, -0.244201, -0.711413, 0.48438, -0.109833, -0.42086, 0.397269,
	0.504392, -0.287078, -0.654549, -0.27273, 0.858919, -1.20428, 0.528927, 0.63279, 0.0941403, 0.296379, 0.37075, 0.139708, 0.514741, 0.571154, 0.471733, -0.239868, 0.15525, -1.24481, 0.884414, 0.679771, -0.554857, 1.02519, -0.365815, 1.244, 0.233497, -0.375809, -0.102469, 0.202506, 0.590509, 0.110248, 0.376242, 0.034557,
	0.305839, -0.244876, -0.318859, -0.533131, 0.300596, -0.474041, -0.384321, 1.03194, -0.495347, -0.619719, -0.0957308, -0.366235, -0.577291, 0.619276, 0.1847, -0.498627, -0.400016, -0.556947, 0.405729, 0.707491, 0.813124, 0.641746, -0.7407, -0.314801, 0.360203, -1.5912, -0.042454, -0.0704095, 0.235226, -0.21981, 0.385864, 0.670819,
	-0.266526, 0.597192, 0.327008, 0.488692, 0.654542, 0.0373405, 0.170881, -0.0103938, -0.167801, -1.13957, 0.152262, 0.548266, 1.21098, -0.254851, -1.59735, 0.0667387, -0.59666, -0.350186, 0.0847153, -0.26491, 0.287015, 1.2105, 0.113624, 0.37689, -0.143997, 0.0354915, -0.0927194, -1.56854, 0.981717, 0.186133, 0.267628, 0.789845,
	0.227606, -0.062737, -0.210749, 0.0954792, 0.14363, -0.046974, -0.458852, -0.747754, 0.398729, 0.430193, -0.188071, -0.23401, -0.508165, -0.0990206, 0.362687, -0.403623, -0.127081, 0.976171, -0.313018, -0.285843, 0.327631, -0.051393, 0.436834, 0.275854, 0.304253, 0.298641, 0.308692, -0.677717, -0.237371, 0.0780069, 0.0559262, -0.523438,
	-0.0223229, 0.0484315, 0.167781, -0.211015, 0.073551, 0.0720413, 0.0688596, -0.154373, 0.270383, -0.032676, -0.170238, 0.0377093, 0.0843178, -0.380351, -0.197811, 0.118126, 0.0709297, 0.0919532, 0.05635, 0.012717, -0.0690934, -0.119166, 0.0080989, -0.139969, 0.0574513, 0.0477531, 0.212982, -0.0352741, 0.122116, 0.132063, 0.0891278, -0.0535107,
	0.364495, 0.616514, -0.874151, 0.243184, -0.0211473, 0.767072, 0.45507, -0.0555439, -0.270645, -0.347823, -0.163843, 0.196226, 0.783862, -0.0847464, -0.523524, 0.484117, -0.007338, 0.205389, -0.101466, -0.275785, 0.666147, 0.149015, 0.710795, 0.530889, -0.379429, 0.200111, 0.423929, 0.220753, 0.995366, 0.664781, 0.0728045, -0.386866,
	0.172001, 0.0916465, 0.181874, -0.162547, 0.402447, -0.141617, -0.289827, 0.264361, -0.12503, -0.255342, -0.0350582, -0.169763, 0.0861775, 0.165644, 0.735748, 0.0433543, 0.248845, -0.390154, -0.0819792, -0.362833, 0.0689112, -0.306464, 0.073508, 0.115455, -0.106331, -0.368896, 0.0442838, 0.0773224, -0.181703, 0.433664, -0.0299322, -0.217231,
	-0.00991012, -0.0322326, -0.198843, -0.473033, 0.208862, -0.391128, 0.0509858, 0.248746, 0.0470429, 0.404385, 0.202845, 0.211982, 0.292417, 0.251417, -0.0623873, -0.123449, 0.171505, -0.78444, 0.276899, -0.23404, 0.316569, 0.0176093, -0.11569, 0.217373, -0.142733, 0.294737, 0.825724, -0.293762, 0.814517, -0.14275, -0.000471152, -0.0378215,
	0.545527, -0.346816, -0.0973749, 0.020598, 0.265672, 0.0153032, 1.0485, 0.348785, -1.28544, -0.221834, -0.40552, -0.533796, 0.423346, -0.235575, -0.00247111, 0.495156, -1.05374, 0.0768104, 0.104854, -0.0980246, -0.132485, 0.17028, -0.491101, 0.473641, 0.144266, -0.0479216, -0.0235579, -0.302383, 0.208141, 0.601119, 0.0405327, -1.19484,
	-0.0339285, 0.121019, -0.57389, 0.0324521, -0.312634, 0.354263, 0.18385, -0.340202, 0.619593, 0.83222, 0.0272349, -0.202887, 0.879925, 0.376593, 0.530264, 0.246576, 0.418441, 0.00828058, 0.0058368, -1.20147, 0.205374, 0.910542, -0.335719, 0.501398, -0.719207, 0.354603, -1.0174, -0.232496, 0.670789, -0.0908337, -0.533116, 0.524769,
	0.0986024, 0.442913, -0.935403, -0.135257, 0.446555, 0.376349, 0.236298, -0.369118, -0.0598358, 1.04215, 0.340093, 0.213186, 0.827605, 0.299933, 0.630528, 0.320966, -0.0487541, 0.402343, -0.373058, 0.560307, -0.951313, 0.722086, -0.457296, 0.298689, -0.93524, 0.126517, -0.604456, -1.39825, 0.589605, 0.144523, -2.2758, -0.39683,
	0.560171, -0.00539828, -0.0765333, 0.395869, 0.281136, 0.545818, 0.607285, -0.75743, -0.619692, 0.146567, -0.37091, 0.665368, 0.17955, -1.10692, 0.235234, 0.77429, 0.832276, -0.180938, -0.0219112, -0.625998, -0.31255, 0.208206, -0.34748, -0.328452, 0.264075, 0.531188, 0.307886, -0.0407449, 0.420483, 0.695144, -1.35984, -0.662517,
	-0.0235232, -0.0551441, -0.0435107, 0.0854066, -0.363321, 0.0285678, 0.40818, 0.822989, 0.0872452, 0.248553, -1.49112, -0.11951, 0.509648, 0.54107, 1.94886, 0.901817, 0.0430929, -0.223411, 0.408156, 0.159996, -0.282167, -0.428585, 0.561538, 0.28768, 0.0254846, -0.326491, -0.0184721, -0.494853, 0.388034, -0.272328, 1.37849, 0.250422,
	0.502893, -0.346268, -0.377238, -0.524192, -0.219491, 0.380891, -0.0951269, 0.29675, 0.411003, 1.08833, 0.0555869, -0.387396, -1.26152, 0.012921, 0.541479, -0.680337, 0.466841, 0.140812, 0.469917, -0.085138, 0.108975, -0.792294, -0.451769, -0.370146, -0.0350397, -0.310357, 0.248035, 1.37733, -0.752375, 0.11398, 0.292745, -0.399148,
	0.344897, -0.366945, -0.0107932, 1.03781, -0.960808, 0.377549, 0.430866, -0.22742, -0.110648, 0.244136, 0.0104948, -0.20036, -0.195893, 0.0263745, -0.248045, -0.55056, 0.281177, 0.084225, -0.256128, -0.273921, -0.211285, 0.385741, -0.552952, -0.257403, -0.414801, -0.759987, -0.369449, -0.155936, -0.491867, -0.428955, 0.146216, -0.784929,
	0.0503497, -0.388385, -0.329324, 0.00140329, 0.406161, -0.0991616, -0.346706, -0.142322, -0.0895119, 0.771106, 0.126117, -0.184593, -0.181239, 0.119608, 0.772536, 0.00125198, -0.000129789, -0.130422, 0.0957264, 0.00264276, 0.124723, 0.194672, -0.358759, 0.115104, 0.0738287, -0.0153731, -0.251759, -0.147353, 0.37184, -0.0136488, 0.047783, -0.335775,
	0.391997, -0.333961, 0.18081, 0.31127, 0.5514, -0.26448, 0.744997, 0.290178, -0.259698, -0.336085, -0.465431, -0.00269484, 0.32235, 0.38701, -0.854731, -1.94106, 0.151436, 0.335109, 0.680785, -0.602433, 0.0197971, 0.462998, -0.172498, 0.123332, 0.21704, -0.271204, -0.179411, 0.496042, -1.16211, 0.435596, 0.439205, 0.116742,
	-0.0255832, 0.0187998, 0.670325, 0.0200805, 0.634423, 0.212613, -0.0213708, 0.435441, -0.456402, -0.842815, 0.236843, -0.370955, 0.410343, -0.0165774, -0.969113, -0.451315, 0.381646, 0.459709, 0.299967, -0.497256, 0.444621, 1.06732, -1.06751, -0.262616, 0.0950822, 0.44689, 0.294925, -1.11143, 0.591991, 0.320672, 1.07071, -0.554153,
	-0.122063, 0.117383, 1.09384, 0.355322, -1.66993, -0.398778, -0.888045, -0.141761, -0.165219, -0.442104, -0.292787, -0.198479, 0.305079, -0.408871, -0.726638, 0.0993007, -0.283265, 0.376626, -1.08185, 0.347979, -0.81645, -0.0555663, 0.248279, -1.12898, -0.501194, -0.300501, 0.824949, 0.14467, -0.433354, -0.529928, -0.232041, -0.506093,
	0.341073, 0.336618, 0.136637, 0.0890248, 0.539551, -0.120269, 0.0723503, 0.227509, -1.17233, -0.62607, -0.606446, -0.233247, 0.378486, 0.550866, -0.452908, -1.39368, -0.20186, 0.529674, 0.343423, -0.41501, 0.541133, 1.15214, -0.0637994, 0.147304, 0.269658, -0.135488, 0.109471, -0.12232, -0.0940067, 0.121856, -0.303468, 0.0516234,
	0.322799, -0.178725, -0.679451, -0.29178, 0.107524, 0.00956344, 0.308584, 0.231776, -0.463425, -0.385817, 0.0580264, -0.0616124, 0.198387, 0.397715, 0.235736, 0.131448, -0.00899927, 0.294795, 0.248954, -0.224393, -0.0691318, 0.803678, -0.434649, 0.354899, 0.419341, -0.277928, -0.345487, 0.111513, -0.0646993, -0.0549494, -0.232061, -0.0928557,
	0.0302203, -0.292325, -0.687851, 0.124353, 0.593899, 0.0945214, 0.272768, 0.283102, -0.110137, -0.341966, -0.0409306, -0.218485, 0.242795, 0.592781, -0.014616, -0.126034, -0.0774754, -0.242891, 0.0466479, 0.084055, 0.304703, 0.151274, -0.501734, 0.143479, -0.083677, -0.0855965, 0.108979, -0.267465, 0.0889746, 0.186805, 0.0241377, -0.450187,
	0.149142, 0.458063, -0.275019, 0.339594, 0.599412, -0.0172752, 0.519833, 0.104639, -0.126272, -0.313548, 0.371224, 0.302071, 0.69259, 0.127764, 0.0882568, -0.0297653, 0.471242, -0.166109, 0.128771, -0.00487387, 0.0456913, 0.752136, 0.173302, 0.431112, -0.367965, -0.139866, 0.289592, 0.265892, -0.139495, -0.00903979, -0.17497, 0.10543,
	0.417218, -0.294591, 0.877547, 0.602555, -0.963393, 0.267137, -0.328625, -0.640834, 0.12957, 0.828812, -0.0726114, -0.205949, 0.549851, -0.273713, -0.975908, -1.1926, 0.357001, 0.451271, 0.570513, -0.442918, -0.363089, 0.539476, -0.0921314, -0.223515, -0.290915, 0.402621, 0.49403, 0.222382, -0.228357, -0.0378452, 0.838022, -0.813857,
	1.09617, -0.690067, -0.144802, 0.168898, -1.51053, -0.185424, -0.431167, -0.207147, 0.372473, 3.0908, -0.0321077, -0.207968, -0.403702, -0.131536, 2.49972, 1.69817, 1.1102, -0.241256, -0.123545, -0.0830561, -0.0660683, -1.5782, -0.150354, 0.0424999, 0.10233, -0.622549, -0.631776, 0.712616, 0.177914, -0.08525, -2.04965, -0.305632,
	0.285594, -0.138184, -0.486611, 0.507486, 0.494242, 0.375405, 0.469147, -0.289036, -0.377742, -0.135298, -0.131049, -0.0012188, 0.233911, 0.0446659, -0.152858, 0.607822, 0.00180173, -0.0981774, 0.351796, -0.114239, -0.0679343, 0.189298, -0.269369, 0.324838, -0.331842, -0.161906, 0.211149, -0.809754, 0.0339836, 0.397638, -0.398, -0.480028,
	0.397981, 0.107588, -0.245504, -0.0515428, -0.0548795, -0.0904571, 0.0680444, 0.187048, -0.292605, -0.40723, 0.241569, 0.0844607, 0.303223, 0.139169, -0.234299, -0.343022, -0.284835, -0.22391, 0.338755, 0.339534, 0.0872091, 0.0680555, 0.814908, 0.670974, -0.101132, -0.358931, -0.278182, 0.243973, -0.101329, -0.148388, 0.400831, 0.32718,
	-0.111759, 0.298729, 0.289607, -0.382996, 0.693352, -0.137067, -0.24689, 0.310165, -0.917751, -0.978378, -0.0685574, 0.0489419, 0.222897, 0.272843, -0.405169, -0.122304, -0.080914, -0.604218, -0.0115319, 0.230882, 0.211107, 0.557103, -0.487756, 0.036956, 0.0317906, -0.143436, 0.196343, -2.19454, 0.459041, 0.0785429, 0.770624, 0.0520056,
	0.294228, -0.221763, -0.469921, -0.435623, -0.104807, -0.0657962, -0.111451, -0.00159073, 0.313701, 0.185354, -0.283258, 0.0485275, 0.323335, 0.468878, 0.0371145, 0.248614, 0.0228969, -0.385885, 0.0439292, 0.558245, 0.144568, -0.215736, -0.000450951, -0.01172, 0.242433, 0.10582, 0.0172059, -0.266802, 0.286446, 0.457013, 0.0495909, -0.272168,
	-0.0940249, -0.038052, -0.156004, -0.187755, 0.239802, -0.015367, 0.24607, -0.0404726, -0.806687, -0.554445, 0.0683719, 0.0798727, -0.0697638, -0.153101, -0.378324, 0.136049, -0.0149385, 0.0608485, 0.195885, -0.245521, 0.00487656, -0.0370607, 0.0245289, -0.0258334, 0.176532, 0.0704971, 0.193207, -0.0334267, 0.359775, 0.164561, 0.191625, -0.0450786,
	0.20517, 0.638438, -0.02986, -0.60063, -0.423062, 0.200481, 0.122025, 0.0383546, -1.00989, 0.146682, -0.304214, -0.194023, -0.162333, -0.00619867, 0.162682, 0.468385, -0.0713873, 0.621914, -0.165937, -0.403459, 0.0039451, -0.459556, 0.288713, 0.123104, 0.287406, 0.0495427, -0.0243865, 0.0546404, -0.0440856, 0.19565, -0.756076, -0.109606,
	-0.440154, -0.992587, -0.995788, -1.51219, 0.720099, 0.236279, -0.170055, -0.23645, 0.255935, 0.514674, 0.244843, -0.0737119, 1.02812, 0.0668023, -0.12316, -0.443391, 0.0522366, -0.482382, 0.386672, -0.253309, -0.41705, 0.507224, -0.785895, 0.39821, 0.120966, 0.465363, 0.26006, -0.510801, 0.682652, 0.492101, 0.721927, -0.557983,
	-0.153685, 1.25997, -0.520153, 0.630336, 1.33913, -0.361909, 0.374398, 0.585768, -0.182747, -1.56464, -0.121076, 0.279957, 0.583303, -0.00248772, 0.252589, 0.443274, -0.284601, -0.643378, -0.082347, -0.177577, 0.55637, 0.190521, -0.102898, 0.190447, -0.0854669, 0.175286, 0.0158338, -0.00953818, -0.284271, 0.110357, -0.32056, 0.293861,
	0.01579, -0.174343, 0.051944, -0.64809, 0.329217, -0.180662, -0.0463989, 0.194051, 0.435502, 0.2472, 0.204588, 0.219299, 0.0475755, -0.122558, 0.158128, -0.780051, 0.197642, -0.65518, 0.3744, -0.050116, -0.0613885, 0.594417, 0.123464, 0.545568, 0.747726, 0.193288, -0.222626, 0.430254, 0.191207, -0.581246, 0.165904, 0.463323,
	0.365846, -0.261919, -0.441052, 0.0908979, -0.570022, 0.204688, 0.327395, -0.0228312, 0.150937, -0.158889, 0.151137, 0.175605, 0.197899, 0.047685, -0.175971, -0.0749601, -0.199285, 0.0051527, 0.0219334, -0.28269, -0.0941028, -0.263828, 0.0790445, 0.286479, -0.171793, 0.0839732, -0.0428451, 0.168387, -0.31794, 0.166733, -0.233542, -0.0311281,
	0.183428, 0.202468, -0.702015, 0.23498, 0.760166, 0.84939, 0.823233, -0.343954, -0.078676, -0.00404257, -0.272081, 0.190599, 0.689427, -0.0926328, -0.0401505, 0.813426, 0.549032, -0.0662872, 0.627414, -0.36951, 0.342368, 0.105318, -0.0916782, 0.203181, 0.353301, 0.186126, 0.0804478, -0.415073, 0.448203, 0.619565, -0.427905, 0.144593,
	0.510225, -0.71041, 0.333387, 0.214797, -1.06197, 0.501604, 0.0783469, 0.0160739, -0.665403, 1.61565, 0.0361992, 0.00718098, -0.0814698, 0.104459, -0.491385, -1.47942, 0.42012, 1.19374, 0.441871, -1.1532, -0.184671, -0.0594319, -0.34472, -0.142686, 0.153614, 0.0482195, 0.271659, 0.0479405, 0.413359, 0.56563, 0.608959, -1.40932,
	0.579729, 0.142637, -0.252946, 0.041503, -0.139798, 0.125322, 0.281333, 0.121692, 0.097023, -0.157432, -0.26815, -0.237612, -0.453285, 0.232847, 0.367882, 0.515849, -0.227305, 0.344057, 0.29253, 0.0495813, 0.44348, 0.0764452, 0.18766, 0.241472, -0.223384, 0.200427, 0.0316531, -0.205177, 0.0319892, 0.0174721, -0.463765, -0.0941973,
	-0.0198394, -0.254968, 0.298796, -0.245033, -0.116145, -0.0936763, -0.255018, -0.337373, 0.0845854, 0.228502, 0.316583, 0.121622, -0.106249, -0.0735976, -0.484755, 0.0279304, 0.104485, -0.416035, 0.415182, 0.432536, -0.399126, -0.326547, 0.486618, -0.0211528, 0.589318, -0.168601, 0.330918, 0.272173, 0.572511, 0.264604, 0.539831, 0.0718429,
	-0.118399, -0.478085, -0.340222, 1.16538, 0.182637, 0.374202, 0.408041, -0.19371, -0.538538, -0.168191, -0.252059, 0.224259, 0.128515, -0.238911, -0.127735, 0.486422, -0.046045, 0.396918, -0.09394, -0.338749, 0.0195826, -0.246679, -0.995747, -0.0874298, -0.438564, -0.0382284, 0.0856056, -0.682268, -0.175394, 0.227848, -0.568294, 0.109724,
	-0.488174, 0.981134, 0.34413, 0.867566, 0.400061, 0.471894, -0.0377088, 0.184627, -1.61461, -2.9911, -0.140167, 0.00956948, 1.00159, -0.17854, -2.05579, -0.23981, -0.474553, 0.27698, -0.334701, 0.793137, 0.380856, 0.880849, -0.0187002, 0.091588, -0.23168, 0.170668, -0.462665, -1.02239, -0.506847, 0.448908, 0.706751, 0.524424,
	-0.0301032, -0.711068, -1.01191, 0.151642, 0.191556, 0.590594, 0.173278, 0.00235248, -0.0515385, -0.141441, 0.130286, -0.309997, 0.00576796, 0.111031, 0.203936, 0.684007, -0.122313, 0.42829, 0.431843, -0.0375717, -0.0558182, 0.044513, -0.550002, -0.0204673, -0.0259455, -0.0831342, -0.518902, -0.680954, -0.0595362, 0.197214, -0.261823, -0.466962,
	0.231264, -0.119607, 0.382211, 0.399798, -0.202653, -0.340866, -0.401633, 0.413791, 0.343822, 0.871993, 0.186641, 0.178128, 0.173735, 0.266406, 0.116914, -0.829032, 0.413196, -0.689301, -0.0942774, 0.325705, 0.196616, 0.367793, 0.318731, 0.497617, -0.15872, -0.342008, 0.0949543, 0.421205, 0.539973, -0.137449, 0.587319, 0.712848,
	0.179634, 0.087857, 0.238403, 1.51143, 0.439636, -0.12673, -0.486701, 0.0585088, -0.101121, 0.257411, -0.280942, -0.0238131, 0.202315, 0.241758, 0.695252, 0.19009, 0.500467, 0.0631242, 0.107595, 0.223455, 0.343294, -1.22099, -0.0882258, -0.206941, 0.288462, 0.582253, 0.825252, -0.0501841, -0.336632, -0.0924401, 0.0216994, -0.462514,
	0.0528837, -0.0730716, -0.387663, -0.104367, 0.0156474, -0.204091, -0.125548, -0.353597, -0.0328845, 0.421526, -0.0962491, -0.231289, 0.186289, -0.0313495, 0.305118, 0.202308, 0.208425, -0.217049, 0.227333, -0.34123, -0.0958894, -0.267202, -0.0393438, -0.00921908, 0.0210867, -0.100188, 0.0402979, -0.223605, 0.0694337, 0.279652, -0.185113, -0.567852,
	-0.399668, 0.204272, -0.0219888, 0.253002, 0.0281099, 0.132422, -0.294498, 0.0906039, -0.468908, -0.506412, -0.237932, -0.412075, -0.336647, 0.107474, -0.0583312, 0.124647, -0.0332894, -0.416444, 0.0408823, 0.144028, -0.32683, -0.223188, 0.239206, 0.118592, 0.742308, -0.406553, -0.230799, -1.09137, 0.128906, 0.608583, 0.016238, -0.403544,
	0.418071, 0.0440147, -0.0834362, -0.248396, -0.329546, -0.510286, 0.615588, 0.259086, 0.162668, -0.471588, 0.145844, -0.0409465, 0.109202, 0.0454862, -0.0945655, 0.466883, -0.0839123, 0.101397, -0.0444536, 0.363321, 0.0634502, 0.161106, -0.0299961, 0.145079, -0.0426107, 0.420306, -0.0401726, 0.381282, 0.229258, 0.114135, -0.327096, 0.0321295,
	0.386556, -0.667534, -0.917388, 0.0504282, 2.05805, -0.523964, 0.394994, -0.340006, 0.248776, 2.00051, -0.86811, -0.237582, -1.57981, 0.292903, 2.1523, -0.522416, -0.499479, -0.422782, 0.771606, 0.519065, 0.215461, 0.622789, -0.324925, 0.420312, 0.427928, -0.0215206, -0.352057, -0.250105, 0.338379, 0.0952717, -0.356293, 0.186221,
	-0.223614, 0.109037, 0.239438, -0.212998, 0.870653, -0.383661, -0.216615, -0.401209, -0.138413, -1.18135, 0.0336188, -0.413688, 0.116022, 0.194046, -0.5701, -0.966978, -0.824697, -0.264893, -0.0976812, 0.842298, -0.0114758, 1.565, -0.278264, 0.414513, 0.040118, -0.0371623, 0.438426, -0.987153, 0.578087, -0.0785227, 0.275881, -0.24389,
	-0.089035, -0.744766, -0.194298, 0.680286, 0.313345, -0.250158, -0.322979, -0.015003, 0.137216, 0.893179, 0.223345, -0.0707233, -0.561342, 0.0716613, 1.06871, -0.12584, 0.348613, -0.521195, 0.152523, 0.218079, -0.0678349, -0.564274, -0.211426, -0.234095, -0.196456, 0.348147, 0.0657719, 0.104551, -0.20891, -0.0508807, 0.323266, -0.234965,
	0.0222828, -0.0720056, -0.328199, 0.148927, 0.112151, -0.118205, -0.21929, 0.0912438, 0.073256, 0.0376294, -0.216545, 0.000588437, 0.105025, 0.201117, -0.337733, -0.165253, -0.154448, -0.2047, 0.0916536, 0.297923, -0.0670016, 0.0694169, -0.0714634, 0.101289, 0.181581, -0.212599, 0.145087, -0.359927, 0.127083, 0.262239, 0.259339, -0.37779,
	0.231794, -0.118526, 0.0585715, 0.00581247, 0.161782, -0.836757, -0.210052, -0.109576, 0.00890945, 0.584272, 0.14277, 0.153792, 0.201134, 0.38409, 0.44047, -0.785969, 0.00551704, -0.318395, 0.149472, -0.0923992, -0.0986211, 0.209873, -0.0751687, 0.342552, 0.196479, -0.553525, 0.197497, -0.00810018, 0.286505, -0.016705, 0.192592, -0.314453,
	-0.202874, 0.274087, -0.172467, 0.312187, -0.121721, 0.354597, 0.381482, 0.257128, -0.695553, -0.60024, 0.309761, 0.207772, 0.105852, 0.0207906, 0.133671, 0.48878, -0.0507845, 0.552924, -0.208038, -0.41909, -0.0934799, -0.00423258, -0.292401, 0.0144521, 0.167391, 0.180522, -0.218727, -0.04848, 0.0516439, 0.316648, -0.603041, -0.171113,
	0.313805, -0.576083, -0.294678, 0.108099, 0.634057, -0.186739, -0.297402, -0.346626, -0.02744, -0.145802, -0.523188, -0.240721, 0.275891, -0.260265, -0.225123, -0.318769, -0.358572, -0.346406, 0.539968, 0.319539, 0.0233441, 0.360485, 0.00799385, 0.302272, -0.374837, -1.0997, 0.405965, -0.163562, -0.260229, -0.112404, 0.309037, 0.169084,
	0.258518, -0.0932355, -0.178117, -1.02213, -0.342022, -0.261654, -0.218025, -0.472844, -0.197142, 0.735573, -0.0637083, -0.187248, 0.470444, -0.0126421, 0.785975, 0.969205, 0.253564, -0.568569, 0.0162385, -0.0906577, -0.0312049, -0.605281, 0.000986768, 0.0200486, 0.116119, -0.265556, 0.263078, -0.184752, 0.562492, 0.418633, -0.594285, -0.378238,
	-0.32685, 0.19664, 0.126027, -0.256728, -0.613461, -0.227527, -0.828336, 0.430281, 0.252165, 0.409148, 0.247629, -0.255675, 0.0967201, 0.659986, -0.402979, -1.1914, -0.444811, 0.144399, -0.37516, -0.132522, 0.19031, 0.0238375, 0.257899, -0.0515315, 0.114502, -0.0420536, 0.00906511, 0.304323, -0.0031401, -0.334655, 0.133749, 0.419998,
	-0.398375, 0.697768, -0.116925, 0.607146, -1.23554, 0.0682686, -1.6429, 0.473238, 0.371333, 0.083468, 0.647259, -0.0437921, 0.467378, -0.563986, 0.498323, 3.43493, 0.829361, -1.03131, -0.500457, -0.140245, -0.0708064, -5.48201, 0.25775, -0.376297, -0.217035, 0.353136, 1.54344, 0.286235, 0.223652, 0.0532152, 0.65295, -2.29561,
	-0.400257, 0.240854, -0.489004, -0.756374, 0.365407, 0.0831201, 0.114783, -0.455395, -0.47439, -0.179925, -0.229148, 0.0264493, -0.0746452, -0.336554, -0.434628, 0.658813, 0.326462, 0.39748, 0.303984, -0.799211, -0.161558, -0.336233, 0.489118, -0.140911, 0.295295, 0.415279, 0.524571, -0.649443, 0.490695, 0.658698, 0.190147, -0.559664,
	-0.108419, -0.12771, -0.0999853, 0.0888351, -0.234312, 0.761305, -0.161918, 0.404854, -0.451973, -0.791899, -0.297058, -0.0967984, -0.0659382, 0.0735818, -0.911543, -0.166311, -0.172356, 0.481112, -0.0767888, -0.404699, -0.215302, -0.396969, -0.154328, -0.192901, -0.00381936, 0.634646, 0.848908, -0.659945, -0.387706, -0.371861, 0.174423, -0.377617,
	-0.186604, -0.574244, -0.489501, -0.586355, 0.407736, -0.777324, -0.0801688, 0.271854, -0.531199, -0.708918, -0.00136803, -0.283294, -0.495055, 0.140902, -0.615391, -0.799284, -0.234501, -0.965901, 0.539612, -0.704142, -0.39003, 0.151055, -0.63402, 0.23313, 0.519939, -0.0438891, -0.808185, 0.200983, -0.461262, -0.149772, 0.478168, -0.429792,
	0.0507925, -0.86769, -0.0363534, -0.202196, 0.298139, -0.253677, -0.892869, 0.0669573, 0.12014, 1.28149, -0.471864, -0.279818, 0.0026215, 0.498875, -0.202786, -0.86009, -0.0907831, -1.00797, 0.486621, 0.0706692, -0.0449173, 0.435835, -0.167285, -0.076551, -0.0399525, -0.208767, 0.176986, -0.575726, 0.326655, 0.0166356, 0.309042, -0.319207,
	-0.377823, -0.693051, -0.500012, -0.713195, 0.86123, 0.376781, -0.287651, -0.160609, -0.0701479, 0.143726, 0.198332, -0.176739, -0.0194602, 0.0776633, 0.331524, 0.191786, -0.0723867, -0.442234, 0.0868457, -0.121815, -0.0579111, -0.378236, -0.370745, 0.256309, -0.119944, 0.0859158, 0.282616, 0.103877, 0.0956025, -0.28436, 0.293855, -0.434859,
	0.220991, -0.0653429, 0.324463, 0.321483, -0.299047, 0.46803, 0.314072, -0.0380766, -1.12132, -0.719468, -0.402639, -0.326292, -0.0708115, 0.0386082, -0.554177, 0.309061, -0.260626, 0.957748, 0.0628011, 0.0577721, -0.0932225, 0.54922, -0.262906, -0.369678, 0.0605339, -0.194969, 0.0451732, -0.583674, 0.00957549, -0.145698, -0.264471, -0.0260974,
	0.359664, 0.643808, 0.234698, -0.8474, -0.486526, -0.114424, 0.617296, 0.98334, -0.503233, 0.120677, -0.190255, -0.251934, -0.0421559, 0.427906, 0.134344, -0.0697253, 0.267542, 0.77584, -0.0285408, -0.516129, -0.216188, 0.950836, 0.0651019, 0.131407, 0.262456, -0.895155, -0.163376, -0.072445, -0.242147, 0.0838233, -1.01672, 0.0750408,
	-0.178256, -0.203903, -0.00360498, -0.0829587, 0.500842, -0.114661, -0.617834, 0.526742, 0.00541014, 0.0137022, 0.372444, -0.243899, -0.0416639, 0.607691, 0.360705, -0.424145, -0.153623, -0.508243, -0.160921, 0.211919, 0.16582, -0.707331, -0.142228, 0.198912, -0.0256705, -0.396414, 0.0794713, -0.274497, 0.0586247, 0.256467, 0.305652, -0.404928,
	0.0459719, 0.274182, -0.864015, 0.124787, -0.206995, 0.163938, 0.41956, -0.180854, -0.446282, 0.00412933, -0.128679, -0.0203093, -0.18693, -0.0870841, 0.0782585, 0.622084, -0.0057928, -0.111204, 0.0327126, -0.607131, -0.032835, -0.743922, 0.109837, 0.340622, -0.173805, 0.381932, -0.106556, -0.827858, -0.545765, 0.781846, -0.914651, -0.81512,
	0.131167, 0.403882, -0.292623, -0.037438, 0.278162, -0.0475253, 0.496444, 0.120828, -0.243381, -0.104445, 0.153079, 0.298275, 0.706366, 0.232845, -0.15576, -0.0469083, 0.199851, -0.0932428, 0.299846, -0.115006, 0.147445, 0.212726, -0.388026, 0.566112, 0.282184, -0.0106059, 0.327206, 0.0586131, 0.496124, 0.373798, 0.0983703, 0.0622633,
	0.328727, 0.352386, -0.336459, 1.26364, 0.125359, -0.101446, -0.209448, 0.0286208, -0.107372, 0.446631, 0.0537081, 0.285519, -0.137955, -0.1288, 0.414273, 0.134395, 0.305581, -0.467552, 0.00046899, -0.130603, 0.406188, -0.854042, -0.216179, 0.184911, 0.058056, -0.13274, 0.46772, -0.271586, 0.499439, -0.27887, 0.556988, -0.357559,
	-0.241025, 0.544692, 0.73452, -0.291706, -0.329387, 0.296175, 0.134622, 0.654963, -1.46262, -0.629664, -0.0460225, -0.299644, -0.906806, -0.0914057, 0.460429, 0.651574, -0.384812, 1.13939, -0.423607, -1.20985, 0.265341, -0.345994, -0.307361, -0.634033, 0.0841976, -0.0117804, -0.244986, 0.318023, -0.236883, -0.12666, -0.978747, 0.489583,
	-0.136538, 0.254265, 0.200535, -0.0364555, 0.267639, -0.242016, 0.142392, -0.00847653, -0.127565, -0.105677, -0.115348, 0.257684, 0.0191411, 0.145146, -0.104365, 0.164213, 0.0111233, -0.0772085, 0.133205, 0.176347, -0.0546476, 0.0742456, 0.122843, 0.0915454, 0.170734, 0.165286, 0.0753991, 0.315369, 0.171417, -0.0873323, -0.131744, 0.371116,
	0.624365, 0.14798, -0.446382, 0.150471, 1.33937, -0.13111, 0.735503, 0.409724, -0.258293, 0.891438, -0.435696, -0.49046, 0.524626, 0.060877, 0.254545, -0.30906, -0.72581, -0.750285, -0.286423, -2.5219, 0.1442, -1.40821, 0.0704287, -0.35135, 0.215225, -0.0131847, -0.897575, 0.0958842, 0.100259, -0.279268, 1.31197, 0.16954,
	-0.406231, 0.89091, -0.230318, -0.84656, 0.91878, -0.755735, -0.436672, 0.519428, -0.147765, -0.521933, -0.0698743, -0.374521, -0.413888, 0.158196, 0.12809, -0.0504745, -0.436332, 0.123238, -0.41267, 0.940143, 0.0439801, 0.867714, 0.0462805, 0.471361, 0.443335, -0.017427, -0.211261, 0.0202908, 0.273803, -0.3414, -0.31696, 1.06832,
	1.717, -0.492301, -0.432605, -0.159404, 2.24271, -0.943827, 1.24894, 0.0976808, -0.290684, 1.41462, -1.14515, -0.683342, 0.0514874, 0.251682, -0.497465, -0.778485, -0.823624, 0.160233, -0.82094, -2.25436, -0.9173, -1.40768, 0.564891, -0.438168, -0.781209, -0.0988903, -1.82694, -0.218195, 0.281607, 1.16473, 0.640459, 1.19362,
	-0.0415607, 0.261971, -0.300258, 0.081915, -0.2595, 0.211819, 0.477761, 0.442229, -0.350722, 0.348082, 0.314775, -0.0970981, -0.145299, 0.531559, 0.42414, 0.155811, 0.0293471, 0.191408, -0.197675, -0.381731, 0.0915722, -0.115684, -0.428917, 0.219401, -0.0366835, -0.0378738, -0.274143, -0.127783, 0.0641783, -0.0334467, -0.707859, -0.467818,
	0.302071, 0.307352, -0.0732569, 0.120861, 0.575, -0.337441, -0.0769575, -0.154305, 0.336034, 0.487735, 0.320969, 0.300639, -0.0358643, -0.107869, 0.216138, -0.103007, 0.525165, -0.705778, -0.00450729, 0.556382, 0.123077, 0.225291, 0.163667, 0.32266, -0.166139, 0.0617428, 0.387044, 0.345154, 0.514628, -0.0864302, 0.888379, 0.16022,
	-0.0566876, 0.274313, -0.0357984, 0.0261616, -0.023595, -0.191531, 0.225296, -0.21977, -0.109707, 0.171452, 0.210733, 0.122324, 0.0701106, -0.167282, 0.0867183, 0.0502018, 0.158269, -0.114043, -0.154408, -0.149816, -0.274225, 0.353655, 0.0684444, 0.0504405, 0.396323, 0.106082, -0.025137, -0.0337073, 0.26569, 0.0512211, -0.234576, -0.0376102,
	-0.118639, 0.0165012, 0.125565, -0.134893, 0.239345, -0.256248, -1.04074, 0.0561241, 0.335661, 1.03215, -0.130437, -0.193596, -0.386116, 0.310133, 0.511382, -0.911951, -0.0767352, -0.530458, -0.127722, -0.174305, 0.182476, 0.419467, -0.00358795, -0.242546, -0.104802, -0.179583, 0.00855622, -0.13418, 0.103547, -0.297172, 0.207119, -0.0137552,
	-0.104696, -0.120204, -0.484342, -1.12894, 0.0890952, -0.451326, -0.602393, -0.0634571, -0.0495577, 1.00308, 0.0534163, -0.438775, -0.458835, 0.02584, 1.08499, 1.48948, 0.15078, -0.566066, -0.0411422, 0.97435, 0.057331, -0.60326, -0.0836157, -0.0453547, 0.237701, 0.131143, -0.340802, -0.282443, 0.841916, -0.438113, -0.310991, 0.532752,
	1.07223, -0.552123, -0.452527, 0.164037, -1.40454, 0.371435, -0.22062, 0.440994, 0.4446, 2.21471, -0.165101, -0.277177, -0.0124046, 0.33736, 1.45199, 0.879784, 0.903158, 0.769017, -0.401693, -0.531645, -0.0056372, -0.974426, 0.0481748, 0.0820965, 0.175135, -0.882543, -0.358343, 0.885196, -0.531304, -0.348973, -1.38393, -0.594494,
	-0.329267, 0.14231, 0.0551254, -0.759577, 0.110515, -0.29089, -0.394455, -0.134308, -0.0438383, 0.192953, -0.653444, -0.0819025, 0.0384151, 0.0893558, -0.173171, -0.194879, -0.175233, 0.218126, -0.217528, -0.146918, 0.0905731, 0.214793, 0.109457, 0.0482587, 0.243332, -0.00917565, 0.0390375, 0.07253, 0.092411, 0.23353, -0.0058608, 0.030053,
	0.851415, -0.732983, -0.0222089, -0.702707, -0.63472, -0.726461, 0.654119, -0.0534787, 0.263744, 2.16186, -0.220746, 0.0408016, -2.22803, -0.172418, 1.35532, 0.399839, 0.163141, -0.0822722, 0.0193809, -0.380631, 0.0494699, -0.521506, 0.203236, -0.0834934, 0.176802, -0.585185, -0.712982, 0.680067, 0.907352, -0.00617027, -0.869304, 0.282365,
	0.298945, -0.084216, -0.0123108, -0.444674, -0.443174, -0.0233159, 0.228393, 0.0734745, -0.0163669, 0.0611486, -0.147855, -0.0952527, -0.123062, 0.0302402, -0.247381, 0.239002, 0.0648354, 0.123566, 0.143444, -0.0860435, -0.0960808, 0.125334, -0.236243, -0.141507, 0.0333219, -0.28978, 0.167618, -0.105154, 0.0109166, 0.318282, -0.097273, -0.155142,
	-0.0600324, 0.00555059, -0.269027, -0.347834, -0.137373, 0.233922, 0.0541472, 0.0346245, -0.107378, 0.172647, 0.15621, 0.0782473, -0.33696, 0.0528651, -0.162134, 0.458352, 0.0411762, 0.0326253, 0.133632, -0.147334, -0.27184, -0.235735, -0.275694, 0.169916, 0.035886, 0.0864005, 0.332546, -0.0932748, 0.35226, 0.230605, 0.00379119, -0.267458,
	0.0156033, 0.0943145, -0.724825, 0.680693, 0.260724, 0.520742, 0.0328717, -0.0655396, -0.163998, -0.0612109, -0.398497, -0.28079, 0.231958, -0.0822162, -0.0939957, -0.223775, -0.00295068, -0.0618074, -0.258549, -0.561148, 0.334516, -0.0711055, 0.0510928, 0.167442, -0.752478, -0.124964, -0.1424, -0.29871, -0.0868171, 0.267594, -0.825305, -0.237065,
	0.178108, 0.255503, 0.683534, 0.932763, -0.0636144, -0.193331, 0.685159, -0.691912, -0.160442, -0.697021, -0.0791533, 0.259466, 1.0067, -0.0993444, -0.234146, 0.0934653, -0.0382822, -0.226366, -0.385036, 0.0182959, 0.261049, 0.00962332, -0.0865061, -0.216866, -0.442167, -0.238912, 0.462955, -0.524955, 0.372036, -0.0592397, -0.254095, -0.676594,
	0.554654, -0.437188, 0.511046, 0.296878, 0.136741, -0.329033, 0.490866, 0.305525, 0.392978, -0.544102, -0.167828, 0.135464, -0.834324, 0.473163, -0.0605056, -1.55588, 0.75303, 0.357015, 0.937411, 0.134262, 0.390871, 1.69071, 0.157737, 0.00548241, 0.789628, -0.222421, -0.577236, 1.47408, -1.25883, 0.196794, 0.146256, 1.54314,
	-0.339811, -0.460539, -0.56199, -0.2641, 0.031595, 0.155192, -0.090679, 0.210522, -0.31816, -0.283421, -0.223721, -0.0310916, 0.139957, 0.100939, -0.4595, -0.10504, -0.108071, -0.332193, 0.124008, -0.00647607, -0.460464, -0.287939, -0.45974, -0.107186, 0.123342, -0.640292, 0.577811, -0.36511, 0.106332, 0.424299, 0.321637, -0.417856,
	0.425572, -0.14097, -1.37637, -2.71886, 1.51877, -0.467838, 0.824953, -0.560748, -0.045935, 0.822629, -0.0323595, -0.431609, -0.394773, 0.270435, 1.58282, -1.53726, -0.69089, 0.0501132, -0.0332332, 0.347054, 0.170364, 4.47006, -0.393911, 0.849675, 0.280136, -0.0650642, -1.46356, -0.54665, 0.518378, 0.842247, -1.12792, 1.086,
	0.901844, -0.29873, 0.713882, -0.13889, -0.968095, 0.0759339, 0.962166, -0.240335, -0.135305, 1.10977, 0.0776534, 0.174454, 0.669701, 0.463549, -0.995418, -2.30514, 1.20176, 1.12515, 0.0987745, -1.45035, -0.241686, 1.25294, 0.40708, -0.268738, 0.0436248, -0.209325, 0.660786, -0.529014, -0.368232, 0.380573, -0.0121761, -1.15222,
	0.110096, -0.541452, 0.272289, 0.0936247, -1.11313, -0.267698, -0.0411889, 0.278989, 0.29621, 0.942233, 0.36065, -0.278339, 0.60785, -0.135426, 0.223329, 0.337137, 0.480485, 0.092049, -0.0777259, 0.0102545, -0.468671, -1.11446, -0.0982306, 0.110442, -0.0338522, 0.12409, -0.612453, 0.310126, -0.395685, 0.0177125, -0.396699, -0.639388,
	-0.527478, 0.261318, -0.41214, -0.153803, 0.192313, -0.984095, -0.365675, -0.387195, -0.264282, -0.433499, -0.177265, 0.263907, -0.524427, 0.0316918, 0.575381, 1.55276, -0.636331, -0.746265, -0.723771, 0.207393, -0.349963, -0.877603, 0.571281, 0.17298, 0.597484, 0.56919, -0.317385, -0.332738, 0.774384, 0.477603, -0.579754, 0.17784,
	0.171885, -0.24322, 0.127481, -0.224462, -0.337587, -0.179257, -0.472837, 0.700772, -0.156545, 0.5656, 0.0771209, -0.0167698, 0.156718, 0.723712, -0.169523, -1.16175, 0.0773034, -0.222839, -0.222584, 0.0858556, 0.387489, 0.128214, -0.184006, 0.297721, -0.340782, -0.215476, -0.0870233, -0.0433746, 0.00723984, 0.0264602, 0.0269915, 0.0485525,
	0.404856, 0.105088, -0.30967, -0.382292, -0.215132, -0.212963, 0.384924, -0.021022, 0.127252, 0.703069, 0.403686, 0.326625, 0.390626, 0.0170036, 0.52731, 0.271947, 0.654017, -0.342322, 0.489706, -0.108248, 0.0383188, -0.752067, 0.989549, 0.363742, 0.065831, -0.0165347, 0.217103, 0.366895, 0.124706, 0.329997, -0.179263, -0.381052,
	0.269881, -0.0839051, -0.0702696, -0.157109, 0.123101, 0.164217, -0.120215, 0.386739, -1.01406, -0.716873, 0.000514688, 0.15534, -0.27782, 0.16898, -0.823159, 0.0719356, -0.0406025, 0.316741, -0.136025, -0.0785893, 0.0116387, 0.364346, 0.241363, 0.352877, -0.0264443, -0.0167926, 0.71367, -1.26997, 0.799096, -0.0209925, 0.328181, -0.0313486,
	0.199786, -0.423056, 0.325067, -0.398812, -0.843282, -0.00625022, 0.040918, 0.489898, -0.289665, 1.1214, 0.0924521, -0.352424, -0.542987, 0.125226, 1.12414, 0.403218, -0.409593, 0.487988, -0.030424, -0.337814, 0.0478169, -0.558996, -0.198934, -0.174882, -0.0222675, -0.0553533, -0.386699, 0.0167742, 0.343918, -0.0311876, -0.647736, -0.0714356,
	0.102574, 0.528324, 1.01935, 0.548531, -1.00677, -0.613334, -1.2337, 0.585822, -0.369022, -1.15874, 0.7667, -0.323986, 0.242522, -0.123486, -0.589588, -0.0770256, 0.334604, 0.20761, -0.737404, -0.446749, 0.146567, -1.47058, -0.062875, -0.696619, -0.379108, -0.975979, 0.721613, 0.152771, -0.873032, -0.927742, 0.377507, -0.153442,
	0.227847, 0.0707001, -0.0865593, -0.0525797, -0.137952, -0.0757609, 0.108777, -0.0504446, 0.0927977, 0.422274, 0.22792, 0.161145, 0.21324, -0.136429, 0.138994, -0.396944, 0.228389, -0.0552243, 0.0532268, 0.159794, 0.161412, 0.158117, 0.13101, 0.181602, -0.00245842, 0.0149683, 0.0146097, 0.382656, 0.104865, -0.1127, 0.128657, 0.387077,
	0.00688213, 0.116816, 0.0921676, 0.0203517, 0.2922, -0.0358511, 0.275091, 0.511253, -0.302654, -0.360408, 0.051149, 0.115924, 0.308342, -0.0128491, 0.560486, 0.521823, -0.392096, 0.793622, 0.0205944, -0.333022, 0.384924, -0.0551279, 0.334395, 0.382684, -0.0839309, -0.477503, -0.680375, 0.664172, -0.114905, -0.0304855, -1.24289, 0.512444,
	0.296082, 0.325157, -0.0852762, -0.16663, 0.252223, 0.356154, -0.115041, -0.406599, -0.062728, -0.398132, -0.489173, -0.345412, -0.0342754, -0.0753014, -0.423219, -0.437845, -0.330612, 0.134025, 0.117395, 0.0472735, 0.619669, 0.262773, -0.0626003, -0.148295, 0.0599731, 0.0544675, 0.199233, -0.912839, 0.2233, 0.180017, 0.422177, -0.455843,
	-0.019309, -0.139968, -0.471147, 0.202521, 0.510611, 0.421012, -0.0158403, 0.113695, -0.719664, -0.0285788, -0.179082, -0.272302, 0.189446, 0.235538, 0.309183, 0.0469379, 0.0859871, 0.131899, 0.303107, -0.104074, 0.295666, 0.582924, -0.390286, 0.098674, -0.391837, -0.249205, -0.401498, -0.525968, -0.243606, -0.0898886, -0.0131941, -0.0363819,
	-0.463517, 1.19271, -0.105163, 0.0623425, 0.21909, -0.0645716, -0.180029, 0.342297, -0.0952518, 0.332406, -0.246954, 0.0936588, -0.133897, 0.175791, -0.560964, 0.119279, 0.337164, -0.387104, 0.0222775, -0.700192, 0.471792, -0.0295543, 0.0938557, 0.0832412, -0.158581, 0.328766, 0.40355, 0.0866314, 0.598037, 0.569331, -0.402796, 0.180182,
	0.454669, 0.371793, -0.245474, -1.14325, 0.316024, 0.304188, 0.817659, -0.295448, -0.795319, -1.38948, 0.106809, 0.112529, -0.0184223, -0.283743, 0.00366775, 0.911614, 0.0567704, 0.974979, 0.0655155, -0.164535, -0.400917, -0.200871, 0.293541, 0.180929, 1.00997, -0.127476, 0.401794, -0.417274, -0.0766745, 0.139449, -0.238737, -0.222298,
	-0.0409077, -1.00463, -0.852091, -0.106265, 0.846874, 0.0118097, 0.261139, -0.278922, 0.0912607, 0.464567, 0.0857819, 0.155859, -0.197446, -0.0118762, 0.349364, 0.406698, 0.254025, -0.183225, 1.04531, -0.109261, 0.0698514, -0.503978, -0.461527, 0.445979, 0.322463, 0.241339, 0.0230087, -0.034861, 0.242265, 0.785433, -0.0217102, -0.190259,
	0.131771, -0.51139, -0.0401758, -0.890821, -0.0774816, -0.488463, 0.300623, 0.360496, 0.0785814, 0.293954, -0.0587102, -0.059702, -0.938441, 0.238174, 0.13651, -0.608053, 0.24039, 0.0180618, 0.434808, -0.36694, -0.0442259, -0.102092, -0.423025, 0.0631522, 1.13969, -0.372523, -0.350326, 0.439192, -0.19441, 0.126202, 0.0510463, 0.0917609,
	0.443181, -0.320115, -0.108067, -0.0101266, 0.239855, 0.0356238, 0.221208, -0.408263, 0.228254, 2.81454, -0.370638, -0.157367, 0.89003, 0.0455765, 1.85523, -0.298322, 0.123973, 0.485334, -0.843883, 0.078578, -0.705168, 1.28823, 0.231762, 0.163174, -0.468045, -0.682437, -0.419208, -0.424458, -0.086156, 0.410134, -2.00138, 0.614701,
	0.355677, -0.487441, 0.27578, -0.587971, -0.4706, -0.0913303, 0.0391205, 0.420971, -0.0423354, 0.682462, -0.10503, -0.105979, -0.334584, 0.485231, 0.347527, -0.134651, 0.383483, 0.12556, -0.300944, -0.237745, -0.161439, -0.1399, -0.270254, -0.0296936, 0.629009, 0.185235, 0.36073, -0.0598755, 0.190972, 0.466738, -0.264311, -0.346009,
	0.157117, -0.25676, -0.180715, 0.127909, 0.151033, -0.615742, 0.608512, 0.308222, 0.654098, -1.24015, 0.694072, -0.22605, -0.295608, 0.442494, -0.549592, -2.16132, 0.902448, -0.210353, 0.330367, -0.0593641, 0.0487768, 0.999563, -0.358643, 0.696567, 0.151269, -0.783295, -0.593764, -0.0973915, -1.70787, -0.493848, 0.160904, 0.489533,
	0.822033, -0.492947, -0.00125181, 0.184521, -0.280471, 0.301752, -0.404081, 0.340951, -0.185133, 0.280703, -0.432875, -0.50272, 0.082067, 0.726099, -0.0598277, -0.433887, -0.548503, -0.116595, 0.358225, 0.776209, 0.383561, 0.124559, -0.00276176, 0.205422, -0.356875, -0.262822, -0.254753, -0.641743, -0.22613, 0.0990521, 0.291864, -0.243847,
	0.364566, -0.766661, -0.292939, -0.081057, -0.134482, -0.112634, 0.0718855, 0.454792, 0.244503, 2.38204, -0.0537126, 0.0114645, -0.529321, 0.0881836, 1.89572, 1.53361, 0.730064, -0.035292, 0.0202823, 0.0903925, 0.224341, -0.969881, -0.825494, -0.157878, 0.40295, -0.493744, -0.121007, 0.298278, 0.989547, 0.198598, -1.3151, 0.0866469,
	0.664927, -0.107235, -0.173512, 0.0547249, -0.170125, 0.0350722, -0.0878244, 0.181559, 0.154453, -1.13613, -0.844029, -0.395457, 0.040031, 0.276362, 0.817881, -0.175329, 0.121121, 0.320767, 0.211203, 0.240375, -0.37498, -0.278179, -0.102633, -0.142808, -0.056303, -0.156044, -0.0932433, 0.0807169, 0.20243, 0.155273, 0.303216, -0.0469505,
	0.235211, -0.59217, -0.0237487, -0.168679, 0.111346, -0.00238572, 0.176135, -0.0242536, -0.216387, -0.0973152, 0.170591, -0.0482716, -0.870168, 0.193171, -0.0205007, -0.667641, -0.0573678, -0.00524931, -0.105921, -0.294316, -0.0057247, -0.072404, -0.00904096, 0.108479, 0.215533, -0.0894685, -0.340629, 0.142067, -0.562421, -0.389576, 0.417447, 0.111574,
	-0.0970357, -0.0994843, -0.0306422, -0.134581, 0.0175698, -0.0193352, 0.498421, -0.0378686, 0.00972218, 1.42088, -0.048298, 0.0682393, -0.172708, 0.0428877, 0.91136, 0.0849828, -0.189473, 0.326942, -0.547503, -0.192181, -0.62852, 0.741592, -0.125877, 0.175132, -0.0822487, 0.075088, -0.28258, -0.334935, 0.396945, 0.330624, -1.18032, 0.446992,
	0.874893, 0.322639, 0.0134878, -0.108832, 1.03037, 0.116934, -0.735438, -0.470659, 0.0868371, 1.10469, 1.93378, -0.0302389, -0.233579, 0.0557567, -1.84605, -0.457629, -0.124417, 0.114697, -0.0813988, 0.577624, 0.51619, -0.0584901, -0.187692, -0.317685, 0.118991, 0.232965, -0.0554473, -0.091354, 0.22702, 0.0733098, -1.85969, -0.411321,
	0.218974, 0.351053, 0.0626506, -0.137303, 0.264501, 0.132612, -0.455688, -0.154709, 0.0508201, 0.101789, -0.216135, -0.0865282, -0.191135, 0.0386566, -0.191494, -0.114724, -0.173155, 0.342087, 0.194851, 0.282792, -0.152221, -0.366483, 0.156421, -0.00313693, 0.209896, 0.0885485, 0.129083, -0.231075, 0.463221, -0.0453322, -0.127953, 0.291286,
	0.354818, -0.15302, -0.27017, -0.0158844, 0.0424933, 0.122934, 0.743279, -0.367631, 0.00281045, -0.575079, 0.319394, 0.26939, 0.0917277, -0.29834, -0.0168992, 0.306494, 0.0735213, -0.0436862, 0.391635, -0.0329382, -0.074124, -0.0265856, -0.123241, 0.124136, 0.0558331, -0.0126098, -0.26808, -0.17505, -0.257573, 0.229614, 0.217863, -0.203145,
	-0.0612501, -0.0729092, 0.137294, 0.18639, -0.254634, 0.560431, -0.299519, 0.0974523, 0.158083, 0.0267136, 0.0619117, -0.355162, 0.275755, -0.136923, -0.324122, 0.49287, 0.25836, -0.165445, -0.181107, -0.0823883, -0.293194, -0.713481, 0.126485, -0.294939, -0.0748437, 0.00456672, 0.204851, -0.0101053, -0.17317, 0.284023, 0.430703, -1.07933,
	-0.0136466, -0.130723, -0.525582, -0.671632, 0.255835, -0.199481, 0.22336, -0.00357212, -0.0479125, 0.060288, 0.252928, -0.112682, -0.33367, 0.150904, 0.193957, -0.0957127, 0.115371, 0.0615781, 0.344768, -0.44918, 0.158882, -0.3009, -0.169142, 0.166913, 0.474068, 0.0495426, -0.317778, -0.0167648, -0.188815, 0.0389608, 0.138264, 0.0248802,
	0.136356, -0.0813391, 0.267575, 0.691357, -0.0536293, 0.344916, 0.0256728, 0.0604714, -0.0283222, -0.468578, 0.332714, 0.00112371, 0.688816, -0.0038677, 0.0968626, 0.0119986, -0.114929, -0.0934699, -0.361413, 0.0139856, -0.0230877, -0.439483, 0.0848146, 0.0966265, -0.60122, -0.225004, 0.253447, 0.18044, -0.399471, -0.208313, -0.0158856, -0.195117,
	0.243091, -0.308761, -0.0855139, -0.398062, -0.0814851, -0.124022, 0.309769, 0.602473, 0.0614952, 0.34249, 0.156526, 0.145707, -0.159528, 0.27294, 0.317994, 0.0381752, 0.0722253, 0.194654, 0.274653, 0.0593594, 0.10609, -0.0825169, -0.0979551, 0.27863, 0.187345, 0.204188, -0.0754494, 0.333114, -0.134924, 0.333389, -0.173991, 0.285959,
	0.532752, -0.240248, 0.0103708, -0.0230676, 0.366011, -0.0364604, 0.741592, 0.140986, -0.0609174, 0.734989, 0.273006, 0.260492, 0.0961749, -0.280462, -0.475423, 0.777001, -0.867597, -0.221988, -0.0225579, -0.346498, 0.0456593, 0.573461, 0.180069, -0.204224, -0.0457581, -0.00948769, 0.324989, 0.0303613, 0.248837, -0.0332157, 0.776995, 0.169979,
	-1.31231, -0.146965, 0.164074, -0.000202135, -1.15017, -0.114986, 0.856862, 0.128518, -0.1554, 0.286525, -0.598924, 0.156336, -0.0742114, -0.366928, 1.41935, 0.333815, -0.141543, -0.494604, -0.175719, -0.408212, 0.473067, 0.677087, -0.051734, 0.100394, -0.118738, -0.0168343, 0.312269, -0.10917, -0.464329, -0.206236, 1.49943, 0.240528,
	0.224802, 0.190252, 0.628236, 0.680056, -0.49196, 0.0742632, 0.492589, 0.137869, -0.468246, -0.429493, -0.351293, 0.168268, -0.731046, -0.0678061, -1.05366, -0.505671, 0.0834831, 0.419533, 0.168598, -0.108054, -0.174231, 0.200378, 0.0892463, -0.163162, 0.189741, -0.032361, -0.430312, 0.609212, -0.516938, 0.134844, 0.339253, 0.686271,
	0.10571, 0.193606, 0.205058, -0.0767256, 0.0116162, -0.0559566, -0.299856, -0.0307443, -0.266064, 0.0975529, -0.285572, -0.343407, 0.174756, 0.0249083, -0.130875, -0.0249918, -0.263043, 0.242655, -0.0580511, 0.154147, 0.244659, 0.0500336, 0.151073, -0.155355, 0.114879, -0.0687358, -0.0287611, -0.350805, 0.446785, -0.00582739, 0.00132194, 0.242725,
	-0.42865, -0.503712, 0.105551, -0.00976621, -0.41825, -0.0926234, 1.28369, 0.545567, -0.525518, 1.69608, 0.658462, 0.00395307, 0.323688, -0.24282, -0.412988, 0.928648, -1.37161, -0.813742, -0.0138588, -0.535203, 0.252673, 0.542552, 0.146156, 0.0156277, 0.168304, -0.150324, 0.0901999, -0.313796, -0.895808, 0.253398, 1.32155, 0.194691,
	0.15425, -0.191256, -0.198713, -0.0317466, 0.331431, -0.0181072, 0.425755, 0.0906385, -0.00277021, 0.103073, -0.0108814, 0.0488463, -0.0320513, 0.115316, 0.109083, -0.494427, -0.168521, 0.0093126, 0.0760774, 0.0232216, 0.0717966, 0.704954, -0.296403, 0.349175, -0.278425, 0.0188103, -0.42471, -0.176138, 0.042408, 0.280562, -0.0971473, 0.307414,
	-0.133388, -0.108739, -0.134118, -0.0901716, -0.0120787, -0.00333352, 0.0609863, -0.184415, -0.0105717, 0.0637747, -0.03422, -0.0411656, -0.0858676, -0.00493518, 0.00164682, -0.104444, -0.0123231, -0.0225559, 0.00536036, -0.100046, -0.00590426, 0.00924362, -0.456929, -0.00448432, 0.189441, 0.0242611, -0.0201937, -0.32559, 0.041647, -0.0397154, -0.128898, -0.150967,
	0.882129, -0.918855, -0.109684, 0.0130835, -0.649413, -0.187156, 0.911879, 0.274889, 0.353467, 1.76503, -0.265662, 0.0957188, -0.826437, 0.0824378, 1.55894, -0.40124, 0.618886, -0.0277001, -0.0303031, -1.20946, 0.359012, -0.687012, -0.127891, -0.243213, 0.771828, -0.348263, -1.51456, 0.375328, -0.160415, -0.163911, -0.417009, 0.0360016,
	0.338293, -0.516421, -0.265452, -0.358142, 0.284033, -0.141228, 0.435757, 0.113906, 0.0629953, -0.64857, -0.363046, -0.249648, -1.1177, 0.209977, -0.704803, -0.794079, 0.001006, 0.164789, 0.368762, -0.323889, 0.50893, -0.760355, -0.10126, -0.201061, 0.0152509, 0.0192209, -0.80068, 0.307497, -0.769525, -0.31939, 0.544522, -0.111996,
	-0.318844, -0.154507, -0.0491766, 0.0742185, 0.250584, 0.086842, -0.138792, -0.173545, 0.0591417, 0.0229264, -0.211994, -0.0967249, -0.333291, 0.113195, -0.170349, 0.0865549, -0.136071, 0.284779, 0.118301, -0.111343, -0.284906, -0.409581, 0.099266, -0.217742, 0.106734, 0.0473415, -0.0230537, -0.389546, -0.153129, 0.293383, 0.312426, 0.0959776,
	-0.0550937, 0.0138872, -0.0012521, 0.176202, -0.0336631, 0.0446724, 0.0288387, 0.120254, 0.0804137, 0.0798593, 0.0850126, -0.0545209, -0.0592157, 0.0493409, 0.0734746, 0.0521131, 0.000195512, 0.0944449, 0.00739932, 0.0522314, 0.0283414, -0.0934705, 0.0650763, 0.0336265, -0.0316597, 0.0751314, -0.125094, 0.0686075, -0.0325258, -0.183398, -0.0469075, 0.055012,
	0.231488, 0.118022, 0.1926, -0.215331, -0.216822, -0.0667694, -0.190233, 0.200345, -0.271476, -0.182053, -0.102943, -0.354306, 0.0505487, 0.0705857, -0.085087, -0.136412, -0.00675597, 0.213957, 0.0428378, 0.0356897, -0.105006, 0.335731, 0.176405, 0.0239221, 0.210425, -0.104485, 0.196295, 0.159822, -0.0393946, 0.11659, 0.0556959, -0.0758654,
	-0.0283355, -0.278819, 0.0467951, 0.0661883, -0.141549, -0.0748622, 0.0241418, -0.0331012, 0.0441291, 0.0154948, 0.0479702, 0.0714831, 0.0828808, -0.0630161, 0.00804547, -0.0780341, 0.132476, -0.228884, -0.0120828, -0.0277348, 0.106535, -0.234108, 0.110882, -0.0157546, -0.0573343, -0.123049, -0.0358965, 0.0226539, -0.0338729, -0.0496021, -0.0684865, -0.00925206,
	0.344455, -0.0894829, 0.376127, 0.393933, -0.17385, 0.162344, 0.428757, 0.158553, -0.0787346, -0.0432199, -0.10832, 0.106833, -0.109398, 0.0743085, 0.0638647, 0.505964, -0.152858, -0.109551, 0.0796352, 0.171716, -0.286181, -0.0474459, 0.0432871, -0.127643, -0.394402, -0.0652978, -0.0854536, -0.00918196, -0.072939, 0.115793, -0.0573185, 0.194581,
	0.322637, -0.209543, 0.278919, -0.446076, -0.235844, -0.066137, 0.0266079, 0.507915, -0.0239652, 0.589821, -0.0544866, -0.042563, -0.455191, 0.369047, 0.394738, -0.431308, -0.00549626, 0.341625, 0.0576424, -0.186391, -0.0848573, -0.094894, -0.337988, -0.142164, 0.107951, 0.0507439, -0.641257, 0.643795, -0.657945, 0.00826105, -0.133961, -0.288767,
	0.00192581, -0.222912, -0.0825782, 0.0656305, 0.181817, 0.00708807, -0.050456, -0.0288304, -0.0686815, -0.106084, -0.0025625, -0.0668007, 0.0748441, 0.0212478, 0.0190438, -0.0531312, -0.0294841, -0.0889242, 0.1562, 0.0828297, -0.128294, -0.0328298, -0.222973, 0.0390605, -0.0737819, -0.165472, 0.106731, -0.102494, -0.160091, 0.00432078, 0.141556, -0.120144,
	-0.1412, 0.328645, 0.213178, 0.0943176, -0.196823, 0.202615, -0.156459, -0.0534417, -0.163618, 0.086244, -0.13701, 0.0489219, -0.0594585, -0.0274266, -0.284576, 0.151583, 0.0106313, 0.081226, -0.449649, -0.0381306, 0.16438, -0.0458131, 0.405226, -0.175319, -0.445589, -0.191319, 0.173217, -0.0480372, 0.20346, -0.0834136, -0.0892432, 0.0905008,
	-1.10188, 0.00184235, 0.511023, -0.168215, -1.26652, -0.105329, -0.344968, -0.270116, -0.0577856, -0.682285, 0.45428, -0.026445, -0.168891, -0.0410046, 0.415495, -0.0585263, 0.59068, 0.158957, 0.367391, 1.04616, 0.691783, 1.09299, -0.329465, 0.113639, 0.162907, -0.104689, 0.54203, 0.101352, -0.265333, -0.433737, -0.624414, -0.984346,
	-0.0660574, -0.346011, -0.225967, -0.425143, 0.0595761, -0.204169, 0.156629, 0.0456183, 0.156753, 0.0586331, -0.0572124, 0.027657, -0.167613, 0.101184, -0.0320507, -0.0910989, -0.0876847, -0.430711, 0.331052, 0.234611, -0.0427616, 0.00138734, -0.115277, 0.108091, 0.109362, -0.0989783, -0.0124005, 0.275801, 0.0926408, -0.207731, 0.0660734, -0.0599309,
	-0.119348, 0.0946348, 0.09639, 0.0455422, 0.0441226, -0.151221, -0.036149, -0.192572, 0.0272892, 0.102902, -0.15553, -0.0274485, -0.143222, -0.262453, -0.105665, 0.135041, 0.0548048, 0.0780923, -0.102661, -0.140492, -0.027154, 0.00752089, 0.0298337, -0.250971, -0.0181367, 0.0503408, 0.130465, -0.136898, -0.00547123, -0.0992028, -0.112937, -0.0117759,
	-0.154575, -0.113196, 0.17116, 0.308891, -0.282252, -0.039791, -0.100352, -0.213287, -0.0579094, -0.309858, 0.0649027, 0.242511, 0.0837117, -0.131471, 0.114585, -0.255967, 0.660697, -0.125412, 0.158092, 0.252465, 0.430771, 0.176095, -0.0355377, -0.164147, 0.0422774, -0.15852, 0.262846, 0.142551, -0.239784, 0.0547751, -0.216391, -0.377174,
	0.183835, -0.438445, -0.0645758, -0.067018, 0.682678, -0.13602, 0.400675, 0.178967, 0.115348, -0.994425, -1.33215, -0.0179489, -0.457795, 0.261893, -0.32252, -1.60836, 0.717544, 0.058749, -0.0305739, -1.36018, 0.00395524, -2.18666, 0.0243785, 0.477236, 0.0143026, -0.395371, -2.27906, 0.272296, -0.373994, 0.193305, 1.10914, 0.503537,
	0.0109604, 0.418983, 0.351188, 1.48966, -0.578631, 0.0153454, 0.0763905, 0.315497, -0.226053, -0.400327, -0.13306, -0.131017, -0.440871, -0.115994, -0.449772, -0.0294993, 0.147326, 0.408779, 0.00384954, 0.568219, 0.175824, -0.254963, -0.0518078, -0.170044, 0.235218, -0.167853, -0.16116, 0.0925112, -0.267798, -0.230275, 0.0899164, 0.24674,
	-0.0284008, 0.0884703, -0.221758, -0.223518, 0.0374296, -0.261296, 0.0299983, 0.101248, 0.306261, 0.0537555, -0.0993457, -0.0142589, 0.0154854, 0.0395134, 0.0316901, -0.191262, -0.0147919, -0.142674, 0.100046, -0.263109, 0.00774438, 0.0294295, 0.0964129, 0.193455, 0.126076, 0.0274159, -0.373561, 0.241782, -0.278713, -0.0427835, -0.25764, 0.12516,
	-0.195168, 0.055655, 0.148382, -0.0283971, -0.0536596, 0.340212, -0.271009, -0.212064, -0.0876478, 1.13851, -0.124298, -0.213275, 0.218137, 0.175112, 0.95642, -0.287582, -0.121897, 0.485868, -0.227737, 0.562105, -0.286943, 1.3043, 0.0049497, 0.0130182, -0.00605704, 0.145912, 0.396031, -0.355584, -0.256146, 0.333836, -0.519402, 0.399774,
	0.164773, -0.0234111, 0.0239909, 0.0427037, 0.258776, -0.170128, 0.171461, -0.322802, -0.215374, -0.134958, -0.180144, 0.0365414, -0.198613, -0.188201, -0.211173, 0.336507, 0.165172, -0.00718987, 0.174523, 0.037256, -0.0250911, -0.264881, 0.0273089, -0.0142581, 0.025747, -0.129987, 0.227333, 0.000958318, 0.196151, 0.219832, -0.110803, -0.358953,
	-0.374267, 0.217897, -0.0185785, 0.0482021, 0.0876169, -0.0993275, -0.0214374, -0.0121673, 0.110544, 0.00632157, 0.307655, 0.303976, 0.0156513, -0.129188, 0.0106423, -0.0289367, 0.491689, 0.155003, -0.0628919, -0.247932, 0.0343414, 0.217698, 0.058928, 0.0181814, 0.0566934, -0.125049, 0.0269768, -0.0102151, 0.0324719, -0.132474, 0.171721, 0.127795,
	0.0615444, -0.0190488, 0.167732, -0.0198096, 0.112341, -0.180214, 0.576334, -0.14968, -0.133217, 0.32042, 0.0349271, 0.332229, 0.118155, 0.0238392, 0.178803, -0.541615, 0.0445656, 0.473618, -0.138947, -0.0397355, -0.0717224, 0.684909, -0.367933, 0.156669, -0.0147229, -0.0923434, 0.047021, 0.0890779, 0.00591987, 0.188663, -0.467091, 0.593188,
	-0.382558, 0.779831, 0.395117, 1.06641, 0.685552, 0.206552, -0.700715, -0.34097, 0.0114292, -0.338573, 0.602215, 0.277702, 1.74036, -0.122201, -0.529652, 0.231951, -0.245599, 0.00501514, -0.226185, 0.629403, -0.102077, 0.368444, 0.155184, -0.0727865, -1.25673, 0.150687, 1.3427, -0.399082, 0.969491, 0.0938328, 0.557982, -0.263057,
	0.0413731, 0.0821295, 0.255419, 0.447456, 0.227244, 0.0959925, -0.084494, -0.256132, 0.0147167, 0.400526, -0.20403, 0.117073, 0.374511, -0.107292, 0.193739, 0.602476, 0.0458643, -0.0786156, -0.0249697, 0.150421, -0.179876, -0.140837, 0.270706, -0.0923882, -0.437799, 0.0120333, 0.536583, -0.0910489, 0.376117, 0.160961, -0.0252495, -0.0671939,
	-0.120987, 0.117014, 0.399157, -0.0351202, -0.150794, -0.0880529, -0.216161, 0.221411, 0.309501, 0.0434945, 0.0872337, 0.119164, -0.0239954, 0.0429156, 0.0707673, 0.000945352, -0.047135, 0.0824251, -0.171574, 0.329374, -0.0774122, 0.202633, 0.508299, -0.282486, 0.0602264, 0.0935568, 0.206676, 0.0546488, 0.0791801, -0.248816, 0.0225704, 0.180727,
	-0.402175, -0.171257, 0.121296, 0.0814827, -0.208899, -0.238933, 0.618533, 0.101193, 0.0337679, -0.594606, -1.69622, 0.138423, -0.139186, -0.0418661, 0.716387, -0.241827, 0.0104672, -0.0301635, -0.140034, -0.857926, -0.0125899, -0.560767, 0.140284, 0.259226, -0.362104, -0.229765, -0.220943, -0.0146515, -0.070855, 0.373411, 0.743038, 0.192539,
	0.0135726, -0.223171, 0.114689, 0.0596492, 0.0380632, 0.0514065, -0.114151, -0.116172, -0.0944491, -0.277875, -0.0671242, -0.105937, 0.0150282, -0.051691, -0.100743, -0.15194, -0.194899, 0.0712215, -0.0871407, -0.0369632, -0.00894308, 0.209873, -0.113735, -0.107292, -0.0875839, -0.082353, -0.0299848, -0.162386, -0.0444432, -0.0603402, -0.0222629, -0.138949,
	-0.169735, -0.361701, 0.0997811, 0.0432693, 0.82039, -0.099434, -0.349313, 0.209462, 0.0557015, 1.521, 0.266835, -0.119575, 0.00568412, -0.141716, -2.36199, 0.775677, 0.204669, 0.162432, -0.854336, 0.316242, 0.587511, 0.418075, 0.000920886, 0.348499, 0.00338685, -0.305262, 0.278339, 0.284096, -0.0436873, 0.0890328, -0.256817, -0.190677,
	0.179216, -0.392348, -0.192565, -0.0300756, -0.12678, -0.0825982, 0.068808, 0.196451, -0.0657515, -0.131185, 0.23535, -0.0054858, -0.0922977, 0.112684, 0.0907318, -0.129041, -0.204195, -0.160548, 0.134858, 0.216815, -0.0788811, 0.335415, -0.455712, -0.0486988, 0.0216924, -0.260131, -0.193903, -0.109822, -0.386304, -0.32938, -0.080689, -0.1451,
	1.81005, -0.574936, -0.352883, -0.0186221, 1.66812, 0.301265, 0.280822, -0.0907573, 0.181998, -0.258347, 0.897775, 0.0770737, -0.650147, 0.076204, -1.99276, 0.0626142, -0.404017, 0.0278425, -0.0974809, -1.05242, -0.604795, -0.99141, 0.289731, -0.884186, -0.253874, -0.177139, -1.59217, -0.0999779, 0.24632, 0.584771, 0.284463, 0.87608,
	-0.212706, -0.178916, -0.0467892, -0.445606, 0.297774, 0.259696, -0.388424, -0.210868, -0.166053, 0.347996, -0.180013, -0.23161, 0.769406, 0.0458742, -0.0364865, -0.183806, 0.0632035, -0.779874, 0.138178, 0.00978688, -0.242955, -0.28666, -0.398329, -0.133878, -0.0716387, -0.0718294, 0.100481, -0.119098, -0.0908692, 0.145369, 0.280818, -0.618012,
	-0.0368564, 0.0619174, 0.0369126, 0.150173, 0.0542907, -0.0179586, 0.0973755, -0.00953935, -0.174259, -0.609301, 0.324037, -0.0308468, 0.00400506, -0.137126, -0.239466, 0.0442867, 0.442144, -0.248279, -0.123144, -0.363393, 0.295267, -0.912623, -0.037797, -0.0877303, 0.0392503, -0.124553, -0.0621799, 0.0858778, -0.201138, -0.15876, 0.382292, -0.423254,
	-0.135099, 0.235612, 0.128341, 0.0608422, -0.279398, -0.0534522, -0.160379, 0.0877651, -0.0333645, 0.0724577, -0.129259, -0.277432, 0.0871374, -0.247251, 0.342643, 0.0985894, -0.061002, 0.30311, -0.138589, 0.00615795, -0.18894, -0.0791496, -0.0414378, -0.23646, -0.0430492, 0.0596756, 0.234077, 0.0232162, 0.0523891, -0.273473, 0.211602, 0.143286,
	0.0980426, 0.0413271, 0.0772012, 0.164156, 0.183857, 0.192568, -0.194839, 0.0834273, 0.13248, 0.22496, -0.100117, 0.0087211, 0.00190891, 0.041588, -0.029983, 0.0218776, 0.0084284, 0.0266375, -0.0229204, 0.124024, -0.0185419, -0.409991, 0.157883, -0.123005, -0.17575, -0.120663, 0.242939, -0.00958329, -0.0146443, 0.256589, 0.130218, 0.124278,
	-0.0293176, -0.219495, -0.0550757, -0.180869, -0.307611, -0.227157, 0.505263, 0.257326, 0.0634094, -1.42544, 0.810401, -0.0990343, -0.415175, 0.0983372, -0.297923, -1.38385, 0.184117, 0.653328, 0.243125, 0.242206, 0.892031, 1.12941, -0.0468359, 0.64763, 0.822457, -0.218011, -0.173952, 0.301122, -1.35688, -0.452128, 0.560773, -0.118471,
	-0.165994, 0.027104, 0.134551, -0.0989605, -0.238611, -0.0829619, -0.445504, 0.128993, 0.265808, -0.301567, 0.156047, -0.127222, -0.272264, 0.153442, 0.156234, -0.27604, -0.147692, -0.00197987, -0.11006, 0.41845, 0.0351356, 0.3741, -0.0312797, -0.192959, 0.163146, 0.0543328, 0.0657884, 0.0984899, 0.095143, -0.236395, 0.362708, 0.159902,
	-0.00641175, 0.199033, -0.186866, -0.271648, 0.0857227, -0.17846, 0.116086, 0.0122771, 0.053781, -0.306077, 0.156635, 0.0270926, -0.0331627, -0.120168, 0.143647, -0.0129854, 0.0740916, 0.0194219, 0.07719, 0.00280299, -0.0906723, 0.183541, -0.0991274, 0.180177, 0.351539, 0.0828801, -0.10433, 0.105321, -0.122411, 0.145116, 0.0847916, 0.101419,
	0.165093, 0.352265, 0.382441, 0.257837, -0.646355, 0.0265342, -0.0270323, 0.0306017, -0.219007, -0.286591, 0.187017, 0.128581, 0.195615, -0.00316764, -0.0548056, 0.263642, -0.138218, 0.306344, -0.353564, 0.146503, -0.164207, 0.118409, 0.227005, -0.0315099, -0.19316, -0.0802953, 0.043161, 0.167334, -0.145682, -0.157437, -0.285518, 0.0524038,
	-1.02966, -0.110653, 0.198472, 0.0983036, -1.35747, 0.212017, -0.362149, -0.107736, 0.0964752, -0.186795, 0.970521, 0.514514, 0.091967, -0.109681, 0.0869915, 0.200198, -0.117385, -0.148524, -0.0663052, 1.26151, -0.18002, 0.631857, -0.141504, 0.226987, 0.0275128, -0.13366, 0.74265, 0.240016, 0.162973, -0.0435915, -0.614751, -0.868467,
	-0.053144, 0.144757, 0.341743, -0.0958934, -0.243605, 0.0886586, -0.100024, -0.0464103, 0.00898179, 0.312461, -0.144982, -0.0242556, -0.178166, -0.0957494, 0.170311, 0.238686, 0.0596642, 0.226758, -0.0975121, 0.133136, -0.141321, -0.132071, 0.277537, -0.0403022, 0.0923657, 0.0918692, 0.20667, -0.371371, -0.0510699, 0.341403, -0.338301, 0.08286,
	0.18056, 0.16317, 0.239371, -0.370811, -0.110181, -0.0299379, -0.0181611, 0.136026, -0.0967531, -0.120579, 0.0526313, 0.228003, -0.172215, -0.216004, -0.0694363, -0.0178358, 0.0510877, -0.0216303, -0.158445, 0.12784, 0.14121, -0.236114, 0.224732, -0.0382453, 0.126686, -0.0903717, 0.0853814, -0.00874215, -0.0894713, -0.328927, 0.16799, 0.00731395,
	-0.246147, -0.0906195, -0.216321, -0.36985, 0.351101, -0.135076, -0.263268, -0.5027, 1.35939, 0.389034, 0.205319, 0.508936, -0.187237, -0.463089, 0.00384617, -0.201787, -0.0197595, -0.653965, 0.325948, 0.293364, -0.0639568, 0.232204, 0.659047, -0.0250505, 0.170162, 0.813759, 0.292617, 1.37811, 0.61949, 0.24859, 0.976069, 0.312009,
	-0.185729, 0.302205, -0.138751, -0.0573129, -0.463061, 0.0788225, -0.301312, 0.23871, 0.159084, -0.941955, -0.505708, -0.206839, -0.0252866, 0.266413, 1.35334, -0.625727, 0.349834, 0.201948, 0.511634, 0.0400483, -0.0962516, -0.248155, 0.264598, 0.0263054, 0.0374768, 0.0253892, -0.0934025, 0.089226, 0.141081, 0.196758, 0.0937674, -0.0160846,
	-0.113463, 0.258902, 0.167502, 0.154825, -0.360658, 0.30832, -0.733345, -0.340139, 0.314267, -1.0041, 0.22768, 0.801386, -0.105227, -0.383365, 0.042654, -0.513919, 0.693203, 0.312488, 0.548898, 0.490167, 0.0224425, -0.518701, 0.251667, 0.145098, 0.179916, 0.316559, -0.0480636, 0.269672, 0.0149139, -0.0159435, 0.0848558, -0.010334,
	0.295003, -0.236652, 0.141076, 0.249186, -0.219835, 0.253673, 0.0950734, 0.116793, -0.0686202, -0.105583, -0.224635, -0.064637, 0.296401, 0.124335, -0.168361, -0.479095, -0.0567155, -0.185457, -0.0631873, -0.152074, -0.0126372, 0.478756, -0.00401777, 0.00117398, -0.0641165, 0.216732, 0.0310217, 0.409299, -0.210181, 0.259926, -0.14121, -0.2254,
	-0.0826513, 0.141418, 0.132478, 0.166723, -0.232199, -0.0259438, -0.119948, 0.319166, 0.0086288, -0.640514, 0.472341, -0.0632499, -0.0240038, -0.248032, -0.0957011, -0.161111, 0.256252, 0.0751802, -0.120382, -0.145061, 0.0239529, -0.251671, 0.00921141, 0.0882879, 0.0206123, -0.0789734, -0.0301984, 0.102958, -0.321553, -0.281522, 0.414356, -0.311143,
	0.0405345, 0.345635, 0.330445, 0.179681, -0.0722499, -0.0329506, 0.111855, 0.0549393, 0.0302471, 0.0393906, 0.00284379, -0.00278255, -0.0138446, 0.0858662, 0.0161234, 0.130578, -0.000619037, 0.0296176, -0.268007, -0.00568988, 0.120502, 0.0240241, 0.0732745, 0.00942857, -0.0537545, 0.0294587, -0.0351321, 0.0620183, 0.158811, 0.190387, -0.115263, 0.13757,
	-0.060692, -0.0710206, -0.0945518, -0.329558, 0.53538, -0.096051, 0.785027, -0.210803, -0.0120015, 0.238089, -0.0232989, 0.0131448, -0.142919, 0.0476398, 0.27869, -0.804061, -0.195967, 0.215484, 0.0807265, 0.106334, 0.177219, 1.40424, 0.0288913, 0.243116, 0.0528333, 0.064203, -0.297334, -0.0249934, 0.39585, 0.0927181, -0.459198, 0.448706,
	-0.0753001, 0.0978211, -0.0459833, -0.11688, 0.0451753, 0.0983708, -0.00604076, 0.0123705, -0.156805, -0.368499, 0.526186, -0.199811, 0.12639, 0.252614, -0.916527, -0.454479, -0.329669, 0.165396, -0.143547, 0.206022, 0.296177, 0.406206, -0.21143, 0.0355723, -0.299327, -0.121801, -0.373148, 0.182626, -0.25216, 0.154035, -0.016593, 0.170182,
	-0.267399, -0.109021, -0.115183, 0.24053, 0.127777, -0.119119, -0.539156, -0.254453, 0.121183, -0.801314, 0.0824935, -0.0811825, 0.338671, 0.024783, -0.394788, -0.219853, 0.103902, -0.245313, 0.137334, 0.543576, -0.000494352, 0.108878, -0.472676, -0.208489, -0.0818973, -0.315353, 0.225307, 0.182479, 0.0259384, -0.167528, -0.265284, -0.386054,
	-0.277916, -0.0763108, -0.468934, 0.129979, 0.0343888, 0.17967, 0.330621, -0.531403, 0.0883798, -0.325514, 0.0571664, 0.112689, 0.0529466, -0.371541, -0.213598, 0.244826, 0.0658197, -0.0311033, 0.340584, -0.0577683, 0.383691, 0.0127302, -0.0585635, 0.0217602, 0.0150046, 0.17345, -0.347967, -0.00307179, -0.146356, 0.454602, -0.1738, -0.140635,
	0.201176, 0.289296, -0.0616676, 0.0761437, 0.442242, 0.0637904, -0.337759, -0.280119, -0.010712, -0.354055, -0.935352, 0.177152, -0.134309, 0.229254, -0.238363, -0.476974, 0.385607, 0.532553, 0.0374744, 0.524297, -0.603801, 0.251595, 0.0858257, 0.103522, -0.185732, 0.142926, -0.182788, -0.127688, 0.681415, 0.227547, -0.677641, 0.234289,
	0.0226031, 0.171785, 0.106609, -0.233034, -0.170557, 0.0798048, -0.213183, -0.0464282, 0.0549633, 0.436716, 0.0219416, 0.00138784, -0.218781, -0.0919717, 0.152512, 0.369389, -0.0781353, 0.180373, -0.0280277, -0.0805779, 0.236749, -0.0364993, 0.117696, 0.214819, 0.086265, 0.0961646, 0.247753, -0.224908, 0.455812, -0.0662049, 0.072441, 0.0275162,
	-0.200355, -0.267801, -0.17168, 0.139237, 0.184784, -0.159985, 0.185798, 0.13392, -0.119905, -0.446002, 0.115553, 0.0645142, 0.128857, 0.0895923, -0.0880784, -0.463771, -0.0558605, -0.238615, 0.28587, -0.073314, 0.220805, -0.0196889, -0.00164235, 0.336281, 0.280594, -0.08187, -0.356736, -0.0154983, -0.000733202, 0.168977, 0.16107, -0.0458538,
	-0.0285496, -0.148999, 0.0498139, 0.0316388, 0.268549, -0.237032, -0.0915483, -0.0838049, 0.117285, 0.0243633, -0.0753645, 0.101084, 0.163068, -0.00964493, 0.00324726, -0.27878, -0.0465211, -0.605671, 0.0900791, 0.0951995, -0.0987566, 0.330809, -0.151384, -0.1465, -0.150393, 0.0790147, 0.0618126, 0.159591, -0.00782491, -0.286037, 0.089988, -0.0853184,
